#include <stddef.h>
#include "aicc_runtime.h"

#include <cblas.h>
static void kernel_matmul(const float* A,const float* B,float* C,int M,int K,int N){
  long work = (long)M*(long)K*(long)N;          // ~ MACs
  if (work < 2000000L) {                        // tune threshold
    for(int i=0;i<M;++i){
      for(int j=0;j<N;++j) C[i*N+j] = 0.f;
      for(int k=0;k<K;++k){
        float a = A[i*K + k];
        for(int j=0;j<N;++j) C[i*N + j] += a * B[k*N + j];
      }
    }
    return;
  }
  cblas_sgemm(CblasRowMajor,CblasNoTrans,CblasNoTrans,
              M,N,K,1.0f,A,K,B,N,0.0f,C,N);
}



static void kernel_add(float* X, const float* B, int N){
  for(int i=0;i<N;++i) X[i] += B[i];
}


static void kernel_relu(float* X, int N){
  for(int i=0;i<N;++i) X[i] = X[i] > 0.f ? X[i] : 0.f;
}

static const float W0[] = {0.0257567205,-0.00973156374,0.0136276064,-0.0130969174,0.0019474643,0.0113782547,0.0233049504,-0.00872054882,0.00205526967,-0.00357987196,0.00703467242,-0.00965864677,-0.0112579558,-0.00481963996,0.00163251383,-0.0241509583,0.0129745705,-0.024770353,0.00952221919,0.00192832912,-0.0232235119,-0.0219084322,-0.00246503903,0.02937169,-0.0384983681,-0.00370737514,0.0310299564,-0.0180125479,0.00587606011,0.00577035034,-0.00946875941,0.0330093727,0.00335099874,-0.000277803774,-0.0105058262,0.0392453074,-0.0295059197,-0.00318380818,-0.0038961973,-0.0121189496,0.0198367815,-0.0109633701,0.00485335151,-0.000843382382,-0.00406620512,0.0195889864,-0.0403996557,-0.00801961496,0.000561380992,0.0333091095,0.0142545514,0.0298569035,-0.0101339612,0.0249881744,0.00365586393,-0.0207382739,0.00721734343,0.0394990072,0.0267005228,-0.0107812788,-0.0350912474,0.0114666456,-0.00717478152,-0.00412249751,-0.00400832994,-0.0317639038,0.00221874868,-0.00802780315,-0.0193409137,-0.000112542897,0.0234925188,0.00618401589,-0.00661987113,-0.0113204308,-0.0636296347,0.00560578518,0.0093377661,-0.0181554668,0.0137817645,0.00946394261,-0.0157296639,-0.00607168861,0.0117483912,0.00456658425,-0.0265819933,-0.0213430617,0.0249576587,0.0144642172,-0.0515679903,-0.0142007694,0.0116725154,-0.0203719232,0.00441521872,0.0207116343,0.0294252671,-0.0262321904,0.000942668819,0.0213886593,-0.00584811205,-0.0176935177,0.023914719,-0.0112332953,0.0256534554,0.0268648602,-0.0054824804,0.0310860053,-0.0390637293,-0.0293399543,-7.66931335e-05,-0.00242205826,-0.0111014647,0.0131970458,0.0144378906,0.0386427268,-0.00909054931,-0.016497422,-0.000332698371,0.0261744484,0.0317002982,0.00720260711,0.0249739215,0.000647516514,0.0109965699,-0.00517770229,-0.00461010961,-0.00596584473,-0.0165680721,-0.0183643568,-0.013743069,0.00216324325,0.0190148,0.0037664494,0.0147354538,5.01139511e-05,-0.0502321422,0.00874163117,0.0189208779,-0.0261155386,0.0279958919,0.0189321507,0.00158202706,-0.0113382814,0.00403466402,-0.00354831712,-0.00543239899,0.00110882276,0.000959902303,-0.0152051747,0.00694402121,0.0200780574,-0.00676565059,-0.0185025465,0.0174819957,-0.017285632,-4.04596321e-05,-0.00180225726,-0.0189124811,-0.0110126138,0.0241373945,0.0195819549,-0.0261193793,-0.00441763224,0.00286611519,0.0223040376,0.011212822,0.0312758833,-0.000695660536,-0.00913065113,-0.0149649307,0.01966976,0.00539869815,-0.0164675117,0.0108112562,0.00798768457,-0.045475252,-0.014720859,-0.00402725628,0.0032205421,-0.0240627434,-0.00889825076,-0.0167006571,0.018962685,0.018972842,0.00654434087,0.012872532,-0.00015543263,0.0153864669,-0.0190637968,-0.0109508671,0.0135317277,-0.0197317284,0.00618151529,-0.0107391439,-0.00150762917,-0.0138720321,-0.00270406716,0.00800600648,0.0258744359,-0.0114855552,-0.00893344358,0.0215252452,0.020660948,-0.0217007641,0.0527173877,-0.0177859608,0.00568416528,-0.00775341783,-0.0535634607,0.0478135198,-0.0127657698,0.00748658925,-0.00500722416,-0.00640583318,0.00520738633,-0.0167455338,-0.00408169208,0.019696869,-0.0225806404,0.00395414885,-0.0068879365,-0.00035612873,-0.0337547101,-0.00647623232,-0.00153360295,-0.00459956285,-0.00988473184,-0.00737942522,-0.0217848662,0.0150701832,0.0285454765,-0.000571177807,0.0228423849,-0.0145306159,-0.0182479154,-0.00272843731,0.00303613814,0.0135244019,-0.00730668101,0.00506410189,-0.0484852083,-0.000865386508,-0.00685005169,0.00265045417,0.0405650176,0.0197667256,0.0161424074,-0.0130385589,-0.0113428114,0.0320896655,0.0163905062,-0.00637734029,0.00773171009,0.0291052461,-0.0445205346,0.0138207609,-0.00152790488,0.0280937068,0.0200191569,0.0233270992,-0.00257632253,-0.0175843667,0.023905592,0.00511426246,0.0257386398,-0.00388273597,-0.012699889,-0.0172933582,-0.038351167,-0.0270929951,0.019782532,0.0121964645,0.0167197697,-0.0193380155,0.00900328625,-0.0236093476,-0.00144311902,0.00935997162,0.0271093212,-0.00686650258,-0.0186637733,-0.014016429,-0.0374341011,-0.00894821901,0.00934043061,-0.0214481,-0.0279251728,-0.0144720972,0.00415208098,0.01170462,0.00993709639,0.0143705411,-0.00773391174,-0.00973259471,0.00494377175,-0.0195965264,-0.0032853689,0.0102693951,0.0119500719,-0.0245198999,-0.0011397925,-0.00104102283,-0.00244101719,-0.00952748302,0.0541258976,0.0413651504,-0.00329274079,0.00528682442,0.00171534985,0.00783570949,0.0116292574,-0.000880746171,0.000484842807,0.00104191271,0.0387391336,-0.00464036968,0.0153814992,0.0146451984,0.0172789432,0.0266290475,-0.040730238,0.0102888765,-0.02196192,-0.00183857104,0.0224962253,-0.0143374056,-0.00550971972,0.00404620636,-0.01388398,-0.0124309463,-0.011894362,-0.0284941643,0.0190245397,-0.0160956383,0.0218842272,-0.0260401983,-0.037122041,0.00571880024,0.0075599351,0.0277863909,0.0042084381,0.0117136156,-0.0379088596,-0.0216531195,0.00406992668,-0.0245835558,-0.0375988483,0.0204872303,0.0395739712,0.0160285309,-0.0434784926,-0.0049959477,0.0382843576,-0.0106052384,0.0168575943,-0.00166518136,0.0209148638,0.0401130393,-0.00537442602,-0.012491866,0.0199894737,-0.0012135756,-0.00542692281,-0.0133392904,-0.00257312274,-0.00600203546,-0.0165331811,0.0447972566,-0.0130175352,0.0222542398,-0.00768116256,-0.00844101142,-0.032825619,-0.051546663,-0.00517333625,-0.0134043433,-0.00252799038,0.0118154176,-0.0219624229,0.0171747487,-0.00243819552,0.0390486531,-0.00890612975,0.0286873505,-0.00187323266,-0.00625841785,0.0106499325,-0.0038217965,-0.0229091011,0.0112700118,-0.00109102984,-0.0286317933,0.0391843542,-0.0162954088,-0.0297266021,0.012061988,0.0147907659,0.0196754001,0.000719916367,0.0310884994,-0.0184224434,0.00335744582,0.00589238526,0.000701032579,0.0166701879,-0.00706808968,0.00354287587,0.0154936621,0.0260912608,-0.0129875308,0.0295786131,-0.00398124894,-0.00620518299,0.0188364796,-0.0025181747,0.0137337465,0.0171858333,0.00616998971,0.0158077739,-0.0316602103,-0.0106085287,-0.021773817,0.0440823585,-0.00809320156,0.0120065771,-0.00872680545,0.0337108597,-0.0217464659,-0.0282272883,-0.0208172668,0.00858736597,-0.0119982241,-0.000572507211,-0.0161576569,0.0111383293,-0.0266834702,-0.00409532851,0.0568774641,0.00921239238,-0.0260339305,-0.032326322,0.0575856566,0.0117501486,0.00421923306,0.020241946,0.0275515169,-0.0109028863,-0.0280979108,0.000604625209,-0.00980634987,0.00214625685,-0.000757912814,-0.00774028059,0.0267818067,0.0250821933,0.0303487107,-0.00848858431,-0.0127548659,-0.0129717225,-0.0140896067,-0.0208135322,0.0124437949,-0.0167395677,0.00204666657,0.0188833755,-0.00111625635,-0.00499740895,0.0185317695,-0.00519776391,0.0523368046,0.001642182,0.00633747783,0.00593873113,0.00318546081,-0.00401929952,0.0238137096,0.0293986481,-0.0264998861,0.00825924426,-0.00420548022,-0.0223841909,-0.00463493727,-0.0139692435,0.0298503861,-0.00134002836,-0.0170710403,-0.0353659801,0.0266646575,0.0111146607,-0.00547942612,-0.0069530597,-0.0122901769,0.000793026353,-0.00125414017,-0.0248212591,-0.00266070385,0.043074742,-0.00724091986,-0.0045493925,0.0241097659,-0.00913152937,-0.00607369095,-0.0125131449,-0.0107669793,0.00277770683,-0.00199874467,-0.00798367523,-0.0176026523,-0.00769064156,-0.00807192829,-0.016917292,0.018978104,0.0236080885};
static const float W1[] = {0.0121961283,0.028956661,-0.00753785018,0.0375406556,-0.00317988149,-0.00235288613,0.00292971474,0.00925528072,-0.0198600385,-0.00922541972,0.00383246969,0.078096725,-0.0405490249,-0.0103865238,0.0142048914,0.016260637,0.020062184,-0.00364839076,-0.0134108327,-0.00300478539,0.046047736,0.0152945071,0.024825396,0.00735048624,0.0304961503,0.0149609363,0.0411488712,-0.0373082757,-0.0158919301,-0.0406969152,0.0242626611,0.0106685329,-0.0487699099,-0.00882694405,0.0466193184,-0.0122767957,-0.0605699718,-0.0326987579,0.000298717729,-0.0481630787,0.00187344593,0.00894967932,0.0266414676,-0.00049541617,0.00182154344,0.0250570718,0.00469520595,-0.00842107553,-0.0241786316,-0.0194391385,-0.00338729727,-0.0126665235,0.0104633439,-0.0129514448,-0.003446477,0.0151509186,-0.00570010161,0.0118687507,0.0169734452,0.0148833236,-0.00611745007,0.0339925848,0.00897607766,-0.00832968578,-0.0192716289,0.0284372028,-0.0120298602,-0.0137476763,-0.0256334227,-0.013681191,0.0161762815,0.0029711898,0.0149336345,0.0188609399,-0.0142054195,0.012345586,-0.00166253606,-0.00424421439,-0.000167050064,0.0170462634,-0.0409692936,0.00680216216,-0.0136627443,0.0208706353,0.00613303529,-0.00232892856,-0.0213806983,0.000367912231,0.0191643015,-0.0123013407,-0.0237097405,0.0145559283,-0.00195123954,0.0162031632,0.0012049044,-0.0370470844,0.00199699774,0.0111955702,0.00916358549,0.0218605846,0.0128711825,0.0279295724,-0.0272258315,0.0151803466,0.020462133,-0.0193712357,0.0171697009,-0.00183077541,-0.0226911828,0.0140366424,-0.0028636877,-0.0304503459,0.0108530046,-0.0107124615,0.0138153965,0.0274602193,-0.0142775523,0.00708611077,0.019666845,-0.00202727201,0.0149040623,-0.0041218847,0.0111683579,0.00786574278,-0.012815455,0.00337975519,0.00230120216,-0.0281623714,-0.00318530342,0.0107349297,-0.0121107912,-0.0222094692,-0.0363432616,-0.0256658997,0.0194108896,0.0376191139,-0.00755814789,0.0334447511,-0.0046922043,0.00787205063,-0.0261963215,-0.0114414589,-0.0022954212,0.0021058151,-0.0302322954,0.0105183851,0.00276229158,-0.00302876858,-0.0150863696,-0.0084242709,-0.008399182,-0.0014836319,-0.0248398446,-0.0164184999,0.0303408038,0.0063086329,-0.0196885318,-0.00728082238,-0.00507797487,0.00878808089,-0.0106438203,-0.00245912513,0.0208113007,-0.00590403378,0.0237583965,-0.0242862832,0.00312632485,0.00913106464,0.01156874,0.000856811414,-1.36795798e-05,0.0377352573,-0.0575665124,0.0123152696,-0.0164144207,0.0190464631,0.00704295794,0.0110686617,0.00803607423,-0.0165589619,-0.00676358677,0.0244213529,0.0101873362,0.0240074601,-0.00778499758,-0.0118040591,-0.0195065513,0.00581763033,0.0143823083,0.00699341204,-0.010239156,-0.0139500471,-0.0296597444,-0.00735971611,-0.00176480412,-0.0374118313,-0.0128759639,0.0010295111,-0.00697734812,-0.0329838321,0.00492737861,-0.00627131388,-0.0125116091,-0.031232927,0.00359976012,0.014759969,0.0331754237,-0.0203145016,0.0098182559,-0.0116210114,-0.0104551539,-0.0231483448,0.0143174697,-0.00432032114,0.000237516826,0.00108761375,-0.0125690764,0.000247603282,0.0041850321,-0.00457838783,-0.00519127352,-0.0167640019,0.00245743664,0.0272204671,-0.012603092,0.0203535594,-0.0190757215,-0.00501639675,-0.0112265665,-0.0176494326,0.0155241415,-0.0362573862,-0.018751068,0.0019030486,0.0110800313,-0.0709695145,-0.00184331276,0.0108749717,-0.0240448844,0.0173976067,-0.0293056145,0.0148654133,-0.00928309094,-0.00139661145,0.0359958,0.028440699,-0.00714136474,-0.0061395294,-0.0186998695,0.0248009246,-0.00481685996,0.0279447176,0.0192256738,-0.0192730092,-0.00735553075,0.0227590147,-0.018519083,-0.0251083411,-0.00172736193,-0.00203935639,0.000387386186,-0.0178326815,-0.00317375897,-0.0147947455,-0.0485058576,-0.0160819925,-0.0304070506,0.0146468459,0.00233468553,-0.00215283828,0.00839013699,0.0144559201,-0.0067594233,-0.00174303458,-0.010069252,-0.00750148948,0.00216884655,-0.0158022344,-0.0293964278,-0.035620518,-0.0199641529,-0.000255703781,-0.0034526682,0.0184243582,0.015166983,-0.0036721651,-0.00824685302,-0.0361362435,-0.0106392112,-0.00535361934,-0.000248603581,-0.0299750734,0.021415446,0.0396755263,0.00746753952,0.0191999488,-0.0186365657,0.0149486456,-0.00323683023,-0.0260176528,0.00187018549,-0.0112119243,-0.00157985848,0.0374013521,0.0163923912,-0.0270777699,-0.000547596603,0.00480302842,-0.00594605319,0.0123984898,0.00275711273,-0.0115729403,-0.0172906201,-0.0130796861,0.0164666306,-0.0109185632,-0.00453012204,-0.00528696878,-0.0213074163,-0.0024137774,-1.14083405e-05,-0.0127586043,0.00288721267,-0.0289934874,-0.013218089,-0.0168538895,-0.0180988256,-0.0495082662,0.0338777639,-0.0433123298,-0.00414874777,0.0204919837,-0.0108281765,0.0205800366,0.0137325479,-0.036570929,-0.0185745917,0.0347063653,0.00491565885,-0.00888843182,-0.0221113823,-0.0131734125,0.0170175824,0.00307733985,0.0157941002,-0.00438595191,-0.0104678841,0.033506196,0.0141690522,0.0149522657,0.0179043636,-0.0444510728,-0.00260022841,-0.0137779079,-0.017176535,0.0119234193,0.0422247872,-0.00435927091,-0.0127642881,0.00857338589,-0.011759988,0.00628505042,0.00820583943,-0.0275788493,-0.0315516405,-0.0142842187,-0.0148697374,0.0014312854,-0.0152019113,-0.0094082905,0.00399983488,0.0199282169,-0.0386748649,-0.0340516046,0.00638282765,-0.0291537512,0.00564891612,0.0117297731,-0.000677729549,0.0102154352,-0.0341410451,0.00311573758,-0.00540704234,-0.00884218886,-0.00391840562,-0.0181652121,-0.02443932,0.00247317203,0.0148854945,-0.0141926548,0.0099408878,-0.0335525349,0.0201298632,-0.000502314768,0.0236932505,-0.0252240393,0.00684561487,-0.0220213532,-0.0115417689,0.0578812547,-0.00556366984,0.01593736,-0.00315706804,-0.0166775249,-0.032659512,0.0102299554,-0.0107368492,0.00874441024,0.0161661487,0.0336191654,-0.00440653646,0.0237945337,0.0189484954,-0.0245724618,-0.013309394,0.0100059956,-0.0408938527,-0.0209734198,0.0171308126,0.0147682214,0.0188901424,0.0123000527,0.0226085968,0.00737513928,-0.0114106173,-0.0133337416,-0.0123225758,-0.00317529798,0.00420294655,0.0139795737,0.0117146038,-0.0305613037,-0.0138196964,-0.00203972985,0.027459437,-0.0014264913,-0.00206521084,0.00753324013,-0.0248395931,0.0223411117,-0.0174141526,-0.00718483888,-0.0132435691,0.0163844116,0.00750989653,-0.0136999972,-0.0125046782,-0.022009965,-0.00369770452,0.0112059675,-0.0208084658,0.0175187178,0.00703228591,0.0384835787,0.00300893863,-0.00132190995,-0.0219289027,0.0108072925,0.0204404891,0.0502557755,0.00363527122,-0.0282291546,0.029359445,-0.00823957566,-0.0103223408,0.0199103225,-0.0268163867,-0.0241089389,0.0275261477,0.0093210116,0.0189209785,0.00400574272,0.0345559344,-0.00403238274,-0.0171745103,-0.0178258289,-0.00988415536,0.0206162632,-0.0247768685,-0.0145017812,-0.0258061197,-0.00271995459,-0.0437405966,-0.00266720797,-0.000152708293,-0.00836595334,0.00570888165,-0.0314140804,-0.0070776972,0.00804322958,-0.0159219205,-0.0382430553,0.00379057135,-0.0349077955,0.00685577327,-0.0252609719,-0.0144596128,-0.00309268269,-0.0279257409,-0.0152310906,0.0188487731,0.0152828479,0.0191853885,0.0150900567,0.00295365765,-0.0245046131,-0.00482313335,-0.0303016566,-0.00506427698,0.00798078999,0.044268921,0.0268102214,0.0144776274,-0.0188735686,-0.0013975912,0.00264280871,0.000911717769,-0.00467659347,0.0180151239,-0.0309332553,0.0242522266,-0.020659253,-0.0142864753,-0.00338717084,0.0235465001,-0.00979419705,-0.00575855793,0.000416813971,-0.0105413664,0.0114553338,-0.00247091753,-0.0176914651,-0.0120641841,-0.00984170754,-0.0134225199,0.023403652,-0.0239990298,-0.0205570832,-0.00869789068,-0.0300815143,0.0013217394,-0.0235028733,-0.0135879405,-0.0247605648,0.0132502569,0.014365281,0.00198839535,0.0246570818,0.00583319552,0.0059019411,-0.0152216423,0.017779544,-0.00743466197,0.00844898075,-0.0159188993,-0.0305985343,0.00394265633,-0.000461026386,-0.00888975989,0.00926129892,-0.00486316439,-0.0251060333,-0.0217834115,0.000819490582,0.0329256356,0.0127248233,-0.0247485507,0.00496106455,0.0293813478,0.0188174974,0.0116185546,-0.00524870912,-0.015875807,-0.0254152548,-0.0119334375,-0.0285779275,0.00864917878,0.00928928796,0.0025352966,0.0252004433,0.0126330024,-0.0226128232,0.00869410578,0.0097579984,0.0405663326,0.0287564918,-0.00988877285,0.0451294109,0.00187864818,0.017148219,-0.0128588043,0.00903603435,0.0155067062,0.010517193,0.0332475193,0.0236489847,0.029540116,-0.0216474403,-0.0143607771,0.0130708646,-0.0220737327,0.0189781096,-0.0269549191,0.00898467656,-0.00472179474,0.00493300566,0.0118877292,0.0285106227,0.0157449245,-0.0139952907,-0.0390290134,0.0457403921,-0.0344211012,-0.00882502552,0.0164052099,0.00851786137,-0.0107964929,0.018838767,0.00707991282,-0.00250827079,-0.0196768269,0.0216688104,0.00960829575,0.0254260525,-0.029384762,-0.00488815783,0.00351163093,0.0178192109,0.00463175401,0.0109964227,0.0346253365,0.00480983173,-0.0415358283,0.00670404918,0.0250756051,-0.0145619363,0.00773331756,0.0220986977,-0.0429678448,-0.00605099229,0.0127963703,-0.00968221016,-0.00971883163,-0.0321815163,0.0195472315,0.00852385815,-0.00619689561,0.0187455416,-0.0199994184,0.0265315436,0.0264455769,-0.0123765953,-0.0147521449,0.0218696035,-0.0258629285,0.00389011856,-0.00320735946,0.00579350209,-0.00588215934,0.0278097056,0.0161841046,0.0114770671,0.0177555084,-0.0467080399,-0.0180625096,0.0139030134,0.00736840302,-0.0141024357,0.00159888342,0.00169910165,-0.00928330701,-0.0177248362,-0.0212012473,-0.0140291899,-0.00638026092,-0.0159672108,-0.0221605767,0.0132545326,0.021348672,0.0109667908,-0.000976223673,0.0182295945,-0.0245093442,0.0204808544,-0.0162106473,0.00216919091,0.0544437915,-0.00753844902,-0.0148824202,0.00568045676,0.0247957315,-0.0086181527,-0.0177190565,0.00973404106,0.0192680527,0.00712992251,-0.0179028716,0.0101686679,0.042889975,-0.00655849325,0.00852446537,-0.0115338797,-0.0341565497,-0.0373662859,-0.0435323752,0.0594167933,0.0181808714,-0.0184215847,-0.00445756083,0.00730771758,0.0110690137,-0.00381623232,-0.0198752061,0.0125860907,-0.027242247,-0.00141568645,-0.00419586478,-0.0178721119,-0.00692740921,0.00684468448,-0.0294579472,-0.0116069075,-0.0126646385,0.00284644053,0.00236007362,0.0199074354,-0.00639623683,-0.0098937396,0.00437598629,0.00807623286,0.0325761251,-0.0147141265,-0.0164150577,0.0373436175,0.0247587264,0.0219001174,-0.0207561944,0.00595122576,0.0109913247,-0.00848483574,-0.0123290615,0.0110364901,0.000725626538,0.00155933865,-0.0108748348,-0.0144000463,0.0073476159,-0.00250017433,-0.0306848884,0.0131797288,-0.0115109039,-0.0229456667,-0.0116067613,-0.0300889406,0.0194239262,0.0201553795,0.0211468898,-0.00640788721,0.029054245,0.0100042243,-0.00568255037,0.0136032803,0.0269468874,0.021378614,-0.00401214417,-0.0498255901,-0.0388610363,-0.0185698327,0.00793777592,0.000805753691,0.0240094103,-0.0180263948,-0.0116612716,-0.00200857152,0.00795397814,-0.0261348113,-0.0174375083,-0.00621605618,-0.00618269434,-0.0207453538,-0.000808743876,0.0297970083,-0.0215073787,0.00400984287,0.00207011309,-0.0440034866,0.0122204078,0.0145807741,0.00379256322,0.00435348926,-0.0469526723,-0.00874389894,0.0258930773,0.00510904798,-0.000924257678,-0.00883825123,-0.0327403918,-0.0163693484,0.0178372562,-0.00528509123,0.00605874229,0.0201817509,-0.018920783,-0.0517495014,0.00746404193,0.000477829162,0.0116767539,0.0316733085,0.0207826402,-0.0201008599,0.00355080841,-0.00836463459,-0.0269423239,-0.00329334335,0.00109683641,-0.024021199,0.000903000648,0.00634046318,-0.0117878551,-0.00604827749,-0.0139657576,0.00424230238,0.00967498682,0.0198792983,0.025218524,0.00262553082,-0.0292769838,0.0153843807,-0.0188606624,-0.0081119705,-0.0067198053,-0.0155166853,-0.00458353991,-0.0104296952,0.0273394194,0.0151573392,-0.0098351026,-0.0167329684,-0.0185324699,-0.00527809002,0.0169564355,-0.0169148613,-0.00674425764,-0.00910909567,0.00249483553,-0.0388552286,-0.0133830104,-0.0150903212,0.0121269077,0.0230587572,-0.0296080243,-0.0307610631,0.0067672208,-0.00769218709,0.0330580734,-0.0310890023,-0.0144220125,-0.0162303466,-0.000269328099,-0.00269173877,-0.0100744879,-0.000189254628,0.0305058695,0.0172713716,-0.0134934532,0.00219230028,0.0259466693,0.0127626127,0.00740475347,-0.00992619898,-0.0145020755,-0.00911253504,-0.00711418688,0.0076946863,0.00316992449,0.00708110677,0.00619717874,-0.000852764177,-0.00372611522,-0.00195712224,0.0327995308,-0.0243574046,0.0123664755,0.00401310623,-0.0162608605,0.012244178,-0.0128595382,0.0105032725,-0.0208253004,0.023620354,0.0143374819,-0.0108016785,-0.0212407205,-0.00408237986,-0.0270854272,-0.0108962888,-0.0119270142,0.0120857153,0.0169568881,-0.0176718682,0.0373950414,0.0282505751,-0.00726000639,0.0194573738,0.0172117744,0.00143359974,-0.00112598005,-0.0143940588,0.0258914735,0.00459412159,-0.00158774154,-0.00774964551,-0.00387662882,-0.0055698487,0.015871238,-0.025900688,0.00925790984,-0.0136543978,0.00631519407,-0.00015778208,0.0117057236,0.00319118891,0.00185436301,-0.00854533073,-0.05238612,-0.0086957505,0.0248377267,0.0167178381,-0.0133977365,-0.0183138046,-9.13552722e-05,-0.029012749,-0.0151615934,0.0330746695,-0.00396506768,-0.00958511047,-0.0274036042,0.0151509987,-0.0339119621,-0.039554555,-0.0116573768,0.0042186412,0.0303602908,0.0144843217,0.00423009135,0.0325039364,0.0262749474,-0.0256911051,0.0342199355,-0.00402217312,0.0215973444,-0.0156404655,-0.0212138388,-0.0460061319,0.000180193296,0.00122616871,0.00711275078,0.0361518413,-0.010020081,-0.0179549083,-0.00751949893,0.0367746018,-0.0144829666,-0.0307346918,0.00159657805,0.00481314212,-0.00626679044,-0.0232860632,0.00578077044,-0.00973841269,0.0127295703,0.0411362536,-0.0272646993,-0.020761067,-0.00905027147,0.0072912341,-0.0062856786,-0.0138164498,0.00158355467,0.0112550519,-0.0089524677,0.00867586862,0.0100852437,-0.0272837412,0.014734447,0.00214028521,-0.0085381465,0.00806010328,-0.0377996638,0.00318888505,-0.0128849158,0.017866699,-0.0349989124,0.0182558559,-0.0175114404,0.0250103697,0.000525394571,0.0194094423,0.0376311056,0.00295857014,0.021143293,0.0243835151,-0.0175125841,-0.0377832875,-0.00249514706,-0.00303083472,0.00636356138,0.0163262021,-0.00412844541,-0.00156940054,0.00306475069,0.0519168191,0.00148740108,0.00658110483,-0.00202255812,-0.0237518568,0.0092979772,-0.0517397597,-0.00948362518,-0.0127271097,0.0333161317,0.00927644968,0.00528556388,0.0113177514,-0.0227977429,-0.0217233934,-0.0235748142,0.0296865311,0.00876375381,-0.010118233,-0.00840348192,0.00390900439,-0.0220821891,-0.0341641568,0.00252900785,0.0345958807,-0.0165885594,0.0196424648,-0.00120732712,-0.00725892652,0.00898615364,-0.00957020465,0.0345760621,0.00659939134,-0.0192862675,0.00409854995,-0.00905233715,0.0135181313,-0.0172638074,0.0249966029,-0.0192717761,0.0255831685,-0.0103771361,-0.00257822499,0.058668714,0.0230096765,0.00799772888,-0.0133516761,-0.00721110543,-0.0303466525,0.00361750717,0.00889071263,0.01680349,-0.0122163175,-0.0069349166,-0.00880936626,0.0182463378,-0.0103939446,-0.0307152495,-0.000849404489,0.0146814454,-0.000488966587,-0.00648250617,-0.0131644197,-0.0101269027,0.00889024697,-0.00233654957,-0.0423085578,0.0437933132,-0.0177356284,0.00312901405,0.000875572441,0.00271617761,0.0018428287,-0.014390626,0.0192089807,0.018362632,-0.00823942292,-0.00128826301,-0.0158458464,0.00182992942,-0.00613019383,0.00175691745,0.0145416148,0.0157661159,0.0281935465,-0.0038639023,-0.00389759406,-0.0229733512,-0.0014065149,-0.00533927232,0.0293062441,-0.00210276223,0.00625039125,-0.0536814146,0.0352310725,-0.000981329824,0.00387121947,-0.00709794369,0.0186049975,0.0208278429,-0.00156587374,0.00465341238,0.00722274324,0.0179963298,-0.0307484791,0.0182073861,0.00318777468,0.0136581706,0.0177152548,-0.0379949398,-0.00861891452,-0.00749783777,-0.0062262509,0.0126872994,0.0196613334,0.00609626155,-0.00556938397,0.00872440357,0.0192441083,0.00547460048,0.0174154919,-0.00503865536,-0.0175998453,0.031473726,0.0277774241,0.0154546546,0.00824822392,0.025881866,-0.0108901365,0.0158747658,-0.0106436815,0.00314330752,-0.0188936293,0.0012565559,0.021392744,-0.02291031,-0.0215327684,0.0239243619,0.00297021796,-0.0252311137,0.0364171788,-0.0253646653,-0.0249436405,-0.0230691116,-0.0134814177,-0.0111922687,-0.0328662321,0.00512167672,0.0531388409,0.0118148588,-0.0215723924,-0.0423343591,0.0128007829,0.00580307003,-0.00751103554,0.00542375678,-0.0346822031,0.00348671945,0.0114709716,0.0171030853,-0.00181806693,0.00741790514,0.00402619597,-0.00605399255,-0.0315519087,-0.00448501809,-0.0111797834,0.0169834439,-0.00868487824,0.0138666891,0.0102071483,-0.0276390389,-0.0168814771,-0.0107179768,0.0269143749,0.0085898554,-0.0262404121,-0.0340789557,-0.0364006311,0.022486385,0.00169021054,0.00602579443,0.00160664856,-0.0335731171,-0.00701321522,-0.0146122547,-0.000558199536,-0.00341459387,0.00400850503,-0.00742732268,0.018721953,0.00542552397,-0.0236398261,0.0122065041,0.00538173923,-0.00978034828,0.00953362416,0.0102319391,-0.00356011628,-0.000937732111,0.00078277092,-0.00259346981,0.0454405881,-0.00011421385,0.0246663019,-0.0140957031,-0.00413838401,-0.00748247048,-0.0155774271,-0.00699436525,0.00255405903,-0.0238315072,0.0105561186,0.00809924211,0.00454270514,0.0162537936,0.0191451292,0.00650900649,-0.00324018742,0.00678435294,-0.00171484565,0.0302065127,-0.00582887651,-0.00973130949,0.015695788,-0.00678278273,0.0123017905,0.042233061,0.0256831478,-0.00176760682,0.0107219182,-0.00725035276,0.0401460417,-0.0294594467,-0.0225138105,0.00900205504,-0.0327081494,0.00865076203,-0.00466580223,-0.0376727469,0.0327375047,-0.0283993166,-0.00617846102,0.00655525783,-0.0115531059,-0.00402380014,0.0269298758,-0.0180148985,0.0539713167,-0.0293924138,0.00132366549,0.0121664833,0.00261894288,-0.0132002672,-0.01333181,-0.0133966943,0.0136311874,0.00999294221,-0.00241818884,0.025803728,-0.0269336719,-0.0295032896,0.0366807319,-0.0224498175,0.0258705299,0.0296027325,-0.0200279132,-0.0310469568,0.00735256076,-0.00125257624,-0.00483979145,-0.0118560418,-0.0178058073,-0.0103045749,0.00907558948,0.0166777782,0.00447674654,0.0304375887,-0.0144646391,-0.0366322994,-0.0277958736,0.00225751265,0.00308742165,-0.0285013001,0.0174312424,-0.0340889506,-0.00585467741,0.0213329736,0.0138804745,-0.0105381226,0.00552807655,-0.0452709608,0.00616517663,-0.0170558691,-0.0434302874,-0.0163781419,0.00825604331,-0.00617133407,0.0155510055,-0.0384195745,0.0125685269,0.0379870199,0.01998391,0.0214269627,-0.0333023742,0.0199778266,-0.0204590242,-0.0048622163,-0.00138489052,0.0087226769,0.0023471911,-0.0089468509,-0.00403678697,-0.0168899801,0.0133041823,-0.000584867201,-0.00102600746,0.0122798979,-0.0207954254,-0.0272481069,0.00667823432,0.00194045843,0.040162053,-0.0177223701,-0.0145035991,-0.0280363858,0.00442716619,-0.00564109255,0.0111906482,-0.0141860386,-0.0166666843,0.0128877293,0.0131290564,-0.0190813355,-0.0337129943,0.00764169218,-0.00131068076,-0.0195160322,0.0229086541,0.0193438623,0.0313533433,0.0386971459,-0.0134825027,0.0152278198,0.00215094164,-0.0107224807,-0.0284469351,-0.0180091113,0.00283699832,-0.0176185016,-0.0303317439,-0.0307248235,0.00560748205,0.00654660212,-0.00859248545,-0.0101036308,-0.00177444145,0.00733383279,0.00175279216,-0.000239760382,-0.0199989956,0.00490051787,0.0186488722,-0.0288771838,0.00334151206,0.0127648348,-0.0487583727,0.00249178428,0.0105786147,-0.0192850363,0.0214816257,-0.0179763138,0.0132312411,-0.0099350661,0.0149452044,-0.00823396631,0.0257591885,-0.0174268782,0.00738858385,-0.00223501399,0.00768166455,-0.0251367297,0.0130151957,-0.0138059892,-0.000447635684,-0.0149706788,-0.0126048122,-0.0116118575,0.00530541269,0.00868981238,0.00818945467,-0.00147396722,-0.0146900509,-0.0133158136,-0.0132327601,0.00681173708,-0.0277352668,-0.0114064133,0.00181862991,-0.0285698194,0.0116993934,-0.0339071862,-0.00368803623,0.00983512867,-0.0181065165,-0.0222364031,0.00823883153,-0.017823521,-0.00283612427,0.0117212506,-0.0131968707,0.0326467045,0.00323694316,-0.0159248598,-0.00434002792,-0.0470124371,-0.00080303062,0.0198788606,-0.0417046361,-0.0212527718,0.0252508279,-0.0469544418,0.00306181121,1.59846386e-05,0.0106490469,0.00523169758,0.0221175812,-0.0359453969,-0.0110060154,0.00030268071,-0.00176103518,0.0224915594,0.0329564102,-0.0220535398,0.0347858407,0.0430434123,-0.0213676877,0.0147087676,-0.00879020523,-0.0399414524,0.0272318125,7.96058011e-05,0.0100186737,0.0191919841,-0.00204790849,-0.029985657,-0.00139181106,-0.0128205298,0.00651107635,0.0080166813,0.0340801813,-0.00510003371,0.0413594767,-0.0120946262,-0.0258639045,0.0562647581,-0.0263200421,0.00315061631,0.00675818836,-0.0107440455,-0.00572619773,0.000901134219,0.0228185728,0.00146687834,0.00236089621,-0.0259433128,-0.0151122725,-0.00159423449,-0.00600577472,0.00843016058,-0.017831048,0.00144684187,-0.0133551313,0.00414704392,-0.052409362,-0.00228557736,-0.0231683552,0.00232373504,-0.00541879889,0.00299239717,-0.0132876188,0.0198011864,-0.00555266859,-0.00420560455,0.0395223983,0.000625638175,0.0204953142,-0.00646709418,-0.0104439687,0.0218423624,-0.0111638531,-0.00745944818,-0.0155998981,0.0793971643,0.021481296,0.0242304727,0.00711324578,0.0216102339,0.00333486241,0.0230484772,-0.0434977598,0.026943177,-0.000458153314,0.0239671711,0.00603464153,-0.00455843424,-0.0128594022,0.0565181784,-0.0103892405,0.0118561955,-0.00115837075,0.0256848559,0.00735861575,-0.00671775639,-0.0254778769,-0.000635736331,0.0241656061,-0.00486586196,0.0128132915,-0.0156035554,0.0481114127,-0.0138961086,-0.00672036083,0.0185728949,-0.0245518684,0.013910532,0.0096213622,0.00317823049,-0.0207256638,-0.0219792165,0.0502883978,-0.0180191547,-0.00294512021,0.00478385761,-0.00209054188,0.0010457465,-0.0277795307,0.0310291834,0.0261346269,-0.00827625953,-0.00685694302,-0.00740452344,0.0218459163,-0.0245142151,0.0212811679,-0.00518423365,-0.0332495011,-0.00446213689,0.0184148885,0.0302543212,-0.0183343347,0.0268081538,-0.00973613001,-0.0101757571,-0.0221552756,-0.0456184372,0.0357151888,-0.00801288802,-0.0302513298,-0.0175015628,-0.0197581183,-0.00399024459,-0.00876145344,0.000507328776,-0.000430288084,-0.0187320206,0.0113515388,0.00579569675,0.00717063155,-0.011184209,0.00104694115,-0.0049634669,-0.0176480357,0.00502512371,-0.0437521935,-0.00335735502,0.0152318692,-0.0359518528,0.00455939211,0.0033134222,-0.0187408403,0.0147424424,-0.0034215136,-0.0222806633,0.00989089254,0.0175087098,-0.00248251064,-0.0112399254,-0.0143144876,-0.0214962438,0.0079691764,-0.0196061432,0.0084199002,0.00632216549,-0.0213879552,-0.0204850044,0.0106695769,0.00955218077,0.0267608259,0.0342197232,-0.000676552241,0.0118198488,-0.0185507759,-0.0319594629,0.0523834899,0.00154488755,0.0255435016,-0.000230367383,0.0344298743,0.00773296691,0.0172310155,-0.0197594035,0.00716807647,-0.00778920855,-0.0290019978,0.0261526927,0.00198452664,-0.0148264049,0.0262094866,-0.0230449289,-0.0565954819,-0.00641624536,0.0131494589,-0.00681822933,0.000959347177,0.00126139075,0.0105925426,0.00431047566,0.0177138578,0.0343106687,0.00160013791,-0.0144578135,-0.00803085323,0.0218675733,0.0079523474,0.00134628278,-0.0127113722,0.000423781457,-0.0625141039,-0.0152217336,-0.015882859,-0.0147314696,-0.00252508605,-0.00054382754,0.0200555455,-0.0488132611,0.0012174577,0.0174651705,-0.0117789591,-0.00254843151,0.00372565887,0.00531676412,-0.0195899494,-0.0193672013,0.00253458251,-1.81121522e-05,0.00255092769,-0.00777856214,-0.000825405354,0.00300440076,-0.00744351186,-0.00379626709,0.0240802169,-0.000812678365,-0.020951977,-0.00542255677,-0.0155219901,-0.000273249316,0.00669709779,-0.00344763417,-0.00363458274,0.0137096401,-0.0299820136,0.013070168,0.016783705,-0.00772081548,-0.00146455236,0.00956624374,0.0127470307,0.0213176776,0.0258241203,-0.00962176919,-0.0237860046,-0.00380407111,0.00207514456,-0.0235545672,0.0426987149,0.000897780643,-0.00201170379,-0.00195414363,-0.00167599798,0.0262822099,0.0147479456,0.00476311054,0.00527005503,-0.000490703213,0.0139711155,0.0137280319,-0.0189048816,0.0127140041,0.00978696533,0.0117689325,0.0411470197,0.0425186083,-0.00119366322,-0.0149642807,0.0142150735,-0.0346140191,-0.00170755771,-0.020003261,0.0155822821,-0.0272890273,0.00274722069,0.00941182021,0.0124807972,0.021849487,0.0159344543,0.0240340028,-0.0287296548,0.00721349148,-0.0102254888,0.00984868966,-0.0237948503,-0.0271551181,-0.0359927639,0.0185608882,-0.00170766702,-0.0775117278,0.0315888934,-0.012480244,-0.0127448319,0.00983388443,0.0230765119,-0.021974992,-0.0313847512,0.0123459361,-0.00848316029,0.0091308644,-0.0199677646,-0.0137231369,0.00781109137,0.0542747788,-0.0125044174,-0.0100870831,-0.0196820926,-0.00246944977,0.00879172981,0.009809657,-0.0110299764,-0.0226851106,0.0147929117,0.00760637689,-0.050629992,-0.0126363607,0.0258362461,-0.0151567906,0.0340966955,0.0190975182,0.021931896,-0.0236840416,0.00106744736,0.0157953296,-0.0180741455,-0.024418626,-0.00949232094,0.000202783645,-0.00842672959,0.0137672275,0.00860004686,-0.00147792802,-0.0260730684,-0.0469999351,-0.0116252992,0.0152134048,0.0216851421,0.01538679,-0.0107540973,0.00749397278,0.00315806433,-0.00733736809,-0.00695940759,-0.0293306876,-0.0149859767,-0.0245488025,0.0151394801,-0.0221067611,0.0188092515,0.0245833416,0.0134291574,0.0133917425,0.00448364671,-0.0385195948,-0.0320413671,0.0227801874,0.00470570195,-0.0177562404,-0.0149650546,0.0167023167,-0.00377167272,0.00708977878,0.0302462,-0.00144364848,-0.00570109999,-0.00901826099,0.00539752934,-0.0176018365,0.0242918506,0.0105396658,-0.0345913172,-0.0131918294,0.00408104155,0.0478999019,-0.0154811833,-0.00206799433,-0.0174086224,-0.00260601612,-0.0119282193,-0.0121693462,-0.0119135743,0.0306404512,-0.011376583,-0.0186867658,0.0159980375,-0.013709601,-0.0143725835,0.0119134579,-0.00535185914,0.0364628695,-0.0285565183,-0.00883830804,-0.0115658948,-0.00517203426,0.00422394974,0.00601535896,-0.00645003421,-0.0145785678,0.0135583561,0.0133121926,0.0263702888,0.0224960279,0.00186522433,0.021872608,0.0022855429,0.0235912763,0.0216734707,0.00779794063,-0.00506764743,0.0280396212,-0.000723693578,-0.0295231678,0.0244922638,0.0173510425,-0.0352918282,0.0116463965,0.0282436367,-0.00302440301,-0.0158759486,0.000848675147,0.0248049833,-0.0166856628,0.0252309814,0.0091842385,0.0114740497,0.0219625756,-0.032403186,-0.0299258772,-0.00653933175,0.00621189456,0.0202199332,0.00936014298,-0.024556879,0.0201174635,-0.0233619604,0.0128675578,0.0364553668,0.0431762747,0.016135836,0.0241431631,-0.00624061329,-0.00472562714,0.0291862171,-0.0167968329,0.00156027323,0.0243586656,-0.00197001593,-0.00790431444,-0.0025555368,0.0328878909,-0.0175386909,-0.00954819098,-0.0196240433,0.00607324298,-0.00616592448,-0.0247997288,0.00477886479,0.00405930728,-0.0108866058,0.0196380354,0.022818204,-0.0177640524,-0.00237704907,-0.00141327502,0.0225604046,-0.00553323654,-0.0474603064,0.016628826,-0.00946008507,-0.00626560301,0.0338499434,0.0142218191,-0.000990920933,-0.0158682335,0.0240325443,-0.0368727259,0.0159990806,-0.00932045933,0.000339733844,-0.0347786285,-0.00604050793,0.0219102148,-0.0517367646,-0.00605792692,-0.00600231811,0.0092732003,-0.0335175619,-0.00531620532,-0.00413527759,-0.000725591555,0.00124034716,0.0198368933,0.0372488759,-0.000540727284,-0.00346396677,0.00164258119,0.0125934295,0.00434951438,0.015451395,0.0626844689,0.0057768398,-0.0171556659,-0.0169945434,0.00481087714,0.0232287683,0.00758442702,0.00435616355,0.011113761,0.03552844,0.0117535088,0.0309404731,-0.0109598357,0.00248415698,0.0158672519,-0.000379962905,-0.0130223595,0.0204730798,-0.00483821658,-0.0152171748,-0.000403243321,0.0122235669,-0.0179154091,0.015172556,-0.0283506364,-0.0213280451,-0.0187346078,-0.0331337489,0.00730191171,0.0240765009,-0.00862900633,-0.0255160537,0.0112821767,0.00990213268,-0.00681015244,0.0269252174,-0.0200963393,0.00828632712,-0.0168448538,-0.0125235384,-0.0302742589,0.0162550043,0.0292880666,0.00803930499,-0.0109962532,-0.0221960545,-0.0188910868,0.00242096442,0.000139583834,0.00989698432,0.0303175785,0.000244462193,0.020683052,-0.00612829067,-0.00365055725,-0.0170801766,-0.0159470011,0.0193929262,0.00795831624,-0.00177170348,0.0378669649,-0.027999837,0.007660551,-0.0193558373,0.0223787352,-0.0369506218,-0.00179308234,-0.0223166533,-0.0201882254,0.0246320497,-0.00664739311,0.020723816,-0.00124653417,0.0367643386,0.00895161461,0.0369400643,-0.015696777,-0.0202539414,-0.00065734348,-0.0228496436,-0.0417513996,-0.0305974614,-0.0233082194,-0.024814792,-0.00308592943,0.00722147431,0.0182717647,0.0431491546,-0.0136614116,-0.0143416692,-0.0145689854,0.00194987422,-0.00488393614,-0.0123365745,-0.00876819156,0.00844533462,-0.0217123888,-0.00622050557,-0.0286908615,0.00589471636,-0.0260031614,0.0251449849,-0.0219413973,-0.00249852613,0.038871713,0.0113495523,-0.0290368237,-0.00968127046,-0.00673998147,-0.00660923682,0.0193714667,0.0189375542,-0.0081680445,-0.02418378,-0.0273367874,0.0190436691,-0.0203036144,-0.0145424837,0.00978344586,0.0447271988,-0.0313853621,0.0680840984,0.0128379595,0.0287349243,0.0241605546,-0.000921529077,0.0170527268,-0.0219760295,-0.0238103569,0.0221654698,0.0213127993,0.0401307605,-0.0378305502,0.00400633877,0.00341362786,-0.0193467569,-0.0139412368,-0.0146257244,-0.0193191711,0.0072293398,-0.023178732,0.0205268729,0.0124223977,-0.00118643278,0.037295036,0.0283238757,0.00661922479,-0.0117688449,-0.0345541984,0.0211714525,0.0120671233,0.0279079434,-0.0158823244,-0.0211896729,0.0421081409,-0.0191874485,-0.0233752504,-0.00891660154,-0.00227179681,-0.00125060708,-0.00678314036,-0.0112664076,0.0112187453,0.0153313922,-0.018671032,-0.00542082731,0.00607576407,-0.00509906048,0.0174954236,-0.0351734906,-0.011031338,0.00374796358,-0.0145352697,0.00476078782,0.0185985267,0.038928546,0.0121360105,-0.0161435176,-0.0181811359,0.0113027049,0.00190038141,-0.00505462103,0.0108773829,0.0649341792,0.0130774472,0.0157588627,0.00365669862,0.0105617326,-0.00790732354,-0.0310760196,2.77228737e-05,-0.0336148329,0.00960591622,0.0113844872,-0.0320906378,0.0354925953,0.0111838458,0.0324761458,0.0243390761,0.0122200055,0.0155675281,-0.00357693969,-0.0112026529,0.00381916505,-0.0379024521,-0.00489740307,-0.00482020853,-0.0560470819,0.00283479481,-0.025215758,0.000925130094,0.0304317139,-0.00675214175,0.0247954745,0.0105666192,-0.0427704379,-0.0157998037,-0.0055264472,-0.0136599457,-0.0282785892,0.0138018988,-0.0366324075,0.000744911202,-0.00161597959,0.0021451104,0.00226199953,-0.0187481772,-0.00414708164,-0.00434380118,0.0196752325,-0.00507484842,-0.000185289493,0.0397773758,0.0156122958,-0.00581238652,0.00158002879,0.00442099757,-0.0205559134,-0.0414933339,-0.000494111038,-0.0213318337,0.0146163842,-0.0494085364,0.0297938101,0.0143292174,-0.0169525929,0.0459943898,-0.00683344761,-0.0425866731,0.000320183142,-0.00317599322,-0.0416088179,0.000633097254,-0.00355519727,-0.0102876974,0.0205904059,0.0117431348,0.0390755571,-0.00844885781,-0.00967760105,-0.0368510298,0.00988295116,-0.00982746761,-0.00250655785,-0.0109634185,-0.0107421,0.032896243,0.0254509728,-0.0148808593,-0.0514267161,-0.00482829241,0.0317435786,-0.0127700996,-0.0354628079,-0.0225289576,-0.0235022437,-0.00432175072,-0.00850996096,0.0226124898,-0.00411930354,-0.0031168696,-0.0238372199,0.0328562818,0.00872164685,-0.00427261647,-0.0112850768,-0.0105016548,-0.00792295765,-0.00160064676,-0.0371780358,0.00501741236,0.00433260668,-0.0166599322,-0.0104110679,0.0306590647,0.00317602279,-0.0455183126,0.00161302544,0.0128971701,-0.000193047832,-0.0302473865,-0.0144823072,0.0236870423,0.00773396157,-0.0160589032,0.0253394693,-0.02683408,-0.0103797251,0.012271448,0.01821368,-0.0210980177,0.0202111974,0.00232878583,0.0235579275,0.00640819175,-0.00630804105,-0.0286417957,-0.0304226745,0.0224851668,-0.00133326359,0.0498325862,0.0035932872,-0.0189670883,0.0396696255,0.0180670004,-0.00300631044,0.00150802732,0.00143787614,-0.0233593341,-0.0285178963,0.0127631053,0.0289748348,0.0106702168,0.00125040091,-0.00114976673,-0.0230305921,0.0600108095,0.0118232556,0.012929244,0.0152802365,0.00954272412,-0.0424682163,0.0140533792,0.00926180836,-0.0343388878,-0.0126847085,-0.0114186257,-0.0443197675,-0.000396653631,0.000229546014,-0.00253467029,0.00745595898,-0.012342412,-0.0289140958,-0.0252419934,-0.000271450524,-0.00721933786,-0.0247649327,-0.00104554347,-0.00519446051,0.0225985162,0.0151144918,-0.0115429638,-0.0127528198,0.0175080318,-0.0217570029,-0.0230381843,0.00535475789,0.0448122434,-0.00919221528,-0.0219932497,0.0169653073,-0.0147387916,-0.0124901552,0.00397841493,-0.0219321698,0.024928743,-0.0267825201,0.0267187953,0.0158563983,0.0220033862,0.0130624557,-0.000621508225,-0.0189242307,0.0227563996,0.0353257097,-0.00764118228,0.00403945986,-0.000249654491,0.00471570762,-0.0112032993,-0.0315741673,-0.0159420278,-0.0038160854,0.010614004,-0.0031448442,0.00532500865,-0.0106134396,0.0328534469,0.00306259771,-0.00486063864,0.00666947337,0.0215591956,0.0174061861,0.00695029786,-0.00787664019,0.000915808952,-0.0103673181,-0.0250572897,0.0229779501,-0.0124813747,-0.02103699,0.0304591749,0.0354102924,0.024773594,0.00257573859,0.0132058999,-0.00970130134,-0.0184077937,-0.0219678413,-0.0251920857,0.0188544374,-0.00235136948,0.0014922698,-0.0177116022,0.00185006135,-0.00592071051,-0.000492452993,0.0275179856,-0.0155004924,0.030922221,-0.00647567119,-0.0310027041,-0.00743044307,0.00654484984,0.0258957967,0.036727272,0.0107211005,0.036636997,0.00222685607,0.0105080856,-0.0151299629,-0.0075778868,0.0100600217,-0.0246981774,-0.00585601991,0.00222904468,-0.0245105159,0.00375993084,-0.00685936073,-0.00773627823,-0.0157003533,-0.0139858229,-0.0164931864,-0.00892806798,-0.03090211,-0.0491938144,-0.0117030144,0.00114760862,-0.00812565535,-0.0149432532,0.0134183876,-0.00997471996,0.00954475906,0.0182308331,0.019856615,-0.0137466472,0.0204383917,0.00295111095,-0.0330685452,-0.0300750267,-0.0261986088,0.01625075,0.0256466344,-0.0220923442,-0.0352641195,0.016973611,-0.00152395945,0.0228635315,-0.0283822156,-0.00786088686,-0.00617937185,0.0198762789,0.0287629645,-0.0105846627,0.0314495824,0.00319446088,0.0070071849,-0.00917665288,0.0170307029,0.0189251769,0.00728370901,0.0184012,-0.00388269289,0.00492965942,0.0296379011,-0.0311834384,-0.0374300703,-0.00821900461,0.00965439528,0.0135670826,0.00305713946,0.0238378216,0.050168395,-0.0188574623,-0.00339087332,-0.0181793906,0.0395447277,-0.00908485893,-0.0333797112,-0.01011643,0.00487431604,-0.00735134026,-0.0444247387,0.00334205409,-0.00925877038,-0.000440593605,-0.00964845903,-0.0231798086,0.0100920862,0.0154545493,-0.0045483876,0.00970421545,0.000913246127,0.006813318,-0.000324410299,-0.00440444238,0.0107954247,-0.0248516295,-0.00097643974,0.0129120499,-0.0404504761,0.00846897718,-0.00436294638,-0.028001966,-0.0110952351,-0.0223739278,-0.0319529176,-0.0187864471,0.0218292158,-0.0113331461,-0.0135051347,0.00746707432,0.00872690231,0.024689341,-0.0228554718,-0.0391302854,-0.0277393088,0.0167762116,0.0182934888,0.0301565062,0.0067951344,0.00903927721,-0.00801508687,0.0177649073,0.0351387821,-0.0489328951,-0.0162297152,-0.0242283903,0.00289560971,-0.0120553868,-0.00405972777,-0.0069498173,-0.00507698487,0.0495607257,-0.0231408179,0.0261192843,0.0142840557,-0.019094089,-0.0137902535,-0.0153134568,-0.0137574011,0.0053313328,-0.00722024264,0.0105984993,-0.0170062054,0.0137037253,-0.0104927523,0.0104198931,-0.0113548208,0.00200714986,-0.022395486,-0.000232705745,0.0163532067,0.0180923752,0.0151755428,0.000941673992,-0.00397733832,-0.00202965038,-0.00765779102,-0.00520329643,-0.0164449476,0.0121501172,0.00540357642,-0.0274901856,-0.00940130278,-0.00146220694,-0.00389574422,0.00648815604,-0.00234760344,-0.0221087858,-0.0121352542,0.0321713127,-0.0155166239,-0.00445232494,0.0143099912,-0.000105506937,-0.0194235519,0.0384066701,-0.00494449586,-0.00902771298,0.00371381571,-0.00481101172,-0.00898350123,-0.0118186865,0.00649713026,-0.00458667846,-0.0199477728,-0.0140909227,0.00293485634,0.00254484778,-0.0136371553,0.00295533938,0.00436238991,0.0249550212,0.0469933785,-0.00376808993,-0.00149208005,0.00579380104,-0.00584578002,-0.00128291617,0.00915412512,0.0266667549,0.0168654192,-0.0206247326,-0.00339702773,0.0296249259,-0.00729960203,0.0180454161,0.000384509069,-0.00213347632,0.0315363891,-0.0210352242,0.0225290563,0.00551820081,-0.00893044006,-0.0498461202,-0.0140540833,0.00930670928,0.00203912216,-0.00552005647,-0.0127486596,0.018111011,-0.0108743971,0.0336283185,0.0191067792,0.0080444729,-0.00753364293,0.0154188452,0.0048601469,0.0262655914,-0.00552439317,-0.0101015335,-0.0576750413,0.0164332837,0.0423069485,-0.00438768137,0.00917569362,0.0174228232,0.0109195691,0.000485824887,-0.00968301948,0.029480109,-0.022500569,-0.0209782552,-0.0265892223,0.00776905054,-0.0260677766,-0.00678407634,0.0186492112,0.0099876672,-0.0235810671,0.00337232882,0.0325724371,0.0111964094,0.0381219052,0.00567055028,-0.0157801211,-0.0328893326,0.019070996,0.0194737278,0.0294384118,-0.0166772082,-0.0179009866,-0.0297484603,-0.0538827255,0.0389415622,0.0490607433,-0.00595019152,-0.0097269481,-0.0117169209,-0.00808156561,-0.0128972726,0.0148360487,-0.0151577061,0.0109160412,0.0421064086,-0.0010963704,0.00392253324,0.00127577677,-0.00242809835,-0.0139116393,-0.00122811808,-0.0113293957,0.0189228635,-0.0240727011,-0.0146591878,0.0198435187,0.00146902259,0.0250044204,0.0120194722,-0.0203179382,0.0042691133,-0.00420015072,-0.00364340865,-0.0151079027,-0.000579995511,0.02277858,0.0140157193,-0.0239433739,-0.00429026969,-0.00679419562,-0.0326655656,-0.0137378462,0.000512205181,-0.012624383,0.00432320777,0.00553842541,0.0165464655,0.00290781073,0.0193442218,-0.0136410762,0.0387643129,0.0116171623,-0.0124499351,0.00822585355,0.0166904815,-0.0136750834,-0.0242248457,0.00402457034,-0.0347932503,0.042614799,-0.00874225609,-0.0131043112,-0.0124021228,-0.0323148184,0.017912114,-0.0239723027,2.32998627e-05,0.0241879988,-0.0238462593,-0.0187891852,0.0236194469,-0.0151400398,0.00480340701,-0.0175746437,0.0354683138,0.0176652484,0.00815857761,-0.0117223905,-0.00790655799,0.0156143503,0.00863459054,0.00721822353,0.0378681682,0.0143752322,-0.0160834901,-0.0197907519,0.000636070443,0.0535683483,-0.0238841884,-0.00187359913,0.0317670181,-0.0186068676,-0.0217354912,-0.0279169772,-0.00896188989,-0.0142206131,0.00849172194,0.0445675403,0.00683356915,0.0285253581,0.00749450596,-0.0312737934,-0.00163439289,0.0303473342,-0.0240708068,0.0194183346,0.00789995398,0.0061793155,0.0153952204,0.024879273,-0.0062225312,-0.0162973125,-0.00299733062,-0.000528806646,-0.0062258183,0.0115904696,0.0043001459,0.0358693451,-0.0160675049,-0.0129557298,-0.0231049191,-0.0231611561,0.00706900097,0.0183325466,-0.0302835219,0.0343212783,0.0161071215,-0.0229483508,0.00351161393,-0.0133815324,0.00145722297,-0.0437018089,-0.0218275543,0.031221142,0.0140618319,0.0163551029,0.0108894641,-0.00742319645,-0.0250294134,-0.000276917068,0.0217382144,-0.00535097346,0.00168704509,-0.00585782621,-0.0246620197,0.00215449603,-0.0245203823,-0.00461318763,0.0205188803,0.0144031625,-0.00433032587,-0.0161683541,0.000412886613,0.0156851653,0.0284238793,-0.00817939546,-0.000676431693,-0.0202734824,0.0225612633,0.0169479959,0.0131234778,0.016768558,-0.0377625674,0.0256481078,-0.0251368135,-0.0284534991,0.0130122146,-0.000979910837,-0.0010012472,0.00431600213,-0.0178091098,-0.0218774322,0.00473993458,0.0225542579,0.0195693076,0.0118329441,-0.000520993199,-0.0156270582,0.0101803169,-0.0214335918,-0.0115589155,-0.00486513181,-0.0079087615,0.0181896426,0.0191769972,-0.00974110607,0.0115715871,-0.00429530535,0.0356949158,0.0136584016,-0.00861595199,0.0199557487,0.00607529981,-0.00334015186,0.0182999447,0.0229040738,0.00229864591,-0.00442536315,0.0212530587,-0.00446715998,0.0333498903,0.0156654418,0.012361424,-0.0112530477,0.0124217542,0.00478298729,0.0375441015,0.00600390416,-0.00654455693,0.0217336006,-0.00967474002,-0.00108573155,0.00385152898,0.0377319902,-0.0223580394,0.0111584552,0.023777958,0.00506750587,-0.000131937806,-0.0139514823,-0.0265036933,0.0108247576,0.00609410042,0.0231341571,0.00334660616,-0.000202178766,-0.0198486261,-0.0109133022,0.00636926107,-0.00876089651,0.0744481534,-0.0372270234,0.0387694426,0.0109533789,-0.00998604018,-0.0018693509,-0.00884470809,-0.00857016444,0.000915259938,0.00314207049,-0.0194309223,-0.0265057795,0.0147689078,0.00609740382,0.034565296,0.0232869815,-0.0285821073,0.0393179208,-0.0107374508,-0.00178528309,0.00882294495,-0.00321932463,-0.00550955767,-0.00172567682,0.00788042787,-0.0253968332,0.000636131736,0.0223355424,-0.0241055191,0.0206352584,0.00605290895,-0.0240716115,-0.000170553671,0.012291763,-0.0132718934,-0.00846630335,-0.0175381303,0.00450962316,-0.0248965565,0.00970876403,0.0150831826,-0.0123854922,-0.0122720487,-0.0223633852,-0.0377572924,-0.00842824671,-0.00370840332,0.0191946682,-0.0215886347,-0.0187795013,-0.0424467847,0.0266288612,-0.00936817005,0.041194357,0.0254509151,-0.0255731307,0.0377344564,0.00341126486,-0.0104138404,0.0249894522,0.026523361,-0.00663386704,-0.0108074732,-0.017290758,0.0161609966,-0.0185723454,0.00228501786,-0.00285531534,-0.0164948013,0.0126643572,0.00219768286,-0.0221970882,0.0164703038,-0.04433522,-0.0305588283,-0.0136646014,0.0322944187,-0.0209544301,-0.0137222428,-0.00602573995,0.00303142029,-0.00318751088,0.00490337843,0.0133733219,-0.0208786577,9.64217816e-06,-0.0163617171,-0.00323529984,-0.0110580409,0.0127531514,-0.0191734564,0.0125242788,0.025160009,0.0111069903,0.0104545327,0.0331229791,0.0169077422,0.0203269534,-0.0116744144,0.0135355657,0.0102665313,0.00503878715,-0.036658641,0.0295985546,-0.00211254624,-0.000799741945,0.0337945223,0.0116381738,-0.00515905628,-0.0123241721,0.0240183584,-0.00784506463,-0.0163483191,0.0219673701,0.0206832569,-0.00278811576,-0.00441049645,-0.0130268736,0.0359342769,-0.0287532602,0.00393092306,-0.014348831,0.000577387284,-0.0258252881,-0.0132557377,0.00491439458,-0.0165234786,-0.0263611209,-0.00176600204,0.0204288792,0.0197847001,0.019214062,-0.00933487434,0.00693667214,-0.0149985179,-0.0052030324,-0.0217704866,-0.00240299944,-0.005187565,0.0278899092,-0.00233513582,0.00181836507,-0.00422704127,-0.00943690259,0.0242278259,0.0136356801,0.0232983623,-0.00965117197,-0.0156568456,0.0132398792,0.0180840679,0.00350922928,0.0179282632,-0.00246594218,0.0502624959,0.035717953,-0.00672985101,0.0408531316,-0.0212673116,-0.0412083417,0.0106932074,0.0298782457,0.0085920142,0.0432028919,0.0224229228,-0.0129592381,-0.02499648,0.00164073519,0.00620178925,-0.0163819771,0.032367792,0.0179745257,0.00566387596,0.00283010886,0.0423524603,-0.00931314845,0.0203760043,0.00467898045,0.0195586886,0.00658244174,-0.0281471182,0.0191534702,0.0180172864,-0.0123619325,0.0123715196,-0.0560407825,-0.00680385716,-0.0200661682,-0.00365692726,-0.00218705717,0.0185934715,-0.00604004646,-0.0117899878,0.031936001,0.003336736,-0.017113883,-0.0334726237,0.00178034499,0.0177696496,-0.00464556739,-0.0158774238,-0.0165110789,0.016705811,-0.0198144782,0.00964740571,-0.00394563563,0.0159532335,-0.0297686998,-0.00890168734,0.00222044322,-0.0335797146,-0.0443542339,0.00535295438,0.0332633965,-0.0333931558,-0.00984424073,0.0223714374,-0.0114994403,-0.0319390707,0.00610894943,-0.00210265443,-0.00486421073,0.00892880931,0.0123567404,0.0200296901,-0.00270155584,-0.0170295741,-0.00688008964,-0.0283756051,-0.00358930579,0.0190145932,0.0300703775,-0.0343881324,0.0161591172,0.00504132034,-0.0250506904,-0.0149447517,0.0158178918,-0.00473579019,-0.0311069246,-0.0179335829,-0.00597668951,-0.0181198511,-0.0122855995,-0.00788936298,0.0110790879,0.00707605807,0.0248070359,0.0113372998,0.0316897742,0.000384360203,-0.00989424065,-0.0261551943,-0.0348488837,0.0115799522,-0.0128792282,-0.0313640572,0.00454483833,0.0291307475,0.00284867873,-0.00613841321,0.0125839943,0.00778067159,-0.0237238109,0.0322225317,-0.0195257515,-0.0405300371,0.0337513499,-0.00198600744,0.0160611346,-0.0323200449,-0.00860033743,-0.00550348544,0.00189506775,-0.0304139163,0.0185751524,0.0111847203,0.000482223521,0.0207046811,0.020134056,-0.0125331599,-0.0302834604,-0.00344369235,-0.0115198018,-0.0382170342,0.0169132836,-0.0179260839,0.00769815175,-0.0095027592,-0.0253812149,-0.0270501487,-0.0175345298,-0.00127911451,-0.0204091202,0.00468896423,0.0184975713,-0.0351438485,0.0280362032,0.00690230401,0.00682258792,0.0140772276,0.0107168173,-0.00234635035,-0.0096927397,-0.0100141736,-0.0257189106,0.00644249562,-0.00966218673,0.00326381414,0.0101966178,-0.00891820155,-0.000884827517,0.0333628915,-0.00109360041,0.0245681442,-0.0196379069,0.00282511371,0.0229566731,-0.027437171,0.00728846341,0.0204028655,0.0202940572,-0.000739934854,0.0269407798,-0.0295402948,0.0194848962,0.0164158251,-0.0136446198,-0.000807373493,0.012496382,0.0248979162,-0.0143486308,0.0157391559,0.0079147527,0.0051691602,-0.030728545,-0.0174589269,0.0107206721,-0.00885502808,-0.0205567069,0.0194845479,0.017903775,0.018051086,-0.0185189508,0.00836982299,0.00662366673,0.00786906015,-0.0401292592,-0.0260163136,-0.0121326847,-0.0205253996,-0.0108582433,-0.0290060826,-0.00333252829,0.003077036,-0.00323917717,-0.0264594126,-0.0226434134,0.0220425222,0.0200870931,0.0240197126,0.0171079393,-0.0147364037,-0.0193046797,0.023221707,0.00608320348,0.0178724527,-0.00817800313,0.0225527231,-0.00453018397,0.00271790801,0.00591430534,-0.0126112271,-0.000523962197,-0.0101088686,0.00184614863,-0.0254641138,-0.0417526029,0.00477073714,0.0233496763,-0.00702303462,-0.0110586518,-0.00546948612,-0.00139688188,-0.00517936982,-0.0282665323,0.0171502661,-0.0191878714,0.029336445,0.00685207965,-0.0119406208,-0.00235137856,0.0198496189,0.0464509912,0.00709033338,0.0273715556,-0.00877398625,0.00764463469,0.0101264454,-0.0093383966,0.0282242317,-0.00601575617,-0.0183609873,-0.00664508669,-0.0328116678,0.0445877127,-0.00488853734,0.0336348675,-0.0442793258,0.049196437,-0.00738886977,-0.0199613571,-0.00933899172,0.0120730819,-0.0231618788,0.00854224525,0.0181703605,0.0025008386,-0.0215773452,0.0238237306,-0.0282165073,-0.00719913049,0.00291957287,-0.0156078106,-0.0011572747,0.00031851884,0.0174451452,-0.00704573654,0.0095662456,-0.0387014039,-0.0221799407,-0.00830339734,-0.00249229628,-0.0105063282,0.0335005671,0.0192699973,-0.00682614744,0.0324048623,-0.00712125143,-0.00364542357,0.0153129036,-0.0285774581,9.14237098e-05,0.0137682706,0.0545051806,0.0132502429,0.00884888601,-0.00224247342,-0.0183608104,0.00983325485,-0.0216885563,0.0158094019,0.00710914517,-0.0242729783,-0.00372418179,-0.00752963265,0.00976460893,0.0158779696,0.00592625374,0.0146085024,0.0234589372,-0.0146737583,0.014808639,0.0255448651,0.0121987425,0.00494337035,-0.0176676791,0.0117296316,0.00296113058,0.00255193654,0.00179579761,-0.011332456,0.00113714265,0.00347973732,0.0310260598,-0.0259780977,-0.0314804614,0.00466124108,0.0144483726,0.0066592088,0.0324310474,0.00519469567,-0.0257967561,-0.000154235793,-0.00958670489,-0.00782608893,-0.00428849319,0.00965186767,0.000843228889,0.035929922,0.0419471152,-0.0328100547,-0.0297970939,-0.00601776829,0.0114508281,0.0251495931,0.0158158075,0.023131365,-0.00411217567,-0.0372428149,0.0255429707,0.0069704419,-0.00393459899,0.0425505787,-0.000778221991,0.0208340101,0.000994272297,-0.0361793265,-0.0197967645,0.0171283018,-0.00371389021,0.00805727486,-0.00785354525,-0.0534743406,0.0290813949,0.00132887717,-0.035274718,-0.0127504356,0.0130462963,-0.00452158554,0.00107769936,-0.0070400415,0.00224971049,-0.00757737551,-0.0318396389,0.0118165677,0.00939740427,0.00551134767,-0.0101967854,0.00425181631,-0.00525231287,-0.0183899142,0.0320034027,-0.00732824439,-0.0405654125,-0.0310414471,0.00753418263,0.00918864924,-0.00281665963,-0.00444157608,-0.0176941734,-0.00933145545,-0.0142266732,-0.0422288515,0.0140875876,0.0321650058,0.00336436229,-0.0178767834,-0.0258652922,-0.0291236434,-0.00241076667,-0.002638323,0.0417817235,0.0116045875,0.00945922453,0.0134058082,-0.00254961569,0.010879484,-0.0101505658,-0.0140943201,-0.0220482182,-0.00513080601,0.0254205335,0.0187880211,-0.00918719824,-0.0205690451,-0.027815504,-0.0150593705,-0.0134433676,-0.0178885534,-0.00715935929,-0.00385867804,0.0405317694,-0.00964946114,0.00525244325,-0.00182716874,0.0303231012,0.0117401741,-0.019944448,-0.016355956,-0.00190136523,-0.00219851895,-0.0409981087,0.00665064622,0.019406816,-0.0155804269,-0.0289405882,0.0296738707,0.0146499928,0.019977998,0.0185344052,0.01821821,0.0111905439,-0.0291847419,-0.0047610295,0.0035597384,-0.0419666432,0.00110491691,-0.00645302795,0.0041623516,0.0106245847,0.0138389142,0.0035283668,0.0258456636,0.00453367084,0.0160109885,-0.000635199773,-0.00694148242,-0.00906070229,-0.0173103251,0.0200877599,0.0256856382,-0.00852272101,-0.0244338717,0.0227617919,0.00945221353,0.0215197634,0.0185635127,-0.0194441937,0.00442223949,-0.0113260299,-0.0152263939,-0.00500299269,-0.00109245721,-0.0064622378,-0.0402198769,0.0048558265,-0.0359144211,0.000307655951,0.00421126187,0.0104119712,0.0172478091,-0.0197117515,0.00933962129,-0.0228968058,0.00506266346,-0.00833260175,-0.0605025738,-0.0263502263,-0.0104022985,-0.000294988218,0.0163774621,-0.00458918605,-0.0203317776,-0.0137913907,0.00217127777,0.0127043379,-0.0362315848,0.00223501702,-0.00399803417,-0.0317750201,0.00795940775,0.0230057035,0.00409025559,-0.00329311541,0.00142250606,0.00488232682,-0.00903468765,0.0303448532,-0.00145145995,-0.00580777833,-0.00833333377,0.0458838008,0.016067069,0.0143212033,0.00245728926,-0.0344695374,0.0235360395,-0.0025004046,-0.035324797,0.0192395523,-0.00892233662,-0.000762798125,-0.000526580028,-0.0225080755,-0.0129203387,-0.0124929398,0.0170032177,0.0178677402,0.0108329989,0.00250902772,0.00752357394,0.00752912089,0.0340727456,-0.00676689297,-0.00654445775,0.0130682401,-0.00606169738,0.016423054,0.00811382849,0.0178280827,0.0229988173,-0.00846355222,0.0149512263,-0.0242396966,0.000356043747,0.0209502988,0.00156060187,-0.0243143793,-0.00394601049,0.00223527243,-0.0489355922,0.00138152437,0.0176644903,-0.0202546231,-0.0128331594,-0.00278223469,-0.0203836914,-0.0122796772,-0.0246150233,0.00170164194,-0.00245909696,-0.00825172663,-0.0160809029,0.00045033553,-0.0111762267,-0.00734678237,0.0162275396,-0.00530737033,0.0040525985,0.019858487,-0.0104566552,-0.00994659774,0.011992651,-0.0177763347,-0.0336422548,0.0216028951,-0.000346559478,-0.0166852809,-0.00150048325,-0.00739974109,0.026830025,-0.0147262383,-0.00229619094,0.0356356017,0.00391413597,-0.0206396282,0.0133409565,0.0104667339,0.00686406763,-0.0140672624,0.0202820841,-0.0160058029,0.0244645942,0.010046686,0.00777439866,0.00106028968,-0.0173190273,-0.0095146019,-0.00323070912,0.00572423078,-0.0280261803,0.0179359019,0.00764218392,0.00706852227,0.0125341546,-0.0131175714,0.00510239368,-0.0129729174,0.00997608434,0.0166928116,0.0208577085,0.00611516181,-0.0217952859,0.0168534536,0.00137769827,0.038419906,-0.00381648331,0.00460985256,-0.0109585756,0.0380331762,0.0170355905,-0.0109919095,-0.0194526613,0.0178182758,0.00593144633,-0.00798344333,0.0313280709,0.024594903,-0.0502213277,0.00694938982,0.00172939431,-0.0244263671,0.0119138826,0.00518048136,0.00496727834,0.0412213169,-0.0123464121,0.0146124754,-0.0249762386,0.00659150211,-0.00391983055,-0.0219159573,0.0155082447,0.0151442019,-0.0441503897,-0.0603717156,0.0263637695,0.00761309685,0.0148812756,0.00750335306,-0.0400085077,0.0266113319,-0.0127777681,-0.00532314042,0.0183711629,0.0016549693,0.0012288912,-0.00914974324,-0.0459068231,0.0112624355,-0.017168913,0.0164741408,-0.0346492827,0.0308359265,0.0209272075,0.0215477794,-0.00472829677,-0.00178493187,0.0334461406,0.00822558254,0.0294212457,-0.00453734351,0.0172409657,0.0147448787,-0.018606998,-0.0366475843,0.0253841244,0.0092871869,0.0261694547,0.0106343664,0.00209891633,-0.0332944095,0.0101285959,-0.0136009511,-0.00352024729,0.000356486184,0.0151329767,0.0345292427,0.0082697859,-0.00673021935,-0.0068369708,-0.000522044196,-0.00647236826,-0.0247138254,0.0228976533,-0.0291445423,-0.0281833857,0.017173538,-0.0266345702,0.0161725394,-0.0345792733,-0.0362452082,-0.00712522306,0.000907573965,-0.00342395995,0.0167561546,0.0230103433,-0.0139225209,0.00605557067,-0.0039203912,0.0454551354,-0.0376885198,-0.0178236496,0.062440481,-0.0185181666,-0.000299891108,-0.0158135109,0.0141842291,0.0055258316,0.0151564861,0.00168105937,0.00549167627,-0.00560601987,-0.0303028077,0.0214838404,-0.0046176305,-0.00450828997,0.0150554264,0.0250509605,-0.00952271465,0.00646104151,0.00268896041,-0.00710585527,-0.00627462193,0.0239744447,-0.0078079747,-0.0133532882,0.0172785632,0.027687557,-0.000100664649,0.0229097623,-0.0121965231,-0.0280171745,-0.0147616845,0.0261830986,-0.00713162962,0.0299956128,-0.0210817922,-0.0316890143,-0.0402643532,0.00364644011,-0.012547832,0.00348944846,0.00731126592,-0.0217473693,-0.0457137227,-0.00734143285,-0.0126298163,0.00484272046,-0.0167758279,0.00227647112,0.00762767345,-0.0348004177,-0.00106325687,-0.00901318807,0.00255563622,-0.022595413,-0.00789646525,-0.0579021871,0.00913476665,-0.0218530986,-0.0058699348,0.0415727571,-0.00372308167,-0.021450635,-0.00870972406,-0.00197042758,-0.0185482018,0.00691562751,-0.0342878923,0.000850008044,0.00311662257,-0.00101118383,0.0153026562,0.0199674871,-0.0240580551,-0.0159929544,-0.0230456702,-0.00855065417,0.00859905779,-0.00694045518,-0.0146851325,-0.0161956903,-0.011380963,0.0296838749,0.0142304152,-0.016352687,-0.0223914851,-0.0321851783,-0.00238940795,-0.0185283497,-0.010640285,0.00987560581,-0.00983094238,0.00501283398,-0.00437139766,-0.0173080191,-0.0368073285,0.0183041058,0.00424926402,-0.00104771089,0.054583583,0.00372421136,-0.0274239704,0.0186381154,0.0262223277,-0.00701703038,0.0157090537,0.00143675192,0.0299276821,-0.014799512,-0.0543332025,-0.00787166879,0.0240595303,-0.00407991651,0.0353127383,0.0508519784,0.0202156063,-0.00493616425,0.0393829755,-0.0261071231,-0.0133007644,0.0398942046,0.0113925831,-0.00620479882,-0.00914149359,-0.006062089,-0.038948521,0.0340213217,-0.00707511092,0.0216454789,0.00828170776,0.0335852839,0.0331775472,-0.0126442946,0.0186504982,-0.0389857143,0.0247419775,-0.023723552,0.00370139116,-0.0368874334,-0.0308976956,-0.0156281721,0.014548094,-0.0409109108,0.00309772301,0.00387486652,-0.0551754497,0.0114289029,0.0374614932,-0.00309276627,0.0251193568,0.00783151295,-0.0113429707,0.000384346204,-0.00180528499,-0.000684525177,-0.0152569879,-0.00251290877,-0.0208879225,0.0442115404,-0.00576723693,0.00864112377,0.00956596341,0.016175162,-0.0198254753,-0.0326550081,0.011954641,0.00254513836,0.0143367397,-0.00398102356,-0.0221258737,-0.00972925313,-0.0349402316,0.00388569082,0.0353542119,0.00249403156,0.0329403989,-0.00441542873,0.0137242656,-0.0388987511,-0.0410240255,-0.00232921331,-0.0415727384,-0.011866238,-0.0334990062,-0.00739250984,-0.0193868876,-0.0011026694,0.00301027554,0.00230622664,0.00598984957,-0.0195398405,0.0193083435,-0.000248178112,-0.0225090403,0.0493980013,0.00436473684,-0.0134998607,-0.00704983342,0.0454750918,0.0178665984,-0.023128897,-0.00953665376,-0.0247483216,0.0011638687,-0.00985824876,0.0068995133,-0.0219939686,-0.0313698016,-0.018020574,-0.00654383423,-0.00929806195,-0.00805838779,-0.0146242436,-0.0189072732,0.0048616007,0.00192868023,0.018242551,0.0124812089,0.005228444,0.00261103665,-0.00186759303,0.0166075211,0.00935614109,-0.0464611053,-0.00740091363,0.00755212409,0.0531009249,-0.0135065503,0.00883004535,-0.00902000163,-0.044824291,0.0167317986,-0.0441829674,0.0051942789,0.0221149512,0.00518784346,0.0333030559,0.0287628938,0.0192965548,-0.0389164351,0.00426938338,0.00525247026,0.0104875304,0.0276921187,-0.0167123694,0.00924524013,0.00591028342,-0.0161610749,-0.0400829129,0.0148647269,0.00851529371,0.000228562814,0.00283882022,-0.0170640685,-0.0310689081,0.0334276259,0.0162090231,0.03316053,-0.00919087231,0.00559779396,-0.0108498512,0.00705809938,0.00298901252,-0.0160653237,-0.0282187425,0.00478893751,-0.0126314294,0.000700758887,-0.0168954562,0.016078651,-0.0134982746,0.00304825767,-0.00681534223,0.00463387277,0.00443017157,0.00295088254,-0.0198862404,-0.00486709271,-0.0282008667,-0.0116706118,0.0147968382,-0.00982988719,0.00389568089,-0.0220607892,0.0136496099,-0.0173714291,-0.0328509398,0.0180902313,-0.0221974812,0.0156631526,-0.000738184084,-0.0219681635,0.0141574014,0.0168310702,-0.0302030388,-0.00612762151,0.0119780656,-0.0264472384,-0.0259402003,0.0155889355,-0.00215887278,-0.0238696951,-0.012326709,-0.0114947213,0.0101366816,0.00400078623,0.00842322968,0.0164275095,0.00220442307,0.0019348755,-0.0599562936,0.00658452371,-0.011643244,-0.00957412645,-0.0304113198,0.0286989976,0.0191575419,0.0248908009,0.0226797629,0.019189015,0.029050488,-0.0167779159,0.00139174622,-0.00474951509,-0.0156058688,0.0144025041,-0.0184447803,-0.0112561854,-0.0125315338,-0.0126709752,0.00856137462,0.0141522773,-0.0327299871,-0.00457325904,-0.0217405297,-0.00651107403,-0.0308851823,0.0272079706,-0.015694052,0.0335826427,-0.0105756819,-0.0188073087,0.0260355137,-0.00412578695,0.0357518531,-0.0180707313,-0.0182803702,-0.0149088083,0.0168074071,-0.0244348329,0.0139422286,-0.00525218248,-0.0091089122,0.0152300596,-0.0175063647,-0.0169345476,0.0186280403,0.00344944838,-0.0322669856,0.0112003703,-0.0141787529,0.0206680726,-0.000817698427,0.00283042039,-0.0463701524,-0.0165168215,-0.0188108794,0.00702258293,0.0285924617,-0.0128537398,0.0145307789,0.00948762614,0.000837076048,-0.00780717703,0.0123972138,0.00195294642,-0.00399311306,-0.01630155,0.000633667107,0.036511872,0.0398599356,0.0236450508,-0.00955325644,0.015266221,-0.0192332901,0.0202854779,0.0268068761,0.00752889784,0.0260523334,-0.0101545583,-0.00245940313,0.023266349,-0.00435554748,-0.0374532714,0.0134765012,-0.000623012893,0.020380022,0.0418635644,-0.00806340948,0.0746369734,0.0405166633,0.0162168555,-0.00494992407,-0.000277107814,-0.0136222644,0.0205556862,-0.00536710955,0.0106966123,-0.00903431792,0.00129742874,-0.00397980725,0.0242452882,0.00968675502,0.00415326748,-0.00653698668,-0.0194839835,0.012150107,-0.00780190434,-0.00586242182,-0.0242905207,-0.0132811833,0.0158234704,0.0180165172,0.00557853328,-0.0115961488,0.0205593519,0.0128837507,0.000228288045,-0.0133413412,-0.0247980095,0.0102613959,0.030512929,0.0118439496,0.0179974567,0.0228260513,-0.00800779834,0.0232088044,-0.00396904908,0.014548406,0.0655675232,-0.019090265,-0.00147587131,0.0132426955,0.0404142961,0.00388706638,0.000646522618,0.0178752784,0.00969214458,-0.0049662902,0.0247712638,0.0127650779,-0.0333032943,-0.0336548872,0.0145055912,-0.00604404975,0.00351351663,0.0297364648,-0.0325571857,0.00721684331,-0.00156709505,-0.0310030915,0.000707373547,0.00377244828,-0.00528148981,0.00855196174,0.000236402164,-0.0199149121,-0.0147182075,-0.00441862457,-0.00147470203,0.0232699253,0.0187693648,-0.0472595431,-0.00471323077,-0.00877737906,0.0325556472,0.019129375,0.00109883666,-0.00139867247,0.0138792628,0.0131525248,-0.000865579234,-0.00244988617,0.0215055514,-0.00374213769,0.00263823126,0.0289498791,-0.0177092478,-0.0541925579,0.0042475909,0.0179250166,-0.0104939761,-0.0276511647,0.0276609622,-0.0337293297,0.00889001694,-0.0159085859,0.0370492414,-0.0406818315,-0.0230886359,-5.02505827e-05,0.00887338445,0.014114459,0.0250383969,-0.00831004418,-0.0165815298,0.0171908848,0.0184986815,-0.0221851803,0.00413305592,0.0154134482,0.00730744516,0.0131454561,0.0132454829,0.00547245238,0.00430907728,-0.0180196874,0.00669065164,0.0210734624,-0.00659296988,0.0198519863,-0.00328651839,-0.00242244988,-0.00842423644,0.0516361035,-0.0222265758,-0.0192649048,0.00105300348,0.0435542651,0.0268468261,0.017659083,-0.0063742171,-0.0219312981,-0.0262431335,-0.0408404917,-0.0543547794,-0.0332415029,0.00735868933,0.00382472295,0.0195202008,-0.0115286214,-0.000788892561,-0.0191729181,0.0121083083,-0.0291200448,-0.0216997508,0.0022283087,-0.00466886582,0.019271804,-0.00313477847,0.00162808434,0.0136278998,0.0139775276,-0.012410054,-0.032259956,-0.0208183471,0.0163579881,-0.0167065971,-0.00886608195,-0.004235995,-0.0106490524,-0.0176633503,-0.0227741338,0.0116780121,0.0109011494,0.0129107079,-0.0109670097,-0.0297321137,-0.0166269224,0.0353548676,-0.00248387596,-0.0074437391,-0.000898683793,-0.0306364559,0.00307132141,0.0148168951,0.002691678,-0.0522283018,-0.0282316208,-0.000652822084,0.0058239582,0.0313026682,0.0481642,-0.0325795487,-0.0110623715,0.0118923606,0.00851055328,-0.0255926438,0.0304831602,-0.0537152477,0.0225406643,0.0515832715,-0.011569364,0.0187267773,0.0485214852,0.023503229,-0.00456497259,-0.00360272033,0.0490686297,-0.0302410778,0.00731959147,-0.01729949,-0.0106789814,-0.027421955,-0.00296002231,0.00660141138,0.0208098125,-0.0209682919,0.0214975309,-0.0195665061,-0.0249706693,-0.0096678948,0.00453127874,0.000942205079,-0.0405200124,0.0426362641,0.0116684223,-0.0314874202,-0.0405720212,-0.00309393671,0.00321308547,-0.014781191,-0.0122950347,-0.0119448053,0.00376799516,0.00279639056,0.0319193341,0.00720161106,-0.0456575826,0.0180472862,-0.00100365619,-0.000469649647,0.00206791004,-0.0187446177,0.0138680646,0.0217834115,0.00808561221,0.00392210949,-0.0204294324,-0.0221501552,-0.0222407952,0.0220501814,0.0271137301,-0.0388663635,0.00641280087,0.0019855625,-0.00715403026,-0.00463414611,0.0107898172,0.0242253747,0.0291677024,0.0304483771,0.0163681973,0.023727743,0.0155535182,-0.014872645,-0.0393009521,-0.0148288375,0.0114651406,0.0137672825,0.0105568375,-0.0231990721,0.00117456494,-0.0372041911,-0.00410470227,0.0138870049,0.0322108939,0.0373852476,0.0154731544,0.0213356819,-0.00963490363,0.0210202262,0.0383188985,-0.00515590189,0.0177378003,0.0256449915,0.0126186823,0.00643338962,-0.0108065149,-0.0012939946,0.0227854326,-0.00588736869,-0.00557267712,0.0219153855,-0.0158073977,0.00478437543,-0.0384634957,-0.0245319121,0.0126323039,0.0204592291,-0.000386890431,-0.0225236788,0.00979352836,-0.0106753726,0.00771468692,-0.0242504422,0.0185629837,-0.00197578059,0.00257598911,-0.00897079334,-0.0495325178,-0.00597420754,0.00306852791,0.0181632955,0.0105886934,-0.0068790582,-0.015793208,0.00775396591,0.0078680478,0.0102479206,-0.0337171294,0.0126589071,0.00634967443,0.00646933727,0.0377981961,-0.0189255346,0.000921264815,-0.0164548364,-0.0298189353,0.040879786,0.026945157,0.0296572447,0.00544760376,-0.00507619791,0.019945167,0.0122823054,-0.0163171329,-0.0280975439,0.0019742304,-0.0242814533,-0.00652018655,0.021734843,-0.00723955128,0.0446235277,-0.0150777167,-0.028328497,-0.0345198251,0.0108011412,0.0160034373,0.0426439606,0.00303513044,-0.00708028674,0.00496443221,0.0174393132,-0.0254972409,0.00493942946,0.0107445261,-0.0184826627,-0.00120488764,-0.0543826483,-0.0275852028,-0.0111346515,0.00784596801,0.0331572443,-0.00247059949,-0.00105183956,-0.00940698944,0.00298149884,0.000797562883,0.0116411913,0.0160751995,-0.00273249974,0.00881734677,-0.0153444456,-0.0196091812,-0.0323124528,0.00725289341,-0.0352263749,-0.0209923666,-0.0182204526,-0.0161069836,-0.0172566045,0.0175921526,-0.020750694,0.0130364262,-0.0349860378,0.0244920608,-0.0224582665,0.00714424299,0.00287281768,0.00794941653,0.0388847142,0.0188031662,-0.000166855767,0.0279430244,-0.0363827348,-0.00769002549,-0.000949101697,-0.0129112573,0.0131908823,0.0117574679,-0.000601064996,0.00831037574,-0.00223285169,-0.00276002614,0.00412475411,-0.011057172,0.0066619073,0.0122334333,0.0211209003,-0.0724099576,0.00659511983,0.0137542374,0.00932372361,0.0330197178,-0.019857211,-0.000779191789,-0.01108093,-0.0368037187,0.0231088102,0.0264183488,-0.00286449958,-0.0288413279,-0.00847733021,-0.000747921295,0.0160441436,0.0490117595,-0.0283802245,-0.0199391972,-0.000719300297,-0.0102528306,-0.0143488329,0.00876675732,0.031958323,0.0128070647,-0.0212720912,0.00973983947,-0.00393293099,0.0182407107,0.000552904501,0.00500058103,-0.0176204368,0.0175321866,-0.00846190937,0.0346775465,0.0212449878,0.0126330433,-0.0247422475,0.00256235292,-0.00475139543,0.00215837127,-0.00113988202,-0.00112463988,0.0120193725,0.00600440847,-0.0205583088,0.0121244537,0.0112727238,-0.000559517299,-0.0129686277,-0.0351088196,0.00665319385,0.0220738351,-0.0307087898,0.0197385214,-0.0369855426,0.0310804546,0.0090095643,-0.00424648076,0.0796165019,0.013605427,-0.0332755856,-0.0256846566,0.0151202222,-0.0146081466,0.00649457192,0.020976454,-0.0342867374,-0.00595212588,0.0329464152,-0.0250182543,0.00245182635,-0.0277458094,-0.00962928869,-0.00748040294,-0.0195013024,0.0243060347,0.00246309373,-0.0158990957,-0.0325783975,-0.0189881101,0.0291486382,-0.0197880343,-0.00305415248,0.0117510865,0.0287271515,-0.0190492179,-0.0218147747,-0.0152481711,0.0101324162,0.00835247897,0.0210980084,-0.00852276292,0.0304840002,0.0140024079,-0.00223909295,0.00696512265,-0.00536124222,-0.0234166477,-0.0194845572,0.0243934896,0.00460642716,-0.0342211239,0.00253115548,-0.0122809811,-0.0292797592,-0.0235092603,0.0119517799,0.0130644403,0.00480363425,-0.0313115977,-0.00438230811,-0.00593304448,0.0240252204,0.0182178374,0.00256525632,-0.0165608358,-0.000962327642,0.00764754973,-0.00656128163,0.0301069636,-0.0128860045,-0.0105830655,-0.00959915482,-0.00361070666,0.011945134,-0.01144371,-0.0433383882,-0.00629629754,-0.00679994281,-0.00633649854,-0.00811263081,-0.0154847177,-0.0320549235,0.0491599329,0.00855800323,-0.0253247824,0.0138755422,-0.0165562611,0.00331242173,0.00140310579,0.00266812532,0.0353904814,0.0124680353,-0.0306796692,-0.000968594395,0.00735680247,-0.0113041447,0.00369967427,0.00185413042,-0.00422186265,0.0264734067,0.0175203066,-0.00656744745,-0.00137925171,0.000373094197,0.0271333419,0.00247366261,-0.00561092794,0.010452535,-0.00988705643,-0.0308588091,-0.0197963249,-0.0142009696,0.0270367805,0.033943858,-0.00636489736,0.0108195636,0.00630498584,-0.0167207085,0.00601589866,0.00470946915,0.026179662,-0.0221968144,-0.012361085,0.0265579503,0.0170167219,-0.000273789949,0.0132182892,0.02184158,0.00188596465,0.000270788092,-0.0109126996,-0.0049994397,-0.0171534698,-0.000453149405,-0.0246414617,-0.0165477414,-0.0288921259,-0.00866576936,0.011906106,-0.00334366248,0.0467895083,0.00964710023,0.0192543268,-0.0131125664,0.0225303732,0.0147660905,0.0642056465,0.00924200658,-0.000353323965,0.00293764821,0.0133145507,-0.00490704365,0.00133101118,-0.00555437291,-0.0263673421,0.0153380614,-0.00225840067,-0.0323402919,-0.0173047278,0.0178893674,0.0154770799,0.0131553933,-0.0252248645,0.0125561114,-0.0328884199,0.000763471122,-0.0134048676,0.0117094517,0.0170853753,0.0142433904,-0.0218180846,0.00904364605,-0.00837790966,-0.0253423396,0.0113802515,0.0144132078,-0.025736643,-0.0277687404,-0.00979414303,-0.0139426859,-0.00473239319,-0.0431443341,-0.0494975075,0.015425331,-0.000517787819,-0.0194277074,0.0110877408,-0.0242974944,-0.00256617065,0.0114923669,-0.00934740901,0.00133831473,0.0264922716,0.0044279322,0.0480606444,-0.0137615297,-0.0115634585,0.00304772821,-0.0102077723,0.0032100447,0.0011903767,0.0377987884,0.00542521756,0.00274630147,-0.00782623515,-0.00902150851,-0.0101551851,0.00756799104,-0.0212849658,0.0175738726,-0.00393202901,0.0254883803,-0.00552115776,-0.0359026678,-0.0141379209,0.0282633137,0.0201849155,0.041543413,-0.0199183896,0.0499166921,-0.028825853,-0.00504076527,0.00783812907,0.0197528545,-0.0153447948,0.0357317477,0.00207188772,0.0111714574,-0.0204021744,0.0348697267,-0.0326025076,-0.0205459427,-0.0506862588,0.00599950645,0.0135621279,0.0157737136,-0.0174634438,0.0248431135,-0.0153701743,-0.0260682013,-0.00275298627,0.0124521852,0.0255573746,0.00630558887,-0.0464739986,0.0282387938,0.0115131121,-0.00761787873,0.0230582058,-0.0189974271,-0.0182455834,0.0079824999,-0.0256212689,0.00460038288,0.00807766616,-0.0300951134,-0.00559721468,-0.0237383153,0.0272956826,0.00476989243,0.013055901,0.0152020622,0.0188802443,-0.0102269147,0.0217574872,-0.0232176185,0.0290637631,-0.0228254646,0.0273893699,0.000852859463,-0.0065012197,0.0168303959,-0.00932419859,0.0190337002,-0.00676034624,-0.0249936916,0.0316447876,-0.0166984778,-0.0329319127,0.0554706864,0.0251355544,0.0374990553,0.00463440875,-0.0304944143,0.0283809174,-0.00562486704,-0.012103742,-0.017647367,-0.00679757632,0.0106606791,0.00260441215,-0.00764485868,0.00850180164,0.0048506516,-0.0190085992,-0.00690955622,0.00903249905,0.0139142741,0.00457599107,-0.00114600814,0.00450252602,0.0173484199,0.00311003765,0.00771710323,-0.0292979497,-0.00082175131,-0.045023717,0.0201869011,0.006648988,-0.0143409055,0.0694641694,-0.0217336323,0.0092027057,0.0052581341,0.014169272,0.0159283206,0.020204816,0.0118991872,0.00164203427,-0.00401025685,-0.0330251865,0.0168658942,0.00411104877,-0.0363988504,-0.0148805138,0.011662391,-0.0124120051,-0.00118974515,0.0164133422,0.0185707975,0.000557908381,-0.0503788888,-0.0326931812,-0.0150934812,-0.00591113418,-0.0278479625,-0.016439585,-0.0295244977,0.0304044951,-0.0181632042,0.016781453,-0.00456081983,0.0133362152,-0.020442659,-0.011629628,-0.0195787791,0.0371170528,-0.0058688242,-0.00371353561,0.0125755323,-0.00370922475,-0.0171120837,0.0096338708,-0.00326498132,-0.0200298131,0.0124503523,-0.0239274707,-0.00808649603,-0.0350648426,-0.0042551104,0.0319928676,-0.0165503863,-0.00490033487,-0.0206397772,-0.0134120928,0.00774803897,0.0392883681,0.000147766696,-0.0203471631,-0.0391403176,0.0131324641,0.0187709462,-0.00684467377,0.00660162373,0.0231374353,0.0296966974,0.0160680171,-0.000250961893,0.0079390062,-0.0237422176,0.0305550024,0.0190650187,0.0118729901,0.0200946443,0.0224667825,0.00618183007,-0.0114845345,-0.0335033759,0.0106704468,0.00456401426,0.00106421986,0.0309447441,-0.0307563003,0.0220720023,0.0105657941,0.00153846201,-0.033633139,0.0324125104,0.0242603943,0.00942607783,0.00827169698,-0.0279723853,0.0253320765,0.00376098324,-0.0179064684,0.0170346014,-0.00823995005,-0.00983255729,-0.00901633315,-0.0235859696,-0.0135974502,0.0217496529,-0.0193933863,-0.021951139,0.017237477,-0.00953219086,-0.0114726098,-0.00490234047,-0.0292062443,0.0353347287,0.00702333311,0.0141243851,0.0154962894,-0.00693912897,-0.0179585796,0.00840010587,-0.0377445109,0.00868971646,0.0155717712,0.0205708835,-0.0401350297,0.0182999503,0.025145974,-0.0383044705,0.0175422747,-0.0101361033,0.0204086304,0.00520132389,-0.00624424499,0.00242716563,0.00746637443,0.0405872725,-0.0102377171,-0.0187280495,-0.0223447792,-0.0175509881,0.021003155,0.0354088768,-0.00526594371,-0.0115788002,0.00295128417,0.0131181143,0.0109535949,-0.021373786,0.013107745,0.035915684,-0.00904813129,-0.00693675969,0.0328187756,0.0251281429,0.0462589078,-0.0285733677,-0.00841012225,-0.00847288128,0.049660828,-0.0129734576,0.0311134383,0.00608051708,0.00788411591,-0.0261000581,0.0446432307,0.0185968094,-0.0307648182,-0.0454251654,0.0172693636,0.00202712999,0.0445432067,0.00823972095,-0.002559816,0.0293677393,-0.0214081854,-0.00197085855,-0.0185743086,0.0151550779,0.0118413698,-0.0135223027,0.0447453596,-0.0232125968,-0.0014228971,-0.0163944829,0.008221603,0.00884579401,0.021561414,-0.00345150637,0.0103199901,0.0366733,-0.00326394965,-0.00840853248,-0.0117823165,-0.0183651093,-0.000240698151,0.0427391715,0.00270211184,0.00215479103,0.00587045355,0.0285574291,-0.0251606219,0.0226711277,0.0047103744,0.00541615486,0.000732357556,0.0194080286,-8.57882478e-05,-0.00658103405,-0.0073864786,-0.0212933514,-0.0199984442,0.0311878584,-0.0154698258,0.0130136861,-0.0137220724,-0.0153871104,0.00879409444,0.0383966006,0.0290595796,-0.0205269046,-0.00106986926,-0.0110289371,-0.0104843648,-0.0283620786,-0.0274430215,0.00195516204,0.00166476332,0.0076273093,-0.00131999713,-0.0261469316,-0.00769915618,-0.0261119213,-0.0167159084,-0.0402490124,0.0439445488,-0.0202023406,0.0253035035,0.00146562955,0.0040106955,0.0171421338,-0.00258132187,-0.0257033706,-0.00397501234,0.00508577516,-0.0101121366,0.00243223412,0.044549264,0.00935298577,1.17467835e-05,-0.0307166148,0.000317358412,0.0222947858,-0.0433297493,-0.0277553741,0.0384116694,0.00883389171,0.00830350257,0.0319749191,0.0315435529,-0.0270807948,0.0162559096,0.0396469235,0.0132961739,0.0307823587,0.000167676451,-0.0131814759,0.0489981249,0.0109508103,-0.0390421972,-0.0258920379,-0.0150284097,0.0101434672,0.0381198339,-0.00311921956,0.0315992869,-0.0310621355,0.00785319321,0.000190150095,0.000992894173,-0.00629057037,-0.025521135,-0.000169541745,0.0199007485,-0.00348785101,-0.0325811245,0.00803376827,0.000371075294,-0.0320414715,0.0245383065,0.00476634968,0.0109730782,0.0104751177,0.0201848,-0.00388812274,0.00289535127,-0.017360298,-0.000956868636,0.00688269502,0.00419412972,0.0177523326,-0.00870577432,-0.0266059227,0.0223735515,0.0200187229,0.0341060162,-0.00854355004,-0.0389032438,-0.0302543137,0.0124664903,0.00195122964,-0.00616256334,-0.0104559846,-0.00934830494,-0.00767062465,0.00163835357,0.00940715149,-0.0250128135,0.0137072559,0.0275874101,-0.00844557583,-0.0196944475,-0.00788305607,-0.00773279183,0.0129610067,-0.000386399013,0.0185852088,0.0115406634,-0.0249983184,0.0220395681,-0.0362950154,0.00509337429,0.00249135983,-0.0115403794,0.00990419276,-0.035831403,0.0305125471,-0.0105635328,0.0143710542,0.00312344939,0.00819186587,-0.0413599536,0.0051698857,0.0124970125,-0.0212502684,0.0121187819,-0.0194162708,0.0119976448,0.00946661178,0.0115856016,0.0173951406,0.0092723025,0.024931252,0.0198356248,-0.0434090644,-0.00689489301,-0.000200322771,0.00947868265,0.0124129271,0.00951227173,-0.0198747534,0.0070900307,-0.014604344,0.00955045782,-0.0115797827,-0.0391602218,0.00146379811,0.00965396408,0.00658734795,0.000841930043,-0.0270402227,0.00775862066,-0.00116226962,0.00806908961,-0.00114097376,0.0177122634,-0.0508771986,-0.036294397,-0.0413692668,-0.0180287231,-0.00482980255,0.02901306,0.00687994156,0.024651492,-0.00473999977,0.0334204584,0.00777588878,0.00543318177,-0.0270471275,0.0148565238,0.0331287533,-0.00497283321,0.0228443947,0.00570849748,0.0211043917,-0.00263041398,0.0106689809,0.0134926159,-0.00397972856,0.0185327455,-0.0209014658,-0.00564819574,-0.0200951658,-0.0133770239,0.0145616848,-0.0585451238,-0.0280676913,0.0241693389,-0.0163616072,-0.0238303151,-0.0204669163,-0.0077025434,-0.0419770405,-0.012430911,0.0235540438,-0.0177966394,-0.0222379174,0.0346613266,-0.0179958474,0.0404282138,-0.0067439978,-0.0139528224,0.00919735525,-0.0217779838,0.0200070869,0.00460844906,-0.0113754142,-0.0020612455,0.0163723584,0.0135724219,-0.0204438847,0.00232122932,0.0209193137,-0.00991511345,-0.0278221648,0.00854803063,0.0166261401,-0.0368218422,-0.00469376706,0.00864727795,-0.00686520152,-0.0361659192,-0.0105525237,0.0212740917,0.0206617061,0.0258650314,0.00662788376,-0.000337345176,0.00090431876,0.000572038291,0.0238766875,0.00224747742,-0.00817138795,-0.00536415167,0.0197033212,0.024366403,-0.0323541872,-0.00349639938,-0.0086425934,0.0024348062,0.0408570059,-0.0206933692,0.000234023493,-0.0631939247,0.0288091041,0.0237933509,0.0145289414,0.0097199697,0.0245979857,-0.00630179467,0.0124408826,-0.00325169833,-0.0385123342,-0.0266396515,0.017289076,0.0246340875,0.00783423986,-0.0128867961,-0.0323960073,0.0105461739,0.0161524415,-0.0064935605,0.0112752207,-0.0163839497,-0.00108185795,0.0364946052,0.0164635573,0.022541482,-0.00473306607,0.0466473848,-0.00545504037,0.00827419478,-0.00265269354,0.020913491,-0.027938677,-0.0181387905,0.00666678837,0.00317017571,0.00955983717,-0.020572111,0.00840861909,-0.031841699,0.0351675488,0.0181700792,0.00933718495,0.0154745812,0.000565808208,-0.0131152878,0.0146746347,-0.00763861742,-0.00490385713,-0.00463225367,0.0165741313,-0.0115468558,-0.015448492,0.0050879172,-0.00609521335,-0.0201381873,-0.0339756422,-0.000609451614,-0.000507441291,0.00845887139,-0.00287526054,0.0371692404,0.00035227745,-0.00908427592,-0.0273394454,0.0542446449,-0.0195074659,-0.01321101,0.0286283009,0.0160035864,0.0181334987,-0.0079537034,-0.00981728733,0.0103360536,0.0456455946,-0.000476899848,0.0108067002,-0.000959091412,0.00141624699,0.00832273345,-0.0496524908,-0.00224872772,0.00372423185,-0.0114357788,-0.0477680229,0.0029344603,0.0111588594,0.0570338666,-0.0375663824,-0.0232004542,-0.0147716403,0.0328587927,0.0066060666,-0.0144812213,0.0141461343,0.0176604874,0.0176241975,-0.0138035044,-0.0008389469,-0.0281678569,-0.00170517631,0.0143391751,0.0276571531,-0.0186444689,-0.00896614697,-0.00627114344,-0.00483308174,0.0235514734,-0.0182555355,-0.0208717622,-0.0116350949,-0.000266844465,-0.0264285058,-0.00501347287,-0.0210362747,-0.0137132751,0.00989988726,-0.0363323353,0.0101774773,-0.0597080849,0.0220796298,0.000397218391,0.0105368765,0.0307385977,0.00756577542,0.0261708703,0.0160736851,-0.0136619639,-0.0108194714,0.0224750228,0.00668504834,-0.0261979643,0.00743965199,0.00732652936,0.0135689946,-0.0351024382,0.0159201398,-0.00635167211,-0.0267016329,0.0187891852,-0.0223929565,0.027782917,0.0143570863,-0.0142433783,-0.0203002524,-0.0166062843,0.00795474835,0.000592978613,0.00760692684,0.00435776683,-0.000676274882,0.0165519137,0.00814204384,0.00811864343,-0.00708359759,0.0158182904,0.00181696587,-0.00646425597,-0.00596189126,-0.0271570124,0.0524991676,-0.0316166356,0.000116528092,-0.0296494327,-0.012129602,-0.00622915803,0.0304616224,-0.00732492143,0.0247300565,-0.0319562182,0.0217595231,-0.0246506277,-0.0101062423,-0.0106537128,-0.00646766461,0.018147707,-0.00754278759,0.00462409714,0.0251838081,-0.0106167346,0.0160716753,-0.0123021873,0.0228941888,0.00627472857,-0.00934362598,0.0731325448,0.0106683439,0.00418767845,-0.0270325877,0.00793561898,0.0343756899,-0.0124911498,0.00960255601,-0.0361286141,0.00572718587,-0.0105466712,0.00515011232,-0.0193224289,0.0136967022,0.00122762297,-0.0194493663,0.0181322824,-0.00954186171,-0.0127958888,0.00837406889,-0.0284611192,0.00425496884,0.00723495148,-0.0238766149,-0.0131827909,-0.026135454,0.0241171159,0.00438161613,0.00186743122,0.0105579114,-0.00774102053,-0.00269661145,0.0204587579,0.0310256705,-0.00814124011,-0.0182722248,-0.0172480419,0.00219515502,3.42874591e-05,-0.0154588697,0.00560519844,0.0320095383,-0.0133795189,-0.0100939441,-0.00601489609,-0.0381156094,0.0117041646,-0.0159674622,-0.0374340303,0.0288076997,-0.0246719494,-0.0452351384,0.0313772857,-0.000419627089,0.00389237609,0.0138877127,-0.0258259345,0.00533978827,0.00475153048,0.039951928,-0.01911203,0.00475508068,0.0259951204,-0.0104918303,0.00140195829,-0.0429703407,-0.00057104521,-0.0037308149,-0.0435388759,0.00176740147,0.0217821002,0.0049014925,0.0152961668,0.000478101691,0.0108965691,0.0253921654,-0.0113310255,-0.0561265796,-0.0247791521,0.0175622385,-0.0343889855,-0.0198864136,0.00587784825,0.00615085149,-0.0101246927,0.0218637455,-0.00790729281,-0.0251043718,0.0284814518,-0.000612714735,0.01336502,0.00684148958,0.00991113484,-0.0143287592,0.0115835546,-0.00114659674,-0.0261456072,0.000876882055,0.0237022322,0.0103044091,0.00240606419,0.0017149417,-0.00400823122,0.00273225456,0.0151461689,0.00530611211,-0.0193244088,0.0192052498,-0.042673979,0.00195075222,-0.00925448723,-0.00406053104,0.0174637847,0.0369705483,-0.0231703687,0.00406819163,0.0308953114,-0.0147205908,-0.0189372413,-0.0251489393,0.0145768831,0.0205228347,0.0270644389,0.00641790126,0.0152393477,-0.021631334,-0.036749851,0.0377657935,0.0090148598,0.010418646,-0.0152962189,0.01609689,0.0088308556,-0.0132092088,0.0448638126,-0.0135601116,0.017846955,-0.0128595214,0.00189178926,0.0200105216,0.000874181045,0.00924976543,0.0229701512,-0.00655522337,0.031535361,-0.00703258812,-0.002533274,-0.0160623938,-0.0131851649,-0.0134004401,0.0252322927,0.00148100511,0.0342955776,0.0354807116,0.00879797526,-0.0170155577,0.00518729305,0.00491877366,-0.00307265599,0.00866204686,-0.0185892135,-0.000970967638,0.0107020503,0.030799428,-0.00173235952,0.0150876511,0.0307726599,-0.0152562642,-0.0247821454,0.0319959484,0.0108128451,-0.0028520741,0.0414145514,-0.0147764934,-0.035512872,-0.0207547545,-0.0375283994,0.00201616227,0.00383498799,-0.0197670497,0.0146593517,0.00745161297,0.0288069248,0.00197989913,-0.0156305861,0.00826731883,-0.0206450857,0.0134420507,0.00861351192,-0.000963912869,-0.00411147717,-0.0259188041,-0.0299349297,0.0260249637,0.0191577021,-0.00225969241,0.0360621363,-0.0148502039,-0.0216296259,-0.00881501473,-0.0275772586,-0.00788649358,0.00638532406,-0.0210605357,0.000871549069,-0.0159077756,0.0236291289,-0.0334337614,-0.00397893135,-0.00100014044,0.0029967681,-0.00150362402,0.0168368425,-0.00164883642,0.0237139538,0.0161603987,0.0369228646,0.0364088789,-0.0220774524,0.00739436829,0.00608462933,-0.0111987442,0.0124937417,0.00722027058,0.00688905362,0.00303895678,0.0190535244,0.0021941103,-0.076949507,-0.0063929949,0.0516892709,-0.00856251549,0.0348997712,-0.0253150892,-0.00787441805,0.0112314206,0.037814524,-0.0608860068,-0.00416558189,-0.0065299659,0.0397790931,0.0054534832,0.0431105718,-0.0148549611,-0.0225212164,0.0144280801,0.00954614952,-0.0164342858,0.00340070459,-0.012819659,-0.0287618935,-0.00191499735,0.0367598012,0.00362500292,-0.00877780933,0.000463361939,-0.0412683338,-0.00467708148,0.0163839888,-0.0125492616,0.00211534929,-0.0517015047,0.00964579359,0.0118225114,0.0234249756,-0.00875003077,-0.00531278364,-0.00919309445,0.0215073675,0.0359017923,-0.0197751056,0.00097326067,-0.00538778305,-0.00828857906,-0.00408099685,-0.00918474048,-0.0149576198,0.00134255691,0.000934622949,0.016998861,-0.00242905878,-0.00826060306,-0.0372141823,0.00894096773,-0.0121694058,-0.0317973234,-0.0293667335,-0.00781531259,-0.00920491852,-0.00899520703,0.00551684666,-0.017374834,0.0155222667,-0.0363477655,0.0225347448,0.00398292672,0.00149999908,0.00928630773,0.00484367786,-0.0363705195,0.0247588418,0.0199974496,0.0305876061,-0.00372548774,0.00902746059,-0.0304172654,0.0383281186,-0.0228548609,-0.00163430022,0.00818888377,0.0102349361,0.00625777896,0.0175888781,0.0278960373,-0.00606359635,0.0162004884,-0.00837161485,0.00530653726,-0.0244144052,0.0141006345,-0.035361249,-0.00437018974,-0.00649134815,0.0194678772,0.00529001886,0.0112327943,0.0142350607,-0.00223388453,-0.0113015687,0.00467162486,0.0103378417,-0.00592490472,0.0174054317,0.01237032,-0.0323425084,0.0131583232,0.018409377,0.0181580987,-0.00767392898,-0.0143267782,0.00372601533,-0.0489953123,0.0255634654,0.0120928083,0.00391537556,-0.0196967628,0.00277688075,0.0465580039,-0.0100702262,-0.000422592071,-0.0213529039,-0.0139277317,-0.00363717182,-0.0191449262,0.0312594064,-0.0012748912,0.00653358363,-0.0431278236,-0.0187362209,0.017586397,0.0342026092,-0.0105183525,-0.0115487752,-0.0204374529,-0.0101195443,0.00876165647,-0.00792898238,0.0282148328,0.000899021979,0.00277614687,0.0115336357,-0.0157891717,0.0144567536,-0.0146059534,-0.0175102782,0.0239244979,0.0197748858,0.0431566499,-0.00434147567,-0.00622798176,-0.00468463684,-0.0274840798,-0.0100290906,-0.00886138435,0.020774493,0.0473137386,0.0159981903,-0.0122230407,0.0063484069,-0.0382014327,0.0192960966,0.00468019489,0.0240244549,-0.00305487425,-0.0142537532,-0.0167991705,-0.0272322092,-0.00152389461,0.0376464427,-0.00831361115,0.0395723842,0.000596703438,0.026363872,0.00606180634,0.0375458635,-0.016694447,0.00615145499,0.0175799616,0.0370988175,-0.00628535869,-0.0064298436,-0.00685038324,-0.0025931776,0.00280981394,0.010483047,0.0131141292,0.0346007682,0.00617532618,-0.017538134,0.00606604805,-0.00613945723,0.0133459819,-0.0154074701,0.00583667075,-0.00361457141,0.00520237209,0.00912565179,0.0256480258,-0.000750466425,-0.00403922563,0.0257443786,0.0139832124,-0.0334277377,-0.0123857083,-0.0129191075,-0.0350646488,-0.0011116697,0.0259598028,0.0448124893,0.00137607555,-0.0226241518,0.0300401375,0.0117444498,0.0150066214,0.019977564,-0.0220814347,-0.0464448147,0.0349956527,0.00731670624,-0.0297249649,0.0181165282,0.00423724903,-0.0330414176,0.00293809874,-0.00406017527,0.0254654642,0.0238528084,-0.0118607413,-0.0234838556,-0.0340409875,-0.00940220617,-0.0037610319,0.00234246883,-0.0114087267,-0.00401340937,0.0259647332,0.0188455284,0.00994278025,0.0258075353,-0.00550245913,0.00893801358,0.00148939027,0.0173844397,-0.00232356228,0.0179686677,0.024597317,0.0262439605,-0.0331935473,0.0369546153,-0.0156123601,-0.0028676244,-0.0088577196,0.0135028316,0.0199796688,-0.022527637,0.00649558194,0.0142095713,0.00777133228,-0.00760899112,-0.00988723058,-0.0316351764,-0.021952929,-0.00516633689,0.000424768194,-0.0167739354,0.0120420475,-0.0124305356,0.00177245459,0.0248028394,-0.0466279499,-0.01907406,-0.00381969451,0.000981570571,0.00738510257,-0.00433690427,0.0156008136,-0.0303574707,0.00413009105,-0.0203688648,0.000236152177,0.0258045793,0.00663513364,-0.0029860069,-0.00361203239,0.0131802317,-0.0185094737,-0.0411095843,-0.0220122468,0.0232426617,-0.0325087309,0.0134626385,0.0322589017,-0.00772877783,-0.0130149592,-0.00239692279,0.0016493802,-0.0196588803,0.0152738569,-0.025238907,0.0120987184,0.0137133906,0.017440157,-0.0253433511,0.0166974273,0.00773194572,0.0241144132,0.0107576428,-0.0143687213,0.0115882969,0.0169359483,0.014170493,-0.0628487691,0.00700431969,0.047276292,-0.0245590806,0.00545794936,-0.0369669162,-0.0107907914,0.0310538113,-0.0229104329,0.0181964245,-0.0197586883,0.0197423678,-0.0114002358,0.0105519854,-0.0030225243,-0.0029542963,0.014213372,-0.0234641787,0.00624810439,-0.028263187,0.00644589448,-0.0154235577,-0.018747678,-0.0176888835,0.0169950351,-0.00977129024,0.0068169618,0.002499433,-0.00100730488,0.0403211713,-0.0166119579,0.0417103134,0.00249335915,0.0132654691,0.00225613778,0.00859729014,0.0065596411,-0.0236677304,-0.014940327,0.0132117653,0.000976566109,0.00550540024,-0.0178734474,-0.013129184,0.00813916232,0.00942050852,-0.00721366331,-0.0218680855,-0.0308052562,0.0087433951,-0.00894178823,0.00636702636,0.0202717111,-0.00825419649,-0.015262221,-0.0213901084,0.0196761526,-0.0206908509,-0.00140160881,-0.0135120032,0.021467099,-0.00564209744,-0.03230552,-0.014206673,-0.0250545256,-0.0110731227,-0.00784823485,0.0134325307,-0.00980866142,0.0122467242,-0.0138487536,-0.0273663998,-0.0337485224,0.0154595803,-0.000511667982,-0.0010191875,0.0140176648,-0.0431506112,0.00453190831,0.00322667416,0.00316798477,-0.0256154891,0.0146306092,0.00215532724,-0.0422565565,0.00916266441,-0.0147522483,0.00653928705,0.02856851,0.0267046634,0.0056481543,-0.0161160994,-0.00863159914,0.0053981361,0.013961615,0.0094575258,-0.00954548921,-0.0123370485,-0.0388481542,0.00798576791,0.0338674858,-0.0397018194,-0.021407336,-0.00414105365,0.0284442101,-0.00830271561,-0.0206686892,-0.000202957337,0.0124191614,0.0208214875,-0.00391732156,-0.0309099331,0.0145248314,-0.00625718152,0.0217504967,0.00865854323,-0.0378043279,0.0197364502,-0.00264531421,0.0106227025,-0.0228265915,-0.0256125107,-0.0240768027,0.000110374211,-0.00751171261,-0.0135420104,0.027653059,0.0168170407,0.0205915868,0.0141822184,0.0187351648,-0.0105704814,-0.00135940767,0.00222898321,0.0304681323,0.00452220626,-0.00355461729,-0.00335024856,-0.00506110722,-0.0203904118,0.0156020848,-0.0212040544,-0.0109796645,0.00442625862,0.0177499093,0.0114069711,0.0204893518,0.0115722977,-0.00204516528,-0.000445743673,-0.0338553675,-0.0158731434,0.0157057811,0.0138683487,0.00825050846,0.0175401252,0.00748785958,-0.0180475749,-0.0218193047,-0.00873739738,-0.0129788835,-0.0189835094,-0.00278788758,-0.00155356422,-0.00731237466,0.00500081154,-0.0226322711,-0.0346209854,-0.0444364212,-0.0110574923,-0.0150651392,0.0175391566,-0.00137777475,-0.00165689702,-1.60340605e-05,0.00192202523,-0.0348988995,0.00933651812,0.0182493757,-0.0376660898,0.0240293499,0.00640421361,0.00334345223,0.0297664683,-0.0231213477,0.00897521526,-0.030533148,0.0140613671,0.0348682962,0.0260360241,0.018173635,-0.0245434809,0.0337729901,-0.0208104923,0.0226636287,0.000479491748,-0.0094841402,-0.0219270885,-0.00487896893,-0.000700261502,0.0288808458,-0.0143581582,-0.0306209866,-0.0258009434,-0.00656119548,0.0157440361,-0.0118149007,-0.0654021651,-0.0352974087,-0.0083796829,0.0234932564,-0.0337015241,-0.00606615748,-0.0303775165,-0.00867385883,-0.00193787331,0.00585895404,-0.0113810599,-0.0113699734,0.0236637425,-0.0329291336,-0.0362601951,0.0148037039,-0.0027770584,-0.0278341528,-0.0022929199,-0.000420385157,-9.37439399e-05,-0.000301548833,-0.0155499158,0.00556035526,0.0103252437,-0.00787222665,-0.00647764001,-0.0192320291,0.0126838898,0.0190760251,-0.0121255014,0.0396622494,-0.0059393635,0.0280146003,0.00713392952,-0.00207536924,-0.00138996285,-0.00248931954,-0.039217487,-0.0316353105,-0.00726816058,-0.0228837766,0.0283858608,-0.011260746,0.0337898098,-0.00096148497,0.0214561727,0.022825243,0.00700602029,0.0250797532,0.00588120567,0.0248047318,-0.00127578876,0.00174747454,0.0497693159,0.011514469,-0.021304518,0.0103663485,-0.0303742401,0.00301153795,-0.0098525146,-0.055935476,0.0292427149,-0.00672355853,-0.0102413874,-0.0319133401,-0.00231958227,0.00700450363,0.00643494306,0.0145868687,-0.053954117,-0.0417187735,-0.000215231194,0.0200556293,0.0130082509,0.0104448581,-0.00494861603,0.00956966728,-0.00944290776,0.00694073597,-0.0295710471,-0.0166546274,-0.0299376454,-0.00495379511,-0.0482456908,-0.000636358454,0.0307421293,0.0357329249,-0.00598914921,-0.0135276932,0.000708688924,-0.0334179737,-0.0140832616,0.0215728581,0.00404456211,-0.00239087734,-0.0129146045,0.00034620965,0.000779296504,0.000975775241,-0.0101144221,-0.00706710806,-0.00251775677,-0.0155068506,-0.0189695358,0.0136473048,-0.0112228096,-0.00518845953,-0.0192545932,0.00916649587,0.0155364657,-4.42096207e-05,0.0127068777,0.0117579335,-0.0149093578,-0.0257100984,-0.0360325649,-0.00736358995,-0.00196224102,0.0365327224,0.0234310143,0.0199635774,0.0221742578,0.00281729433,-0.00115585933,0.00819655415,-0.0223617759,-0.0637315288,0.00406042114,-0.0225003362,0.00110941043,-0.0290266015,0.00357468543,0.0147330463,-0.0118358238,0.00363067258,0.0319998004,-0.0399325304,-0.0273741316,-0.0247272607,-0.0127857178,0.0133776218,0.0140183112,-0.0295712706,-0.0104315886,-0.0311399456,-0.0208315253,0.00345470547,0.0174579378,-0.0132027902,0.0445554294,-0.00536331302,0.0336765423,0.0298418235,0.0128956139,-0.00807115436,0.000999867916,0.0271437615,-0.0486907884,0.0143778324,-0.00368808233,-0.00424387073,0.0280439295,0.0349465683,-0.0130957039,-0.0294980071,-0.0098872222,0.0216277838,0.014203852,-0.002184015,0.00046542706,-0.00401585083,0.00957447663,-0.0175581649,-0.0130253993,-0.034808822,0.00534954108,-0.012830615,-0.0146411872,0.0160933565,-0.0477070138,-0.0237633772,-0.0123604639,0.0137908384,0.00309982174,0.00622710679,-0.00560493954,-0.0286070965,-0.0242787078,0.0446845852,0.00209526857,-0.0156211145,-0.0178077053,-0.0179674458,-0.042083703,0.0102980919,-0.0347536951,0.00837626494,-0.0106690107,0.031897556,-0.0174956843,-0.00710966438,0.00421100715,-0.015148297,0.00807218626,0.026867155,0.0290755238,0.0307851881,0.0176115911,-0.0468726307,-0.0495344661,-0.0143497093,-0.00517304102,0.034540657,0.0238175411,0.028305646,-0.0154539598,0.0211520791,-0.00600540685,0.015895756,-0.00298490818,0.0124235088,-0.0021478869,0.0194977336,-0.00285511417,0.0180515982,0.00243872614,-0.0292834993,-0.015037599,-0.0551310442,0.0236752555,0.0221007653,0.0328199752,-0.0157774407,-0.0107390238,0.0112892604,-0.00979146827,-0.00577871781,0.00220590713,0.00680136168,0.02686291,0.0353372954,0.00172485539,-0.0234762002,0.00948538445,0.00926927663,0.0301224869,-0.00193519914,0.0103973588,-0.0119677354,0.0107564293,0.00938435458,0.0127719315,-0.00236261962,-0.0405592956,0.014690849,-0.000576397288,-0.00600637123,-0.00730042439,0.0184020996,-0.0362984762,-0.0269016065,-0.00496722246,0.00379104284,-0.0215205513,0.0277226325,0.00437570782,0.0101810303,0.0141690886,0.000383202569,-0.0284367632,-0.0320519209,-0.0255717076,-0.00513927545,0.00645127753,-0.0112999361,-0.013073042,0.013037228,-0.00144484791,0.030950075,0.00545011368,0.00625230232,0.00304698572,-0.0105880881,0.0215910021,0.0684068501,-0.00683138287,-0.0111050857,0.0200629923,-0.00492158066,0.0041499245,0.0285785533,-0.00055616023,0.000471258216,0.0289704166,0.0250252821,-0.00876776408,0.0223854575,0.0157114118,-0.00982576981,-0.0571175627,0.0227648634,0.0114185428,-0.00528937113,0.00412104139,-0.0150466794,0.0392624736,-0.0362659693,-0.0201489963,-0.0150342556,-0.0373483226,-0.0370981134,-0.00163581804,-0.000708594103,-0.0437806249,-0.0422857143,-0.0171875395,-0.0168794673,0.0137324557,0.0264779888,0.0209054556,0.0242654812,0.00503335008,-0.0164352357,-0.022444658,-0.0328661352,-0.0235627219,0.00796002802,0.0380144939,0.00485834386,-0.0177847128,-0.0401407108,0.0108890114,0.00304850983,0.00578274019,0.0195538159,0.00223543844,-0.0261574574,0.0236324742,-0.00682126218,-0.0319647081,-0.00234186579,0.0295010991,0.0249351468,0.000605535519,-0.0206511877,-0.0110840984,-0.0148563636,0.00360223697,0.00701968605,-0.015179296,-0.0126238139,0.0399334952,0.0169782024,-0.0276240334,-0.0334750786,0.0217848755,-0.0272328891,0.00700353133,0.00508087035,0.0159467291,0.0288214218,-0.0135938628,0.0257603116,0.0201841798,-0.000922862731,0.0165836997,0.000786193239,0.0305707976,-0.00387988822,-0.0248852894,-0.0337048732,0.0340961479,-0.0212273337,0.0149869071,