#include <stddef.h>
#include "aicc_runtime.h"

#include <cblas.h>
static void kernel_matmul(const float* A,const float* B,float* C,int M,int K,int N){
  long work = (long)M*(long)K*(long)N;          // ~ MACs
  if (work < 2000000L) {                        // tune threshold
    for(int i=0;i<M;++i){
      for(int j=0;j<N;++j) C[i*N+j] = 0.f;
      for(int k=0;k<K;++k){
        float a = A[i*K + k];
        for(int j=0;j<N;++j) C[i*N + j] += a * B[k*N + j];
      }
    }
    return;
  }
  cblas_sgemm(CblasRowMajor,CblasNoTrans,CblasNoTrans,
              M,N,K,1.0f,A,K,B,N,0.0f,C,N);
}



static void kernel_add(float* X, const float* B, int N){
  for(int i=0;i<N;++i) X[i] += B[i];
}


static void kernel_relu(float* X, int N){
  for(int i=0;i<N;++i) X[i] = X[i] > 0.f ? X[i] : 0.f;
}

static const float W0[] = {0.0338558219,0.016611971,-0.00473074801,-0.00109575922,-0.0129110478,-0.0375264809,0.00286447071,0.00366833596,0.00728864968,0.00179219898,-0.0359669104,-0.0044307257,0.0371372923,-0.0125426333,-0.0304135941,0.030380806,0.00158152438,0.0091770608,-0.0146480761,-0.0221570637,-0.00193398318,-0.0324771293,0.00563545618,0.0533417538,0.0277302284,0.0268373564,-0.00243569911,-0.00197548838,0.0241381042,0.0385673866,0.0553033091,0.0152514419,0.00697326055,-0.0310321357,-0.00843568426,0.00352024334,-0.00691635534,0.0231159497,-0.00639248127,0.021817632,0.00439133076,-0.019763669,0.0132661117,-0.025246283,-0.00998749491,0.00324076414,-0.00818169117,0.0199071057,0.0511032194,0.0230351854,-0.0335340463,0.020563025,-0.00270997873,0.0140803866,0.0080625983,-0.0347585343,-0.000959989615,0.0125957653,-0.0145425266,-0.0129754739,0.0476989336,0.000642586383,0.0149504263,0.0143956942,0.00346402824,0.0340096392,0.0131045589,-0.00605337229,0.0429208018,-0.0081350226,0.0101364618,0.0360959619,-0.00580186816,0.031548094,0.00862469152,0.000788504141,0.0270823352,0.0159355178,0.000496725377,0.0122226113,-0.00325306761,0.0280247293,0.00812152401,0.00840939581,-0.0505455956,0.0468837358,-0.00320310052,-0.0011719683,-0.010338787,-0.00951516628,-0.00129023322,0.00417282199,0.00644659624,0.0267962832,-0.00104412588,-0.00893180445,-0.0298259463,-0.0266426913,0.0182307921,-0.012145794,0.0153191071,0.0269366615,-0.0284721367,-0.00998593587,0.00487438636,-0.0130275898,-0.0200036112,0.00554269785,0.0288334452,0.0155601716,-0.0198151357,0.00046020592,0.0111569995,-0.0128116785,0.0104391016,-0.0362163745,-0.0102454172,0.00404602755,-0.00308899255,-0.0167216212,0.0208711643,0.00950169377,0.0203581043,-0.0128270146,0.0084587438,-0.0491715223,-0.0099232737,0.00960553531,0.00188604777,0.00346683059,-0.0118239056,0.0139431236,0.0123791359,-0.0270458404,-0.00216649845,-0.000758296112,0.00040823876,0.000768963539,-0.00638691848,-0.0222199839,0.00188478897,-0.00809872616,0.00158787647,-0.0248927604,0.00967319403,-0.0517818928,-0.0188142527,0.0124275228,-0.00612680847,0.00647344533,0.00654481864,0.0235428642,-0.0201139413,0.00742218876,-0.00965540484,-0.0186944269,0.0120075652,-0.0254080314,0.00284022302,-0.00616445346,-0.0140602076,-0.0272040553,0.0115882391,-0.0181572791,0.0146404132,0.0154012721,0.0189956576,-0.032698065,-0.0155398296,-0.00742054684,-0.0153897963,0.0216552708,0.02114865,0.0104817515,-0.0168963093,0.0181907658,-0.0152137158,-0.00137521059,-0.00116138428,0.00468920777,-0.0158536863,0.020541558,-0.0163153056,-0.0305618234,-0.012935861,0.0285577308,0.0350236855,-0.0344406106,0.00721328659,0.0297553912,-0.00451552961,-0.0080901254,-0.00171415939,-0.012851933,-0.0213677883,0.00226363493,-0.00991184078,0.00673741661,0.00176154182,0.0340248905,0.0134653915,0.00551361497,-0.0180530958,0.00171587744,0.0519862697,-0.0165448859,-0.00686941016,-0.00788266398,0.000626026886,0.0131397555,-0.0138721643,0.0187467709,0.0291761979,0.0063446397,0.0123145748,-0.0384378582,-0.0413912944,-0.00642105285,-0.0189782679,-0.0187951531,0.0162524804,0.032926254,-0.0353998616,-0.0379840098,0.0137085812,-0.00773275783,0.0205210038,0.0167004708,0.027107155,0.0165778473,-0.0307347104,-0.00142006634,-0.0217990223,0.00409861933,-0.0226434935,-0.00321874022,0.0564614721,-0.00940984115,0.0204436611,-0.0392098948,-0.0235463884,0.00458922889,-0.00594579335,0.0145074893,-0.000257423992,0.0264120456,-0.0295046475,0.0361645631,-0.028573839,-0.0061181807,0.0104247639,0.0410752222,0.0218683053,0.00279344199,0.011995866,0.0408723727,-0.00363341742,-0.0101513546,-0.0269804597,-0.00894469768,-0.0187193099,0.0365577489,0.0100782868,-0.00326803466,0.0400080942,-0.0201095007,0.0240679495,0.0170356464,0.0314568691,-0.00794578064,0.028630903,-0.00463643996,0.000274506107,-0.00977241993,-0.0149515169,0.0312619247,-0.0143811814,-0.0212161839,0.0430934317,-0.0198915396,-0.0365600288,0.0342849456,0.00106042495,0.00243281503,0.0109613733,0.0345082246,-0.0156806745,-0.0130674392,-0.0305396784,0.0408617668,-0.00748142041,0.0217346791,-0.0309958234,0.0181073099,-0.0274314135,-0.0223846138,-0.00198724796,-0.0114098163,0.0227689911,0.00216648099,-0.0341290645,-0.00481153047,-0.0335513689,0.00279619335,0.00847430993,0.0108934082,0.0328529328,-0.00788803026,-0.00347384205,-0.0102490308,-0.0212528724,-0.024949478,-0.0101614986,0.00186432106,0.0144967912,0.00707048178,-0.0435174704,-0.00165944023,0.0202369597,0.0111503312,-0.0326201431,-0.00901750475,-0.005362086,0.000971246394,-0.0209954716,-0.00826676283,0.00209213188,0.0076257633,-0.0218090862,0.0123864515,-0.0251835585,0.00909065641,-3.32308118e-05,-0.00498265121,0.0247163363,-0.0122623676,-0.0127041079,0.011852772,0.0347599983,-0.00281051779,-0.00264643691,-0.0199615937,-0.00537300389,-0.0133717414,-0.0243292563,-0.0076705208,-0.00825177971,-0.0115713729,-0.028481476,-0.0151630472,-0.0264946893,0.000187119571,-0.0331668854,0.0149770956,-0.0308214203,-7.08122752e-05,-0.00471257558,-0.00787568837,-0.0364836119,-0.0496769845,0.0272048581,-0.000986273168,-0.012962359,-0.00579818897,0.00703649968,0.00074947637,-0.0206275657,0.0171446372,-0.026815569,0.0249859113,-0.00355472206,-0.000149337779,-0.0264579952,0.000773307052,0.027873937,0.0294979736,-0.00594536727,-0.00493451906,0.0180932656,0.0332678221,0.0256642457,0.0113586411,0.0295459721,-0.0307641588,0.016841922,-0.0479811281,-0.0163421631,0.0235056188,-0.0154211475,-0.0178647935,0.000701126468,0.0111694001,0.00905876048,-0.000140832504,0.0209625643,-0.0357408151,0.0188748073,-0.0425982401,0.0319245979,0.000906654284,0.021961974,-0.0301335417,0.00698672421,0.0417687036,-0.00868521538,0.00862594787,-0.0206898395,-0.00943875313,-0.00952752866,0.0245206114,-0.00557330111,0.0242659654,-0.0181579161,0.00307568605,0.0203996114,0.0087078521,0.0445472077,-0.00875792932,0.00862341747,-0.0196600668,-0.0204301253,0.00313340686,-0.000654860516,0.0169972572,0.00756519521,0.0194021873,-0.00342457765,0.00667579938,-0.00138212205,0.0326254405,0.0270204805,0.0185701754,-0.00274006207,0.0100978017,0.00727489591,0.00276686926,0.0062397779,0.0123798316,0.0420408733,-0.0115326345,-0.0337065198,0.00441840896,-0.00406481093,0.0259482786,-0.0112043079,0.00104683987,-0.0255006477,0.00509578595,-0.00462880172,-0.00613292307,0.0189977493,0.0196935833,-0.0285026394,0.0182161611,-0.0147481048,0.0127562927,0.0127722202,0.0226344392,-0.00972677488,-0.0260179713,-0.0195834506,-0.0274676513,-0.0156167503,-0.0209674705,0.0369007997,-0.0140145458,0.00519637531,-0.0219500493,0.0170976557,0.00400163047,-0.00899682287,-0.00949181803,-0.00400718162,-0.0200473443,0.00332683371,0.0249237157,-0.00915241241,-0.0212440416,0.00704548461,-0.000984906801,0.0337916948,0.0526451468,0.00765556563,-0.00477569224,-0.0167090502,-0.00111967127,-0.00908315927,0.00485863676,0.00260073203,0.0203456115,0.00865362771,-0.00483668083,-0.0229625441,0.015311542,0.0311526749,0.0219529439,0.020961659,-0.00403149705,-0.0409283862,-0.00526882522,-0.00660698861,-0.0386820957,0.00455054641,-0.0137077887,0.019050464,-0.0299011823,-0.0175130051,-0.00755436625,0.0293360092,-0.0282702781,0.00281446893,-0.0174269807};
static const float W1[] = {0.00397950737,0.0535059832,-0.0201185681,-0.000128441476,-0.0206356905,-0.0130967423,-0.00440001534,-0.0150634944,-0.0130475499,-0.0328254253,-0.0305427499,0.011912642,0.0128491931,0.00555444742,0.00495092664,0.0174560472,0.0155418608,0.0107265329,0.0189907067,-0.0335396752,-0.0377876684,0.00687065534,-0.0131206084,0.00582105573,0.0214373488,-0.0125677288,-0.0198593177,-0.0109415306,0.0101198088,-0.00706713879,-0.0198496226,0.0227721203,-0.0114483275,-0.0347146019,-0.0110947359,0.034115117,-0.0251203906,-0.021343099,0.0363116302,0.0108095529,-0.00910260994,-0.0166874267,0.0151614891,-0.0121397125,0.00441707857,-0.0281226635,-0.00567065412,0.0130884415,-0.049743142,0.0151665024,-0.00415133266,-0.00867540482,0.000187317404,0.00479165558,0.0212403405,0.0155598288,0.00369854178,-0.0315592885,0.0190634765,0.0115828598,-0.00782638043,0.00639220979,-0.012701367,-0.0118082594,0.0230240561,-0.0277389754,-0.048090253,0.0601617843,0.0392859355,-0.0226431619,-0.00343325362,0.0215273928,-0.0350727923,0.0282907784,-0.0165014789,-0.00144729833,0.00428093458,0.000343296881,0.00784255378,0.0163024087,-0.0442204848,-0.0143163987,0.0138020413,0.0108719831,0.0125688575,-0.002409779,-0.0123491297,0.0266252104,0.0122767072,0.00880378112,0.0276199244,-0.0147229368,-0.0169246439,0.00198059296,-0.00853753276,-0.0253724046,-0.00235181884,-0.0200212598,0.00772090489,-0.000179874318,0.0217856243,-0.00454325741,-0.00553676812,-0.0244390741,-0.0136277908,0.0226121284,0.00368147809,-0.0128668463,0.0190088954,0.0336356685,-0.0207883976,-0.00731231971,-0.000152195164,0.0444412269,0.0103784436,-0.0137274619,0.0125923967,0.044980634,0.0174657274,0.0036961236,0.0302955285,0.0281961076,0.0188700259,0.0554750673,0.00180126249,0.000620614563,0.0039554215,-0.0343201943,-0.0077432231,0.00720553985,0.0510347821,-0.00676402869,0.01011011,-0.00683778757,0.00162411178,0.033636976,0.0214090254,-0.0118901152,0.0189982802,0.030489115,0.015145625,0.0294359699,-0.0134019768,-0.00312152645,0.00830004457,0.005272354,-0.0194997974,-0.00592878554,-0.0023385766,-0.00520651462,-0.00089201529,0.00645447057,0.0500760637,-0.036877539,-0.0119673833,-0.00264784275,-0.0132826706,-0.0292894207,0.00484510791,-0.0138978343,0.0106763458,0.00447226781,-0.0263938401,0.0198110305,-0.00778228138,-0.0197331533,-0.00542178238,-0.0138464822,-0.0128651746,-0.0311596412,0.00996041298,0.00831609685,0.0429168455,0.00867382437,0.00989920553,-0.0131277191,-0.0111419084,-0.0227548834,0.0280738175,0.0510136671,-0.0141300866,0.00679861987,-0.0175341703,0.0125958379,-0.0118662119,0.00277337595,-0.0516430996,0.00808742084,0.00479474245,-0.0118125714,-0.00375390402,-0.0249488018,-0.0134841306,-0.025301883,-0.0131946523,-0.00988617167,-0.0274726581,-0.00337625993,0.00500053493,0.0176511295,-0.0142260473,-0.0241220593,-0.0163076501,-0.0385937691,-0.027237637,0.00115774001,-0.00567058194,0.0298831835,0.00745849777,3.42382336e-05,0.00328719569,0.0153722046,-0.0269846022,-0.00658645667,0.0212276168,0.00562091684,-0.0111779496,0.00827086624,-0.045588024,-0.0198830198,0.0155179519,-0.00276252115,-0.00594578683,0.0226580575,0.0106671322,-0.00875427574,-0.0301742423,0.0164800286,0.0101992823,0.0205341782,-0.0118475081,0.0257109068,-0.00408824859,-0.00959411543,0.00323854317,-0.00538344076,-0.011238398,0.00524132559,-0.0480694808,0.00696210144,-0.010572196,-0.018484503,0.0109770466,0.0312303156,0.000177345501,-0.0289838091,0.0100771375,0.0630357936,-0.0256375112,-0.0289538801,-0.0108060194,0.0230369419,-0.0110856742,-0.023674624,-0.0103331096,0.0195768774,-0.00604943046,-0.00538810715,-0.0125642177,-0.0150163937,0.0161380451,-0.022070216,-0.013431143,0.00909944624,0.0113546401,0.0266062412,0.0225841105,-0.00867096428,-0.00103489344,-0.0177083872,0.0251147114,-0.026080953,-0.0198478103,0.0121893249,-0.0185498241,-0.0184299592,0.00943338219,-0.00555821043,-0.00487879664,0.00859431922,0.0206815191,-0.0245788265,0.0639160424,0.0228125304,0.0296378173,0.0292080753,0.00434770435,-0.0139143905,-0.0377409123,0.00950687658,0.01409306,0.0208466258,0.00501226634,0.0127071459,-0.0235315692,-0.0136279101,0.0124594029,0.0228525419,0.00482776668,-0.0277576074,0.00584141258,-0.00627069641,0.038625598,0.0346521214,-0.00217713648,0.00641793478,-0.00783032365,-0.0317324437,-0.0104025751,-0.0123774726,-0.0293553919,-0.0146487802,0.00572611159,-0.0169715639,-0.0124058481,-0.0304609966,0.0140011394,-0.009636648,0.0378869101,0.0281934049,0.0273665898,0.00481302198,0.000643276086,0.0268243775,-0.00308609917,0.00227148877,-0.0395843387,-0.024061894,-0.016501788,0.0268262066,-0.000900502258,0.0123735601,-0.00220458396,-0.0216404218,-0.0235897843,-0.0219581891,0.000379693549,-0.0183700584,-0.00817420334,-0.017710628,0.00339111267,-0.00646541081,0.00585165387,0.0232126117,0.0447746217,0.0021142764,-0.00135874003,-0.0168986395,0.0308659896,0.034116488,-0.0315545686,0.00459807133,0.0141930925,-0.0105220266,0.018052306,-0.00236836611,0.0119728036,-0.0111283287,0.023678489,0.0126635451,0.00677007064,0.0265472215,0.0134525942,0.016121272,-0.0193418879,-0.0166345332,0.000755313609,0.00482096383,0.0332388617,-0.0129701812,-0.000894432771,-0.0113410922,0.0157491546,0.0163281858,0.0237099975,0.0150901126,0.0246061552,0.0219176933,-0.00137370976,-0.0249277726,-0.00103832013,-0.0109076723,0.021399159,0.00218262547,0.00472111162,0.00631157216,-0.000280856591,0.00191297918,-0.00174644182,-0.00462274812,-0.0220446549,-0.0032030805,0.000960124657,0.0228780191,-0.0142723108,0.0296077244,-0.0071812789,0.00723646814,-0.00308761559,0.00740032364,0.0259053782,-0.0267312955,0.0306931045,0.00803033914,-0.00189494889,-0.00223509595,-0.0196239352,-0.017631622,0.0297059622,-0.0103650354,-0.0110035297,-0.0168222785,-0.000437647657,0.0172998589,-0.0187924709,-0.0340153314,-0.0193102416,0.000111621055,0.0138805658,0.00617369032,-0.018316241,-0.0119550778,0.00176454033,0.00169552024,-0.0137560861,-0.0165507309,0.0109460251,0.0306301899,0.031723164,0.00665013166,0.0213661864,-0.0171709117,0.0151810609,0.0077928626,-0.00434535975,-0.0100576933,0.0234216396,-0.0156192789,-0.00957447849,-0.0259381663,-0.00990355294,0.00390622788,0.00808017887,-0.0259202737,-0.02087765,-0.0338964872,0.0388297327,-0.0149589013,-0.00100368529,-0.0152190588,-0.016014643,0.00181211019,0.0182122961,-0.00260343868,0.00122882496,-0.0173519813,0.0156171648,-0.00473844586,0.00738387136,-0.0121398196,-0.00959048048,0.00928480551,-0.000691243564,0.0294487663,-0.00818365999,-0.0198938251,-0.00427887589,-0.00181424792,0.0334900171,0.00755158998,-0.0155500639,-0.022958748,-0.0116134565,0.00193495385,0.00767986989,0.0146367261,0.0300104488,0.00428008568,-0.00607729377,0.00527126016,0.00836156216,-0.00718726683,0.0208946131,-0.0303009171,-0.0534266606,0.00454668794,0.0279775038,-0.0150058866,-0.0201212466,0.0127110975,0.0357815251,0.0191447586,0.00336889923,0.0278807916,0.0119431671,0.0196044799,-0.0109110456,0.00914936885,-0.0140881343,0.0130652888,0.00717193633,0.0107793463,0.0165579841,0.00586857321,-0.00540898368,-0.0159926359,-0.00114948465,0.00619627954,0.0304650497,0.0027391084,0.0127644632,-0.01040491,-0.0247577894,0.0562120825,0.02377869,-0.0103992308,0.00599392271,-0.0108082714,0.0386503451,-0.00260872021,-0.00145799993,-0.00744759059,0.0175225139,-0.00286097103,-0.009564735,0.0162423458,-0.0149701126,0.00966935512,-0.0107612014,-0.00576911727,0.0331687033,-0.00546626933,-0.00200515776,-0.00226570643,0.0409510024,-0.0142157869,0.0516260602,0.00536892517,-0.0111236013,0.0270397235,0.0217798036,0.0081016561,-0.00418835087,-0.00819242001,-0.0166626312,-0.0230617374,-0.00408843905,-0.010056721,0.0292398948,0.00603915611,-0.0301593505,0.0173505209,0.00998825021,-0.000790300081,0.00404137187,0.0100648552,-0.00635762513,0.0247153565,0.0265825763,-0.00316808722,-0.0414733812,-0.0269751623,-0.00253438996,-0.0292080678,-0.00222441508,-0.0236410014,0.0236372016,0.00501767686,0.0270780399,0.0342326574,0.00754738739,0.0124742193,-0.0226834659,-0.00328599708,-0.0265691616,0.00684132008,-0.0115952445,0.00246873265,-0.0226133056,0.0214455798,-0.0143474862,0.03054386,0.036895562,-0.014986285,0.00723757595,0.00667067524,0.00364534161,0.00911123678,0.028837461,0.0169964526,0.0133747682,-0.0313708298,0.0295540877,-0.0016239814,0.00723954896,-0.0239172056,0.00809875783,-0.013207335,-0.00568582863,0.0199540798,0.0089649763,0.00491937902,-0.004034115,-0.0327863246,0.0163389221,0.0139047783,-0.0172344483,-0.0170604698,-0.017958276,-0.0255024452,-0.00609811489,0.00145948748,0.0157283768,-0.0200791825,-0.00424026232,-0.0268102325,0.0262753367,-0.00822160393,0.00409348961,-0.00817800779,-0.0455441065,-0.052106645,-0.0123189399,-0.0121261273,0.00603338052,-0.0299842861,-0.0291588251,-0.00369113823,-0.0258653965,-0.0196370855,-0.00158297271,-0.0181145575,-0.0190327279,-0.044109609,-0.0182496514,0.0142690931,0.00579717569,0.0144139705,0.0109544918,-0.017212186,0.00160005863,0.0168427955,-0.00239977404,-0.0212681852,-0.0326597653,0.0104892915,0.00697553903,0.0263384953,-0.0151277483,0.00870811287,0.0118969912,0.000791227329,0.0333055146,0.000352991221,0.00826200098,0.000273800368,0.0116327796,0.00650592148,-0.0348999277,-0.0141311344,0.00594569184,-0.0271881856,0.0159954615,-0.00907065812,-0.0438754968,0.0117046749,0.0119727524,0.00130409061,0.0083115641,0.00793755613,0.021787066,-0.0337687992,0.0136451237,0.0210611429,0.00881704502,-0.0388263501,-0.00266703148,-0.0326975584,0.0100307167,-0.00185845688,0.0357734598,0.00727515761,-0.019888239,0.0350799672,-0.0109023089,-0.00630621705,0.00470613455,0.0113363797,0.00747626927,-0.0165153593,0.00154650491,-0.00417244388,-0.0329913385,-0.000769046077,0.00539434049,0.0522329547,0.0215817932,-0.0164137986,0.0199309699,-0.0093555171,-0.0232664272,0.00647050422,-0.0159384385,-0.016117109,-0.0558246113,0.024811659,0.0101090111,-0.030142054,-0.0167099535,0.00728992978,-0.0319560431,0.00760078942,0.0186562799,0.011297279,0.0257266108,-0.00353545835,-0.00327092432,0.00625730539,0.00932744145,0.012283463,-0.0599405803,0.00513620581,0.0273537803,-0.0205804482,-0.00475759152,0.00981726404,-0.00215274375,-0.0112787914,-0.010104686,-0.0286680255,-0.0130034061,-0.0191541053,-0.00458793389,0.00296504726,0.0199925788,0.0188810136,-0.012127093,-0.00898252986,-0.0101724276,0.00799181499,0.00326111447,0.00908836816,0.0164913349,0.00198837044,-0.00891183596,-0.0016096161,0.00424582371,0.0232174918,0.00989935361,-0.00719510671,-0.0072179269,-0.0124165006,0.0158581585,0.0298694335,-0.0105323847,0.0306681134,-0.0111489147,-0.0295800138,0.0122078788,-0.0156769007,-0.0078824684,-0.0026361444,-0.00873764418,0.0236379206,-0.00230280915,-0.00905584451,-0.0102641685,-0.00319843763,0.0298245046,0.00566866156,0.0162981711,-0.0102016646,-0.0172910672,0.0133910906,0.00060378667,0.0224609133,0.0215623062,0.0243942272,0.00638746982,-0.0248018838,-0.00106756575,0.012873143,-0.0192113947,0.0132411225,-0.000804830925,-0.0161736812,0.0188830905,0.0101830978,-0.000974185474,0.0133777261,0.0228314642,0.00264542643,0.00895372406,0.0035490375,0.0270595215,0.025991274,-0.0109149199,0.00953103229,-0.00411090627,-0.00798994955,-0.0164715312,0.0117730862,0.0361650139,0.0159098096,-0.0125502786,0.00565364165,0.0259491969,-0.0179603472,-0.000349748239,-0.00010167445,0.0153043764,-0.0108383521,0.0127098672,0.016641438,-0.0246161576,0.0442982465,-0.000562321395,0.0430515409,0.0132483384,-0.0108605428,0.0304877274,-0.00520447921,0.0133163985,-0.0194873456,-0.0204599239,-0.0267369244,0.010188886,-0.0255460441,0.0112465145,-0.00216597621,0.0247479193,-0.0176392496,0.00217064633,0.0117990309,-0.00558165601,0.0193289928,-0.0209926795,-0.0149997305,0.00827372447,0.00718142418,-0.0269255769,0.018506432,-0.000781442039,0.0316452645,-0.029780332,-0.000266970077,-0.00765704084,-0.00613314193,-0.0156561695,-0.0149496542,-0.0109316893,0.0330723114,0.00494883955,-0.00419886829,0.039132636,-0.000451004948,-0.00268721255,0.0173090044,-0.0171523765,0.0383488759,-0.0183071494,0.0321850106,0.0627399534,-0.0244440865,0.009759726,0.0224938747,-0.0280377697,-0.000445042271,0.00841575582,-0.0152176926,-0.00921635702,-0.0052372776,-0.00736213708,-0.0257451162,-0.00519943703,-0.0224242639,-0.00159237499,-0.013044551,-0.00868652388,-0.030325884,-0.0165286362,0.0341626741,0.00165022654,0.0102185886,0.0150237354,-0.00303526851,-0.00932073221,-0.00567959435,-0.00623167725,-0.00114710198,0.011168927,0.00195000728,0.0118742408,0.00910851546,-0.0169667304,0.00599181699,0.0138516212,0.0105954176,0.000875150145,0.0154142473,-0.0136865331,0.00856635906,-0.0272455849,-0.00780653441,-0.035727527,-0.00690436643,-0.02863927,-0.0102038011,-0.00250558462,0.000921538449,0.0315114334,0.010426363,-0.0142126894,0.0065526627,-0.0140844211,-0.0145959305,-0.00555164274,-0.0315774009,-0.0280340053,0.0467809364,0.0305388905,-0.027830299,0.00485694595,0.00965642184,-0.0331464224,0.0264334809,0.0370747,-0.00313036051,0.0169389192,-0.00410287594,0.0352527574,0.00152963994,0.0242927112,0.00617860071,-0.0131512647,0.00602852227,0.0341925025,0.0249403585,0.00823699869,0.0377945527,0.0226939917,-0.0280751083,0.000304494024,0.0304130241,0.0374821499,-0.0263066161,0.0207980797,0.0310790706,-0.0189217348,0.0316667631,-0.00389013486,0.031799335,0.00505550066,0.0132222408,0.0275619049,-0.0289927628,-0.0349455699,-0.00133219652,0.0240803901,-0.0226193331,-1.60189447e-05,0.00665467,-0.00821051747,-0.00945014507,0.0106905885,0.0213597361,-0.0178620834,0.0335202701,-0.0333109871,-0.0206912067,0.00266980194,0.0350160934,-0.00659276452,-0.00322228996,0.0227374025,-0.019185828,-0.0296033155,-0.00650250586,0.0293269083,-0.0343972258,0.00768900057,0.00159230875,-0.00720387092,0.0091602765,-0.0304005742,-0.0122799408,-0.0120946486,-0.0321740061,-0.00259275199,-0.0235866979,-0.00110414939,0.00365499873,0.0185947251,-0.00559372362,0.0247703549,0.0197763797,-0.0264677275,0.0182478968,-0.00191003853,-0.000600074476,0.01723364,-0.0069349031,-0.00827352516,-0.0219199993,0.0376689918,0.0586310551,-0.0392254516,0.00211363146,-0.0376248807,0.019673232,0.0518847257,-0.00233827531,0.0138179203,0.0110355746,0.0217653345,0.00839444902,-0.0170308538,0.0116283493,-0.0210127737,0.00783440284,-0.0072417669,0.0171079766,0.0185936186,-0.00689102756,-0.0247855969,0.0262152571,0.00773617672,0.0503003858,0.0358684696,0.00808295514,0.00446372246,-0.00701594166,-0.000780680042,0.00574921072,0.0156895407,0.0158814657,0.0226050373,0.0259338524,0.0168415345,0.0301124249,-0.00675541162,0.0304590482,0.0157307256,0.00455026608,-0.00614987081,-0.0382348523,0.0110527044,-0.0156400055,0.00178947684,-0.00159763172,-0.0177069772,-0.0204358809,-0.00548371579,-0.00303169573,-0.00946134422,-0.009878451,-0.0378062911,0.0380146354,0.00930965692,0.0112093138,-0.03553259,0.000733072171,0.0158716682,-0.0140275927,0.004497163,0.0122200521,-0.00248315395,0.0383899659,-0.00725438865,0.0362397246,-0.0330313332,0.0363581739,-0.0228863955,-0.0122719705,-0.00197596988,0.0150868846,0.018456487,-0.0489358902,-0.024572501,-0.00536789605,-0.013356681,-0.0255609676,-0.00239872397,-0.0244186465,0.00179715152,0.000568201882,0.00705434242,-0.00712521141,0.0276367925,-0.00643167086,0.0171404164,0.00324730203,0.0209854264,0.0180406906,0.0136693297,0.0196335092,-0.00459480053,0.0194227342,0.0022796928,0.00102891284,-0.0283023845,0.00356043573,-0.00253876764,0.00105056108,0.00578531902,0.0175773948,0.00643958198,0.0291629992,-0.0140279941,0.0371970721,0.0112829925,-0.0149151096,0.0241262745,0.046136491,-0.00120817358,0.0367842838,-0.0605724975,0.0182624105,-0.0155062191,0.00973836798,-0.0313983895,0.0109015927,0.0092530651,-0.0138101233,0.00865228567,-0.00854859129,0.0264429301,-0.023681866,-0.0293663684,-0.00641925447,0.00486656884,0.0123298913,0.0117468573,-0.0108700646,-0.0123083303,-0.00212854659,0.00563351577,-0.00435218401,-0.0241863169,-0.0107478602,-0.0127734691,0.0163324252,0.0168519281,0.0495718755,-0.00795097835,-0.0283686556,0.0151298232,-0.0125712352,-0.00695488974,0.00169440417,-0.0210902207,-0.00554517657,-0.0429149382,-0.0215474702,-0.0190082733,-0.00814135,-0.0251719709,-0.0124757225,0.029305812,-0.0245065521,-0.0260302424,-0.0148408161,-0.000560965738,0.00499921385,0.006672021,-0.0164383929,0.0111240763,0.0102388263,0.00966272689,-0.0205120519,0.036661204,-0.0149942013,-0.0132437628,-0.0249947514,0.0202366021,-0.000750893843,0.00444564875,0.00354135176,-0.0198370758,0.0187839381,0.00887953583,0.0411621928,-0.0163189303,0.00416725967,-0.014993744,-0.00320741045,-0.00347431563,-0.0300759599,0.0141179617,0.0152917318,0.0390885584,0.00560880126,-0.00654929271,0.0165618788,0.0275053643,0.0166234951,0.00512642693,0.0166730788,-0.00965394638,0.00179528189,-0.00823671464,-0.0162295084,-0.00570295611,0.00924250297,0.0188124944,-0.010324588,-0.0281673763,0.0234117266,0.00784465298,0.0103605986,-0.00330202631,-0.0180555098,0.0190231744,-0.00964465644,-0.0326215513,-0.0310101025,-0.0110840769,0.0073808739,0.0194051825,-0.00613946188,0.00855729822,-0.0130808791,0.0220182668,-0.0192530416,0.00507258391,-0.00206710072,-0.0178814214,-0.00595365884,0.00684151379,-0.00525157806,-0.00158191787,0.0296720043,-0.0150521891,0.00754844723,-0.0391283445,-0.00674386136,0.021427786,0.0059584775,0.0347244702,-0.0176080801,0.0065622502,0.0240172669,0.00544576021,-0.00833940413,0.0208788682,0.00702973967,0.0281248111,0.0104763722,0.0213138144,0.0118901413,-0.00779273733,0.00966219697,0.0170533843,0.00466268416,0.00810125843,0.000629914517,0.0287505593,-0.0249829479,0.0194700193,-0.0143154785,0.000699862838,0.0387810543,-0.00937035214,-0.0115396138,0.0141550284,-0.022921104,0.00455944007,0.0190023482,0.0100837415,-0.0356513001,-0.0354701988,0.0285903253,0.0254723597,0.00300312694,-0.0345047079,0.011794297,-0.0112122595,-0.0274422765,0.00381554943,0.0248686094,0.00651473692,-0.0115613835,0.0112615656,0.0248947162,-0.0335435085,0.00232917396,-0.022885818,-0.022713894,0.008749987,-0.0233731382,0.0269963108,-0.031499289,0.0103071155,-0.0255788136,0.0145591516,-0.0218386445,-0.0153239099,0.00204943726,0.00206822786,-0.0304077491,-0.0293278042,-0.00234042946,-0.00434040371,-0.0278800502,-0.0275207292,-0.015861867,-0.00279502943,-0.00669076899,-0.0311099552,-0.010327314,-0.00386988441,-0.0303388499,-0.0286391936,-0.0181806926,0.0118363593,0.00306760566,-0.0297136251,0.0125636049,0.0544537194,-0.043853797,0.00676254975,0.01219601,0.0113544948,-0.0272199456,0.0119970748,0.00151012256,-0.026197521,0.0265806746,0.00504984288,-0.0120621463,-0.00401235698,-0.0165065918,-0.00608062558,-0.000443194149,-0.0268381629,0.0111911418,-0.00592017174,-0.00095134991,-0.0154380016,-0.0192521531,-0.00441964762,0.0109905237,-0.0268234946,-0.0111518865,0.0128871156,0.0264723096,-0.00769277895,0.0116962921,-0.00275728432,0.00989434775,0.0346004628,0.0172224417,-0.0207049623,-0.0290490557,0.00317780767,0.00151222816,-0.0271097925,-0.0146182962,-0.00871616881,0.00164998008,-0.0100715524,0.0307957474,0.00734711671,-0.00805550721,0.014727273,-0.0071630762,-0.02468035,-0.0107558453,-0.00139482284,-0.00944861304,0.0238356497,-0.00134704704,-0.0101574082,-0.000370558671,0.0155909741,0.0264422912,0.0181545913,0.0272216424,-0.0132571934,-0.0121154543,0.0389057025,0.039398849,0.00750099961,0.0346717425,-0.00347505533,-0.0406206548,0.0446370542,0.0124554355,-0.0174558964,0.00311514013,-0.0128379874,0.00771806575,0.00623794831,0.00659879297,0.00995895267,-0.0276062395,0.0195685253,-0.00200777641,0.0133563923,0.0206592847,0.0191633776,-0.00408902206,0.00872850046,-0.0261283685,-0.00612682849,0.0307018496,0.00224546716,-0.00487327436,0.0390768014,-0.00978745427,-0.0525485426,-0.0260255709,-0.0012647938,-0.0306599364,0.0114329206,0.00483609084,-0.0160834268,-0.00294698472,-0.000176820278,-0.000255830295,-0.0398933105,-0.0291630588,-0.0455997773,-0.0161248129,-0.00361221842,-0.0184484757,0.0124768354,0.03747328,-0.00196893932,-0.0204247851,-0.0160610601,0.0150948605,-0.0102809193,0.00616454985,-0.00363645819,0.0185943637,0.00567397475,-0.00776287913,0.0197058115,-0.00433689728,0.0142799877,-0.00765489507,0.00363568217,0.0181772504,-0.0175761748,-0.0147742741,-0.0139713809,0.00161475933,0.00954509526,0.0065810252,-0.00421277713,0.0208621062,0.0205395631,0.0389877185,0.0203167703,0.0103989374,0.0167121775,0.00100238807,0.00817214325,0.00857453048,-0.00500911335,0.0324716866,-0.0251310822,-0.0413767919,0.00519237667,-0.0071950322,-0.00600012345,-0.011101489,0.0241291318,0.0140857156,-0.00969385263,0.00206203549,0.00418742467,0.0341980457,0.0132413181,0.0306601692,-0.0110036526,0.00131541444,0.000615924713,0.0196981858,-0.00366157014,-0.0124913966,0.00157976267,0.0294844694,-0.0116983373,0.00554638496,0.0300491191,0.00327283889,-0.0175404716,-0.00299773109,-0.0211036503,0.00473665493,0.0205070898,-0.00892395712,-0.0138808889,0.0158245675,0.0206544399,0.027237393,-0.0325224623,-0.0152989877,0.00712296227,-0.00813387241,0.0239269156,-0.0166499168,0.0382216386,-0.0242600013,0.0332317688,-0.0222993772,-0.000238998531,0.0179237649,0.0107722301,-0.0201688092,0.00592402881,-0.0101069463,-0.00459702918,-0.0124380691,0.0382927656,0.00399581157,-0.000436513365,0.027780449,0.0106082996,-0.0164098591,-0.0444644913,0.0233608168,0.0208257027,-0.0256788768,0.0053149513,0.00039168747,0.0105708465,0.0192512777,-0.00201008259,-0.01880976,-0.00402583275,-0.00316580804,-0.0212448165,0.0166060627,0.0222827736,0.0210811663,0.00970195234,-0.00432252139,-0.0177286435,-0.0160865597,0.00533168344,0.0133519024,-0.00580844795,0.0265667401,0.00843859185,-0.0155906258,-0.00364826969,0.0374542885,-0.0299260877,-0.00262922584,0.047608804,0.0260114297,0.0192266833,0.00427732896,0.0219939053,-0.0223543327,0.000830238045,-0.0144026326,-0.0433954559,-0.000720497221,-0.00938533992,0.00648691645,-0.00355458795,0.00509750471,-0.0382523648,-0.0110185575,0.00255271629,-0.0032531207,-0.00509897759,0.011957583,-0.00104920252,0.015408135,0.00582146132,0.0138438176,0.00523258746,0.0112789124,-0.00463886699,0.0136624668,0.0145301744,-0.0419801027,0.0441949964,-0.0204332303,-0.00996433012,0.0121044852,-0.0107005714,-0.0326703452,0.00191123318,0.0208198689,-0.020030532,-0.023501195,0.00395806879,0.0107856365,-0.0211670436,0.0221033469,0.00291539449,-0.0010916855,0.00658633141,-0.00491668843,-0.00228652894,0.00133316917,0.0137154199,-0.00716192368,-0.0146642132,-0.000706254388,0.0161655191,-0.0156736784,0.0276415348,0.000903627253,0.0077592656,0.00182112574,0.00288667879,0.0273357332,0.00628471561,0.0164114013,-0.00331768184,0.013898734,-0.0286668576,-0.00525043532,0.0111039802,-0.00454265391,-0.0136310793,-0.00328271859,-0.0206655376,0.0110492501,0.0270826407,-0.0174774174,-0.000514910033,0.00399489468,-0.0224039089,-0.0174786095,-0.00649865856,-0.0266074389,0.0284979865,0.00418923702,-0.0299800579,0.00436049933,-0.000561773719,-0.0416623279,0.0146202073,-0.0209440831,0.0262691882,-0.0103078242,0.0160041731,-0.0169023145,0.0211910717,-0.0108503373,-0.0129461512,0.00234895526,-0.00452710269,0.0154672433,-0.0166315492,-0.0255503505,0.0207870807,-0.00840025861,-0.0187287405,0.0189022347,-0.0279555321,0.00838263892,0.0259252116,0.0011557471,-0.00662786933,-0.0134810703,0.0291789509,0.00330779213,-0.0218717027,0.00878157094,-0.0158668403,-0.0214783382,0.0189266168,0.00331464736,0.0319856144,0.002624674,-0.00553164771,0.0270338822,0.0170479584,0.00417326437,-0.0114902891,0.0211113226,-0.0161881223,-0.00958649255,0.00298797293,-0.00390062714,0.0157368742,-0.0035977785,-0.0539424941,0.0270149726,0.00715404004,0.0231477041,0.0304996464,-0.0121482266,0.0101891421,-0.0207331032,0.017255947,-0.0074282228,-0.0099979993,0.00847607478,-0.00341099664,0.00689534005,0.00548382103,0.0225660112,-0.0219782703,-0.0261703953,-0.0223910771,0.0103250034,0.00791212451,-0.00369273918,-0.0270331893,0.00925776642,0.0572692677,0.0352050662,0.0171010755,-0.0260933489,0.0198689662,0.00328681129,0.00788533688,-0.00493207155,-0.00489641866,0.0165223125,0.0113334889,-0.011370738,-0.00612780778,0.00673839636,-0.00517993374,0.0146773569,-0.0217506737,-0.0100475056,-0.0135849034,0.00210145954,0.00990896672,-0.0208053421,0.0145927537,0.0132341469,0.0137648601,-0.0261085201,0.00748650869,-0.0255459137,-0.028417537,-0.026611235,0.0229483377,0.0206042174,-0.00105431245,-0.00637593959,-0.0176763851,0.0344785191,-0.00358272484,-0.0220061075,-0.0226697102,-0.032386601,0.0312311817,0.0373337455,-0.00373661448,-0.0213019215,-0.0318312794,0.00615545083,-0.00155353115,0.0231854562,0.0202857796,-0.0137409363,0.00150011433,-0.000988227897,0.00854518451,-0.000428440573,0.00866628345,0.0188248567,-0.00599520374,-0.0429430008,0.00888023991,0.0185689796,0.0101580303,0.00104210351,-0.018209083,0.000165959296,-0.000679257035,0.00109248422,0.0379335284,0.0137476241,0.00210074941,-0.00966737606,-0.0142232943,-0.0101943994,0.00875888392,0.0213008616,-0.0288386885,-0.0397144295,-0.00652392954,-0.0248053782,-0.0265038945,0.010356023,-0.0164009538,0.0359711386,0.0159362238,0.000610183692,-0.00985281728,-0.00394704286,-0.0238062739,-0.0353341363,0.00194163853,-0.0133990962,-0.0106126629,-0.0170351602,-0.00615582615,-0.0131141311,-0.00192747777,0.004429291,0.0173381846,0.0142123206,0.0226913299,-0.00594964949,0.00541565567,-0.0135809677,0.00952490047,-0.0304427538,0.0357175209,0.00444162963,0.0143164592,-0.0484916531,0.023716148,0.0442121811,-0.0155975716,0.0129565941,0.030019762,0.0185367763,0.00656033074,-0.00647145789,0.0174350459,-0.0101476675,-0.013835934,-0.00644195313,-0.0426579416,-0.0115441168,0.0210962966,-0.0131506873,-0.0144015439,-0.0429050252,0.00423258403,-0.00154610432,0.0132185575,-0.0354964733,0.0298749339,-0.0483643189,0.0121207172,-0.000279914966,-0.0113960784,-0.0325294957,-0.0370660089,0.00434002792,-0.00846399926,-0.00805537868,-0.0207933187,0.00908504985,0.0307521932,-0.0186509024,0.00340067083,-0.0418039635,-0.00677630166,-0.00148142572,0.0176160615,0.000843029469,-0.0251201149,-0.0125396485,-0.0289094467,0.00372205907,-0.0157851279,0.00897822808,0.0195174105,-0.00707519287,-4.62432399e-05,0.0151648829,-0.00463218847,-0.0368479155,0.0046596895,0.0183584318,-0.0127649754,-0.0320672728,0.0343541764,0.00743153179,0.00842228532,0.00603652187,-0.0056083384,-0.00598300202,0.0241423175,0.00916579086,0.00351033383,0.00256634131,-0.000806244905,0.022417644,-0.0283545274,0.045430921,-0.00446354365,-0.00838709809,-0.0318267085,0.0195648316,0.0261794366,-0.00762929674,0.0164024178,0.00277476548,-0.0136059411,-0.0128693581,-0.0129956566,-0.0200738329,0.0130435545,0.0287149586,0.00460638385,0.014633826,-0.0275205914,0.00209273282,0.00995171443,-0.00379826268,-0.0226667896,-0.0222811475,0.0178057458,-0.0113731967,-0.0109818541,-0.0452751257,0.00507069472,0.0295934118,-0.0120022893,0.0017818521,0.0170664955,0.00980100036,-0.0136603396,0.030209912,0.0067630969,-0.0129095493,0.0160021801,0.0148116872,-0.0271747448,-0.0118917627,0.0056881099,0.00200960203,0.0169302933,0.000398636475,0.0345146805,-0.00852053519,-0.00438918825,0.0369882472,0.0272425711,-0.018226644,-0.00899251923,-0.0127101028,-0.021564547,-0.00673881685,0.00206773402,0.00362474541,0.023886757,0.0193906631,-0.00942091271,-0.00304002641,-0.0491017438,0.0122178327,0.0147210071,0.0111036468,-0.0475061461,-0.0128494939,0.0141112525,0.0191334262,0.00755464612,0.0264150966,-0.0399616882,-0.0304107089,0.00667899475,-0.0158377979,-0.026602298,-0.0281162784,0.00629122835,0.0195486452,0.0190146901,0.032174468,-0.0216495469,0.00361558213,-0.0266402364,-0.00958581641,-0.00810282677,0.00933585595,0.0127327181,0.00959608145,-0.00557849696,0.0133255506,-0.00844194647,0.00719219958,-0.0180815626,0.00579334982,-0.0303099267,-0.015678551,-0.0164405946,-0.0058519328,-0.00138204673,0.00505717704,-0.0238189269,-0.00711370027,-0.00302064978,0.0156500582,0.0151760578,0.0163870994,0.0629960746,0.0230242796,0.00666893832,0.00769620994,-0.0164339803,-0.00525235571,-0.00672918605,-0.025679294,0.00945325103,-0.00431426475,0.0269652531,0.0240193624,0.0319628194,-0.0306141227,0.0190770328,0.0213228129,0.0217419956,0.02400917,0.00563184032,0.0346969143,0.0311127231,-0.0132916719,0.0156621188,0.0295215715,0.0125141125,0.0290394928,-0.00198580255,0.0317939296,0.00783486478,0.0157119241,0.00727978768,-0.0200926494,-0.0242332909,0.0226976275,0.00400223304,-0.0262202378,0.0125887226,-0.00437615113,-0.0196764339,-0.0121074244,-0.0212016739,0.00555720134,-0.0192787219,0.0213444922,-0.000637309218,-0.00559695251,-0.0269873366,0.0333597884,-0.0108942371,0.00209482643,0.0157564525,-0.0197344199,-0.00912007876,-0.00521739572,-0.00917142909,0.0217383876,0.0135083115,-0.00372215034,0.00952922646,-0.00930204708,9.34787095e-05,0.00269520865,0.011045495,0.00706111453,-0.00953336246,-0.00942127779,0.0145710502,0.0158186071,0.00370306754,-0.0429169871,-0.0218007099,0.0170868766,-0.0262613129,-0.0297708698,-0.0159897432,-0.00146628777,0.000857030333,-0.0221959446,0.0194431711,-0.0232842732,-0.0274004452,0.0102957506,-0.0107567357,-0.00945342612,0.0156795569,0.0427331962,0.00325040054,0.0295994468,-0.0080275489,-0.00148827583,-0.0219503883,0.0129123852,0.0149823157,-0.00899119955,0.0353356078,-0.0326618515,0.00380389974,-0.0193484835,-0.0331644863,0.0203894116,-0.0276957192,0.00891447067,-0.0165346432,0.010571871,-0.0126493657,-0.00446810247,0.036172919,0.00284323026,-0.0145362578,-0.00974040106,-0.00218260614,-0.0195101351,-0.0231104754,0.0122958208,0.00339511363,0.00870759971,0.0144374678,0.00412188796,-0.00798334554,-0.00564023247,0.0364614204,-0.0174843557,0.0153492671,-0.0132820792,0.00770835439,0.00999454595,0.0295409728,0.0013156971,-0.0025495044,-0.037122339,-0.0370334983,0.0123220133,0.00750763761,0.01617066,0.016401032,0.017506415,0.00195403164,0.0107585397,-0.0188247263,0.0110129304,-0.0120629687,0.0263811443,0.0391640365,0.0337665342,-0.00906046759,-0.0307932552,-0.0415032282,-0.0155052384,-0.0389513336,0.0242524855,0.0193092823,0.0181032233,-0.00239452883,-0.0171251409,0.0369029194,0.0204145331,0.0188131481,-0.0121120224,-0.0566955023,-0.00908028241,-0.00739571359,0.0178683084,0.0155147612,-0.00872084592,-0.0205941964,0.00895427074,-0.0237081759,-0.009844088,-0.0101932688,0.0182416551,-0.0418984517,0.00130650483,-0.0273015946,0.0388110578,0.0217071902,-0.00534904702,-0.0270025767,0.0305214878,0.0165757053,0.0116583463,-0.0167129226,-0.0113253305,0.0466184504,-0.0131970458,-0.0248669777,-0.00928177219,-0.0035510608,-0.00164428435,-0.00890300889,0.0212797951,-0.00847209897,0.0236141682,0.00199219584,0.0177533161,0.0318775922,0.00656049652,-0.00534958579,-0.0090802582,-0.0292587243,0.01727047,0.0416534618,-0.00208938611,0.00773648173,-0.00480751274,0.0190158896,0.00301769376,0.00347984326,0.0121215498,-0.0247496199,0.0019076569,-0.0161269195,0.0178054217,0.0105424225,-0.00920867175,-0.00566755841,0.0500480197,-0.0198647883,0.0105182827,0.00682906015,0.00117584784,-0.0398132131,-0.00917615835,0.00976619311,-0.00287813367,-0.0358466096,0.0129971942,-0.00256141275,-0.0103952251,0.0199208427,0.0126295527,0.011262415,0.0228367411,0.0110063786,-0.0393393673,0.0248101819,0.0122504728,-4.76769565e-05,-0.0113610746,-0.0153625673,0.000380744954,0.0163020045,0.00883294176,0.00788030587,0.0131551577,-0.042183008,0.00475568976,-0.00543580716,-0.014055483,-0.000355359545,0.0114956666,0.00399644859,0.0286791939,0.000388000626,-0.0297116004,-0.00106725702,-0.0082319146,-0.0406733491,-0.0079927342,0.0133329444,0.00757116731,-0.00752176018,0.0229666568,-0.00868763868,0.0254242867,0.0349950753,-5.07147379e-05,0.00347031001,-0.0264369808,-0.00256254198,-0.00904449355,-0.00828325097,-0.00505710766,-0.00182676292,-0.00356182572,0.0116262948,-0.0160694942,0.00720637012,-0.00127437199,0.0050663827,-0.0104135294,-0.0378503501,-0.0101078302,0.0178826433,0.00157521095,0.0101407887,0.00557884574,-0.0156417247,-0.0153723881,0.0272827707,-0.0271768589,0.00334249064,0.0178259332,-0.023825625,0.0406301096,-0.0171103831,0.00785448495,-0.0100001059,-0.0128539223,0.0490230843,-0.0173585322,-0.0419334769,0.025109699,-0.0129650338,0.00462974422,0.00900517311,-0.0110869175,0.0137937963,-0.00405481923,-0.0061807381,-0.00285755214,0.0208009779,-0.0125363637,0.046808593,-0.00015263696,0.0118513061,-0.00488040224,-0.0594917126,-0.0181969479,-0.00456434023,-0.0222811997,0.000345962064,-0.00277296989,-0.0200368613,0.0211556219,-0.0197361968,0.0295977779,0.0164608657,-0.000776770758,-0.0213898979,-0.00789295044,-0.0243656207,0.00183831539,-0.0263860896,-0.0107090175,0.0159071423,0.0289160386,-0.0397783741,0.00378538785,-0.00995750446,0.00325260335,0.0129072648,0.0264600292,-0.0314550623,-0.0337391049,-0.0612223819,-0.00943498686,0.0201416463,0.0131189488,-0.00276619964,0.0110384654,-0.00189138227,0.000478503236,7.96820968e-05,-0.0154456683,0.0331837535,0.00764665753,-0.00408924604,0.0425698087,0.0417953953,-0.0201655813,0.0107046599,-0.0562607273,-0.0273472462,-0.00308144954,-0.00830230769,-0.0116805714,0.0339088291,-0.0134474942,0.000186474761,-0.0129190451,-0.00693809194,0.0168290734,-0.0207308382,-0.0322333463,-0.0160167515,-0.0152717764,-0.026884431,-0.00662722671,-0.0213401429,0.00895491149,0.00908975862,-0.0145422714,0.0131621892,-0.00361470482,-0.011703847,0.00392790465,0.000431153603,-0.0214687698,-0.0129795633,0.0105469702,0.00884927437,-0.0404323861,0.00481628533,-0.0343102217,0.0120430626,0.0104914615,0.00100039633,-0.0238129459,-0.0010984143,-0.022650918,0.022107875,0.028273752,0.0154602183,-0.00948493835,-0.0248397943,0.0346001275,-0.020558523,0.0354528166,0.0188367609,0.012418136,-0.0099196732,-0.0112043079,-0.0105462139,0.0560615472,-0.0259988848,0.00643811328,0.016071314,0.0239603613,0.000839624379,0.00982067827,0.0216756798,-0.0124074006,-0.0129889427,-0.0228538159,0.0162870716,-0.00468317559,-0.0395906791,-0.0127970828,0.00532956747,0.0314742699,0.00436267676,-0.0569252186,0.0173736606,-0.00989290513,-0.00696005579,0.00553330174,0.0450106673,0.0373487957,-0.00230911374,0.00731906202,0.0262550451,-0.00656086626,-0.031587746,0.0129998988,0.0325486809,-0.000488366873,0.00527658872,0.00623821234,-0.00606335606,-0.00164121517,-0.0385383628,0.0406680517,-0.00287833367,0.0255188383,-0.0141525008,0.0186211634,-0.00730004115,-0.0105484789,-0.010505436,0.0440198258,-0.0178537518,-0.00975107215,-0.0211006943,0.0226965807,0.0134913027,-0.0104305865,-0.0384684727,-0.0222561713,0.0323807225,0.0156676676,-0.0264947768,-0.0156089915,-0.0141535811,-0.01427266,0.0339175798,0.00434994558,0.0243980419,0.0104144514,0.013115786,-0.041743625,0.0613546632,0.00754945725,0.0210029185,0.00561581738,-0.0237042401,0.0127245318,0.0145331519,0.0386848152,0.0230192114,0.0116802296,0.0337668359,-0.00648771413,0.0269364119,-0.00898872502,-0.0121945664,-0.0192598887,-0.0172874499,-0.0112271281,-0.0206531025,-0.0422540456,-0.013142582,-0.00510916766,-0.011712525,-0.0262284484,0.00878731906,0.00700804032,0.00522833085,0.0080097001,0.00988828856,0.00280084554,-0.00479497528,0.027178105,-0.0341675617,0.0102035617,0.0486569665,0.0101908064,0.0100720944,-0.00964615587,-0.0239632837,-0.0317367092,-0.0161799863,0.0367277525,0.0106443977,-0.0366037637,-0.0277891122,-0.0262639802,-0.0243804958,-0.00731023541,-0.0157070141,0.00324875605,0.0250514932,-0.0179820322,0.0126223788,-0.0142861363,-0.00749231037,0.0151382955,0.0110122813,0.00777213182,-0.0107100494,-0.00653305743,0.0436377004,-0.0148237357,0.00748195592,-0.000796682318,-0.0347261131,-0.00275386893,-0.0026378145,0.0119352508,-0.00153384951,-0.00516956206,-0.0119992327,0.00996175222,-0.0152850384,0.0444691777,0.00881958194,-0.00233807345,-0.0252848659,-0.0175280925,0.0488683209,0.0255278796,-0.0125061143,-0.0026686131,0.0299785659,-0.00968770497,-0.0040298244,0.0111780381,-0.000124658443,-0.0165793858,0.00586452661,0.00927558262,-0.0357717946,-0.00340463128,-0.00233657914,0.0154804271,0.00360341393,-0.0092122471,0.0011193736,-0.00389048294,-0.0192876458,0.00242334418,0.00892752595,0.0169454757,-0.0486401245,0.0159961991,-0.0119024701,-0.0231012981,0.00857128203,0.0145060206,0.0140965302,-0.00144815561,0.00228331191,-0.0166206118,0.0234574247,0.00424221158,-0.0355725996,0.0765273049,-0.0298442245,0.015357527,0.00842820108,0.0146380924,-0.0139635392,0.0277200807,0.0121766934,-0.0175724588,-0.0302171633,0.0144796502,0.0146496445,0.0637259558,-0.0203865301,-0.0109578324,-0.0240920186,0.00349051971,0.0095974924,0.00897650514,-0.0257757306,-0.0137237208,0.0336420089,0.00266244635,-0.00103880872,0.00904718693,0.0117879398,-0.0226247646,0.0405929573,-0.00139279151,0.0303325411,0.0394945294,-0.0112373577,-0.0110084638,0.00476034917,0.0168280881,0.0219864864,-0.0422123857,-0.0507818907,-0.0085258102,0.0088222865,-0.0193340667,-0.0278259609,0.00529078161,0.0546699166,0.0118596861,0.0100051127,0.0122029157,-0.00550726382,0.0203414373,-0.0195373502,-0.0150520001,0.00986702833,-0.0163250603,0.0106494892,-0.0136249885,0.0115067791,0.0444753654,0.0113402372,-0.0308303442,0.0106259249,0.0028583135,-0.01381604,-0.00668282062,0.0219297539,-0.00599764474,0.0304730758,0.0152764423,-0.00810177624,-0.00861388072,-0.00386230252,-0.0216110684,-0.00279346365,0.00194730109,-0.0353657417,-0.011023595,-0.00263563218,0.0290419403,0.00689020613,0.0237023849,0.00977932103,0.034794338,0.0175118856,0.0267969668,0.00731029781,-0.0343394019,0.00126883562,0.0186808836,-0.0432829335,-0.0131710349,-0.0298924912,0.000545215735,-0.0179262441,0.0194765404,-0.0440852195,0.00246110652,-0.0383967757,-0.0149875218,0.00144264929,-0.0343527421,0.000849197735,-0.00767442351,-0.0097712893,0.0185284857,-0.0179916453,-0.0231059138,-0.0162640717,0.0109719262,-0.0104980143,0.00354869687,0.0264464729,-0.00593650807,0.0410993919,-0.0168159846,0.0112044793,0.0213794298,0.0204494353,-0.0349733606,-0.0205970164,-0.0169644486,0.0190929081,-9.60344405e-05,0.00333656115,0.0151046952,-0.0261133537,-0.00530819176,0.00436584419,-0.0227695052,0.0359597802,0.033388745,0.00461386237,-0.0180353485,-0.0260730349,-0.0271304958,-0.0301560201,0.0105887149,-0.0188281275,-0.0134438463,-0.0219363477,0.0324706547,-0.00642107427,-0.0280485023,-0.0389343053,-0.000156611059,0.0122823436,0.00336711644,-0.00768062612,0.00452161161,0.0210952703,0.027590327,-0.0295530129,0.0170204118,0.00376267522,0.0174360313,-0.0147560686,-0.00665365625,-0.00218370301,-0.0260501467,0.0378869586,0.02356801,-0.00124567759,0.0223785806,-0.00627667131,0.0137508139,0.0334741734,0.00667599123,0.0163409412,-0.00166578125,-0.0159643497,0.0123796649,-0.00734565733,-0.0143704331,-0.00832472369,0.0177922584,-0.0155711053,-0.0366633274,-0.00757075194,0.00382129778,0.037463285,0.017744882,0.000254404236,-0.00602316204,0.01520593,0.0161855817,0.0196271874,-0.0091919573,0.00860792305,-0.00686425203,-0.0190316495,-0.00923703332,0.0110174632,0.0105152037,-0.0152898943,0.0142231882,0.00046089894,-0.022325933,0.0117170988,0.00869407784,-0.0211572926,0.0119460775,-0.00930213369,0.0289241411,0.0408413224,0.0356985666,-0.00976192486,-0.00768025732,0.00991814863,0.00119292189,0.0275218058,0.0269072149,0.0244415794,-0.0109911691,-0.0294049066,0.00177058822,-0.00301720505,0.02938205,0.0106766364,0.0275760163,-0.000930188224,-0.0144381914,-0.00293659954,-0.0171263535,0.000302780012,0.0109600099,-0.0140421493,-0.00177902833,0.00315571902,-0.019760808,-0.0517501086,0.0192128625,-0.00726354402,-0.00809249002,0.0213245191,-0.0156129496,0.0159520693,0.0126299029,0.00246081385,-0.0169040263,-0.0091993846,-1.72178352e-05,0.00509195775,0.0222333688,0.00426272769,0.0203100611,0.00862476137,-0.0078931665,-0.0126317311,0.0186335444,0.0108326813,-0.00957074855,-0.0142458566,0.00895068608,0.0153852031,-0.00209453749,0.0424374342,0.00840726867,-0.0315078385,-0.0241483655,-0.0187406205,-0.0223738384,-0.0270527452,-0.00563233485,-0.0157580916,0.0139710652,-0.0352727622,-0.0325195715,-0.000117865529,0.0195451044,0.0101346243,0.0210184529,-0.0130114434,0.000676335359,-0.0227237791,-0.0113244373,0.0251794793,0.0156895388,0.00674913637,-0.039165251,-0.0344139189,0.0243978184,0.00888660271,-0.00857810397,-0.0234293863,-0.00770407356,-0.0218212176,-0.0405755118,-0.0390386283,-0.00123390986,0.0118447039,-0.013495923,-0.0173440017,-0.0381825306,0.00608477229,-0.00104145019,-0.0425789692,0.0151248602,-0.00887755584,0.0177143868,-0.00627554348,-0.0300661437,-0.0265947785,0.0155430958,0.0185699631,-0.0052247378,0.00875653978,-0.0104064224,0.0224811286,0.0155406278,0.00916927774,0.00209901505,-0.00436172355,-0.00750660663,-0.011821623,-0.0291500017,0.0198177211,-0.00329050748,0.0099266842,-0.00127818703,0.018423561,0.0321862102,0.0124651045,0.00485576782,-0.0081587946,-0.0229556952,0.00436850451,-0.0181080177,-0.0346251093,-0.0200110506,2.0078016e-05,0.00753716752,0.00179016707,0.0138007076,0.0173881426,-0.00394025957,0.0395784676,-0.00740921404,0.00115038163,0.0140813468,-0.00337027642,-0.0115197534,-0.0194358286,-0.0462700874,0.00473824888,0.0215524733,-0.0148291131,-0.0149808638,0.0212404598,-0.0154151814,-0.0224818848,-0.00306664407,-0.000670723035,-0.00472593214,-0.0546452813,-0.0252318047,0.00714440038,0.0197306387,-0.0186621193,-0.0311420839,-0.0138763739,0.0142638218,-0.0234721322,-0.00855708495,-0.0160040651,-0.0241858438,-0.0286463778,0.00700992206,0.00660347939,-0.00429717544,-0.0173305236,-0.0112882564,0.00755770551,0.0251515247,0.0183061343,0.0181756411,-0.0114744585,-0.00936611183,0.00806221738,-0.0118934559,0.00814736448,-0.0179292131,0.0207057167,0.00673450017,0.0427655317,0.00283466419,-0.0168424957,0.0225365702,0.0183462873,0.00103554514,-0.00651748991,-0.0246404186,0.00970251486,0.0284712426,-0.0171671212,0.0283882041,0.00809890032,0.00327189942,0.0222333781,-0.0167596582,0.0157884769,0.0170048513,0.0328611135,0.0273819063,0.010633151,0.0172567535,0.00399978552,-0.0046012369,0.0337943546,0.00520342821,0.0125854909,0.0142332315,-0.0175564867,-0.00435644342,-0.0184359327,0.0462572575,0.0175522566,-0.00923131593,-0.00330761098,-0.0294517782,-0.00867275428,0.0104968566,0.00442256732,0.00993767381,-0.00786544289,-0.0511923246,0.0219612513,0.0177085344,-0.0559438653,0.00772112096,-0.000267836149,0.0102920998,-0.00415835623,0.00175037142,0.023339998,0.0252030455,-0.0139004057,0.00176569191,0.0185051151,-0.00136274076,-0.0158917159,0.0303252786,-0.0095329769,-0.00150148524,0.0207235776,0.021839777,0.00941140018,-0.0150369043,-0.0367693231,-0.0127458042,0.0484613739,-0.000831132755,0.00855303742,0.00214541331,-0.00745981745,0.0120324688,-0.0333576016,0.0120380875,-0.00596807059,0.0263613202,-0.0289772544,-0.0170634538,0.00587238837,-0.00804576464,-0.0229311865,0.0232232455,-0.000958629127,-0.0346904807,-0.0383864269,0.0367790833,0.00934937503,0.00723765837,-0.0102980388,0.0235033594,0.00460056588,-0.0148162656,-0.00309044914,0.0217761584,-0.02523195,-0.0276476927,0.00599471433,0.00501349242,-0.000720600598,0.00609837892,0.000709067739,-0.034575969,-0.0016882862,-0.00735206343,0.00152248191,-0.00598216569,0.0151145514,0.0160967149,-0.0210999921,0.0506779179,0.0203091539,-0.00438372185,-0.0413369834,0.0151752699,0.005599414,0.00480666524,0.00403518742,-0.0219220649,-0.00413090177,0.00935869664,-0.0116095347,0.00622774288,0.0423025228,-0.0102705341,0.00661881128,0.0105121834,0.0408965684,-0.020681452,-0.0302461162,0.0134459035,0.0160259716,-0.0111280251,-0.0239182878,-0.0105968593,0.00830245391,-0.0159901883,-0.0172834173,-0.0298661608,0.0213937201,-0.00253222394,-0.00685119024,-0.0468076877,-0.016862873,0.0167695191,0.0116498386,-0.012000028,0.026671363,-0.0198129285,0.0114323087,-0.0255889483,-0.0365690812,-0.0259529632,-0.0416364744,-0.0159815624,0.00930777844,-0.0246955547,0.0487747863,0.0359259844,0.00340763899,0.00366933225,-0.00560625084,0.0140324282,-0.00032631366,-0.0161342602,-0.0268842056,0.0215301532,-0.015680084,0.0138600403,0.0104967616,-0.00161477178,-0.0180455055,-0.000840395747,-0.0178186372,0.00913886167,-0.0371119455,0.00484505435,0.0179634765,0.0194478799,0.018703809,-0.0313447379,0.0119539984,-0.00988345407,0.00234632194,-0.0313868001,0.00502791535,0.00134066725,0.0342550389,-0.0154724764,-0.00572256232,-0.0369275287,0.00728999777,-0.0131099271,-0.0193823278,0.00429502735,-0.00576731144,-0.00100072706,0.0393901877,0.0212142598,-0.0025245524,-0.0122700902,-0.00352306943,0.00725412648,-0.00214582263,-0.0162179936,-0.0177013688,-0.0212615505,0.0244784001,-0.0032764026,-0.0316870548,0.00681711314,-0.0190814584,0.0153776882,-0.0399931446,0.0327681154,0.00697091874,0.0201437492,0.000124583486,0.00680757128,-0.012880885,-0.0191257223,-0.0125483088,0.0130349835,-0.00532487221,0.00210330449,0.00972358137,-0.0449067242,-0.000121264595,-0.00745917344,-0.0126443952,0.0197423231,0.0147041474,0.00304590189,-0.0351071656,0.0277170613,-0.00492236903,-0.0156447385,-0.0139278062,-0.00922949053,0.0366986021,-0.00184735633,0.00489961356,-0.0063060415,0.010283892,-0.0232499074,0.00011016053,-0.0108414469,-0.0159735586,0.0263440181,-0.0191817861,0.00338564347,-0.0100536793,0.0221742354,0.0158403479,0.0258761439,-0.00419925759,-0.00288172485,-0.00836795568,-0.02460289,0.01655907,0.0348620154,0.00320598204,0.0032978605,-0.0138925249,0.00323624164,0.00431150524,0.0477422997,-0.0163344312,0.00415969314,0.0210974645,-0.0202427674,0.0258312523,-0.0385822654,0.0303599667,0.00754306,-0.0313005336,0.0259712003,0.0257988404,-0.0271135196,0.0225841757,0.040246781,-0.0219916478,0.00936946273,0.0209291242,0.0362890549,0.00789439119,-0.0131351231,-0.0199579857,-0.0226879157,-0.0100964475,0.039759364,-0.0178815853,0.0419931114,0.0125331385,-0.00762272347,-0.0117828101,0.0196785275,-0.0177217852,0.00599810947,0.0224583223,-0.0300564673,-0.016277371,0.005868576,0.0085578179,-0.00574437063,0.00323889544,0.0015360656,0.00318028987,0.0250496715,-0.0331298932,0.0202210825,0.00336771458,-0.0293233264,0.0213872958,-0.00959934015,-0.00291258097,-0.0111871976,-0.00302711688,-0.00503138732,-0.00839692913,0.00135923305,0.00555382483,0.00303740497,-0.00650296174,0.00416166056,0.0292873438,0.0211808216,0.0115447044,-0.0109684207,0.00974964909,0.00329161249,-0.0276342258,0.0265495367,0.0105897924,0.0201416034,0.00206062105,-0.0257463846,-0.0165455546,-0.00116098963,-0.0206896514,0.00403725775,-0.0162211042,-0.0288425609,-0.00309479493,-0.0183882881,0.0343162827,-0.0015060514,0.00927590393,-0.0119571025,-0.0130879069,-0.00648605404,0.0252192393,0.0282038394,0.0159399193,0.044928655,-0.0102835912,0.00485158805,0.0078025423,-0.01841118,0.0352079906,0.0205172226,-0.00793051161,-0.0025058852,0.0025821256,0.00425553322,0.0181489568,-0.0386838317,0.0240313374,0.0122051546,-0.000258625951,-0.0103306947,-0.0044159852,-0.0133400867,0.00208179536,-0.00534995086,0.00169238297,0.00462309783,-0.0119835474,0.0242365804,-0.0155756054,-0.0011889271,0.0272332709,-0.00899654161,-0.0180520657,0.041263923,0.00623973645,0.036384318,0.0246245116,0.00783574488,-0.0101395948,0.0246606506,0.0252289809,-0.0270995628,0.017443357,0.00250553293,0.0209633633,0.0301958248,-0.0179554336,-0.0317941047,0.00417792844,0.0302594267,-0.0221393947,0.0388332382,0.00116626732,0.0271998234,-0.00163635134,0.0187139437,-0.0046513211,-0.0391647965,0.00753026875,-0.0136220194,-0.00285698264,0.0291783251,-0.00812856108,0.0463848524,-0.0126243802,0.0122594601,-0.00210420811,-0.025406884,0.0285581294,-0.020050304,0.0200090613,0.00166064629,-0.00650813663,-0.025174262,-0.00647807447,0.0097115878,0.0284920875,0.0113451499,-0.00139645615,-0.0111884112,-0.00044409043,-0.0107938321,-0.0245962925,-0.0266837813,0.00186063221,-0.0193282925,0.000681103382,0.0386783816,0.0218973458,0.00770799955,-0.0262583103,0.0185431335,-0.00296382559,-0.0146215232,0.0122585725,0.01999617,-0.0103206141,0.0031401189,0.0131138032,-0.0249078535,-0.0259090234,0.0131978141,-0.0226229504,0.0199431684,0.0115291867,0.0193394125,-0.0185970664,0.0316822268,-0.000188319478,-0.0256718006,0.0165574849,0.0014807866,-0.0210382584,0.0276064035,-0.0107458513,-0.0195121467,-0.0106506022,-0.00827137846,-0.00866722874,-0.0200141594,0.000891141361,-0.0103314621,-0.0145257302,0.00874760281,-0.0163089335,-0.00583318062,0.00507626357,0.0175980162,0.00959808845,-0.0133521827,0.0206564348,-0.000362127816,0.0063324729,-0.015649423,0.00752812298,0.00268086907,-0.0274865311,-0.00882463343,0.00461535482,0.0193658937,-0.00786256418,-0.0469214506,-0.00109194021,0.0184493568,-0.0140565038,0.0380226225,0.0174363963,0.0115353009,0.0064679198,-0.0257680677,-0.0369733758,0.0196356717,0.0120387794,-0.00980393495,-0.00266057951,0.00982990209,-0.00158180192,-0.00714666629,-0.0100278892,-0.00628046598,-0.00136131526,0.0353898294,-0.0357937887,0.0196965579,0.0013110243,-0.00136480061,-0.0128721176,-0.00616175868,-0.0319773816,-0.00401521521,-0.0041271369,0.00748464698,-0.00598861976,0.00412689103,0.00117122324,-0.00496302871,0.017812876,0.010498262,0.0398796536,0.021416828,0.0186106693,0.0156059535,-0.0235219467,-0.0126414392,-0.0296321362,-0.00155034161,0.00458333781,0.000485312979,-0.0209455304,-0.011647094,-0.003201955,-0.031777475,0.0190858413,-0.00771431206,0.00867275801,-0.0129568167,-0.00242666085,-0.021929916,0.0356641673,0.0118469056,-0.0119175864,0.0439338274,-0.00810647383,0.0168698374,-0.00017333396,-0.0107068764,0.0355982073,-0.00313401688,0.000563239737,-0.00368551305,0.0371000394,-0.030043561,-0.0175791252,-0.000182731499,-0.0122746192,0.0111567592,-0.00128922251,-0.00709664822,-0.030299589,0.00736918952,0.00651398161,-0.0071685072,0.0264092702,-0.0243931767,0.00297437701,0.0256341193,0.0339776613,-0.00865703449,-0.0144530069,0.0226211045,-0.0219456349,-0.00519972015,0.0363050699,0.00939997006,0.0186769571,-0.00727907568,0.0112794042,0.0300752055,0.0329589844,-0.00463652145,-0.0186218843,-0.0129091153,-0.0311477631,0.0259415898,0.0128789498,0.0240662042,0.0235484373,0.0139477896,0.00675458834,-0.00637220498,0.00357993296,-0.00830668677,-0.0152108101,-0.00307642389,0.0523254536,0.00663882308,0.0242781471,-0.00424919464,-0.00158636551,0.0411458053,0.0185637716,-0.00914589223,0.00622829283,-0.0204549134,0.00276292232,0.0106010186,-0.0136842048,0.0037466276,0.0286319274,-0.0126666734,0.00607058592,0.00797795318,0.0287051387,0.00187733152,0.0334682465,-0.00581101561,0.0131062204,0.0294328388,-0.000628123584,-0.00684834085,0.018436674,-0.0444341823,0.0118257916,0.00809667725,0.0169051699,0.00563652441,0.000641573279,-0.0133657949,0.00214863941,0.00679170992,-0.00632234849,0.000828180811,-0.00447708648,-0.0173880365,0.0183632467,0.0435422026,0.00868013501,0.00830561761,0.044041805,-0.0161243752,-0.0166923702,0.0233556591,0.0258614253,0.0191178359,0.0122137843,-0.0104349591,0.0077150329,0.012722523,-0.0131907258,0.0115665048,-0.0135333873,-0.0113701858,-0.0171793271,0.0213418249,-0.0212092418,-0.00219941605,0.00574107934,0.0141953705,0.0362743512,0.0384709015,-0.001275855,-0.00465901196,-0.0143561205,0.00536369486,-0.0186611991,-0.0283748023,-0.0241657943,0.00987189729,-0.0253288001,-0.0262545962,-0.00842515659,0.0147258276,-0.0307793971,-0.00500774151,0.0357881486,0.0398530103,-0.000421760662,0.0128229242,0.0169879626,-0.01999617,0.0326129459,0.0164775718,-0.00132782501,-0.00926188938,-0.00645795977,0.0154325729,0.00650212448,0.0119007193,-0.0216755997,-0.000125762628,-0.00448360154,-0.0293721315,0.0457270406,0.0145130884,-0.0186187271,0.000682662474,0.0121340193,-0.0299615804,0.00892840885,-0.00775286136,0.00478996057,-0.0105129397,0.0247430485,-0.0202543084,0.00727589335,-0.021994397,-0.00264400057,0.00616004271,0.0036069944,0.000971284695,0.0273417179,0.00177148904,0.00557777192,-0.00420656987,-0.013590876,-0.000210826125,0.00537209446,-0.00542141963,0.00754263392,-2.18034875e-05,0.0187969171,-0.000478513306,-0.0359160788,-0.0313317813,0.0449674651,0.0353562757,-0.0152394203,-0.00813237485,-0.022227833,0.0366945751,0.0306353029,-0.00179504266,-0.0539862961,0.0172349848,0.018622607,-0.00501462165,0.0136672389,0.0255806651,0.0154638123,-0.0115710562,0.00607251376,0.000555791077,-0.0319883861,0.00880604237,-0.02458838,-0.00110401469,0.0315608755,0.000389549648,-0.0112791322,0.00545103336,0.0137280365,0.0303985942,-0.0117662987,-0.0470735207,0.021997761,0.0119702658,0.00182886026,0.00719659775,-0.0311001316,-0.00719721895,-0.0345993899,-0.0161401499,-0.0151741104,0.0315849334,-0.0218679402,-0.0167348608,-0.0155221904,-0.0177967735,-0.022918798,-0.0110567696,-0.0142746484,-0.0361513011,-0.0311966166,0.0165981632,-0.00608991086,-0.0186647959,0.00822739955,0.0117369909,0.00989074819,-0.0158721972,0.0308522489,-0.0129264267,0.0113226101,0.0118965982,-0.0148424422,0.00331023359,-0.00908168498,-0.0127707701,0.00411674613,0.0146047389,0.0171200521,-0.0536408573,-0.00313344738,0.0272665694,0.0242360607,-0.0300792288,-0.00192287529,0.000650664791,-0.0513534099,0.0268186554,0.0198499486,0.00825867057,0.0255667176,-0.0159247797,-0.00344789983,-0.0130713284,-0.0277102198,-0.0207093544,-0.00971660018,0.0127300937,0.0471288748,-0.00830191094,0.00952321477,0.0108840289,-0.0208307412,0.00559284072,-0.00985665247,0.00738767907,-0.010388393,-0.0422519296,-0.0144982822,-0.00655433768,0.025788676,-0.0236757696,-0.013742689,-0.00671003759,-0.0241290033,-0.0102015557,-0.015461117,0.00807672273,-0.00186866208,-0.00757015217,0.0163730681,-0.0360745527,0.0375880674,0.00914637465,0.0126876133,-0.0177479181,-0.0224633124,0.00918401964,0.0198923461,0.0108048823,-0.0106811402,0.0121098803,-0.017598547,0.0264744256,0.0198272299,0.00717600668,-0.0310405586,-0.00336756092,0.00106472126,-0.0460695885,-0.0268476568,0.00961340033,0.00256777904,0.0050294986,0.0128475064,-0.0201626085,0.00782841071,-0.00729120942,-0.00603744201,0.00161437737,0.0284172501,0.0146377934,0.0231853053,0.00816499349,0.00559703447,0.0184062421,0.0186935477,-0.0177362934,0.0165482424,0.0270979237,0.0123330448,0.00509109022,0.00859010778,-0.000790481688,-0.0246255733,0.0171213746,-0.0195765309,-0.0268222988,0.00561998552,-0.00667162146,-0.00665285811,0.0518077761,0.0230582729,-0.00117915752,0.00919690635,-0.0167334378,-0.0103819491,0.0101156039,0.0372480527,0.00654660445,0.0262210835,0.0299432538,0.0134452255,-0.0277147461,-0.0103213061,-0.0114841126,0.00182302331,0.0484338067,-0.012092893,-0.0264843535,0.0241286345,0.0346903205,-0.00558331655,-0.00649123359,-0.0278456155,0.0128753521,0.00444792304,-0.00689694379,0.0117274867,0.00965282042,0.0336852036,-0.00572476536,-0.0234348979,-0.000913290365,0.0181508008,0.0305117462,-0.0157986265,-0.0353465639,0.010539663,0.0224894453,0.00659031654,-0.00970650557,-0.01578255,0.0155054228,0.0597010851,0.0326200537,0.0142615708,0.00605152827,0.00965530146,-0.00523109594,-0.0218700301,0.00314330449,0.00429031858,0.000192486041,0.00826410111,0.0390756465,0.0182642005,0.0133405067,-0.00397164188,-0.00266237394,0.0290078446,0.0409727134,-0.026125811,-0.0044283988,-0.00106749393,-0.0205753893,-0.0110504692,-0.027016636,-0.0286779162,-0.0151763614,0.00325740571,-0.0195006728,-0.00884944387,0.0452042371,0.0176304765,-0.00921145733,-0.00546186743,0.00172500696,-0.00535813672,0.00629033055,0.0151558369,-0.00221597287,0.0139611922,0.0207404848,-0.0117225433,-0.000521860085,0.00577005139,3.65995438e-05,0.0103891827,-0.0179437995,-0.0227077343,0.00755620422,-0.00372839533,0.0297704432,0.00610184763,-0.0383700952,-0.021040285,-0.0117950011,0.0349942893,-0.0195757225,0.0256027095,-0.0126579767,0.0344969667,-0.0196573287,0.00128964731,-0.0166871361,0.00887780357,0.0142930858,-0.00536877383,-0.00425716769,-0.00855431426,-6.99879893e-05,-0.0198898874,0.00331577612,-0.00565057481,0.0252583362,-0.00602573436,-0.00514329225,-0.00537793012,-0.028114289,0.00398850022,0.0341700912,-0.0137249045,-0.00290450081,0.016971495,-0.00911620352,-0.0147329029,-0.0143828662,0.0188971926,0.0108100008,0.0220110007,0.0196786355,-0.0351550803,0.0258360207,0.00342509383,-0.00699658273,0.000436216098,-0.00764625892,-0.00114741025,0.0258272476,-0.0159047786,0.0138468463,-0.033844769,0.031245565,-0.00182467978,-0.024736261,0.00674231444,0.0201007091,0.0162394978,-0.00513959117,0.00142277835,0.0313084014,-0.0195928216,-0.00398605363,0.0266485997,0.0136462515,-0.00145848386,0.00464199018,0.00506976666,-0.0160161257,0.0125275087,0.0286582075,-0.0382702872,0.0303777847,-0.00212642225,-0.0353551731,0.00472158007,-0.0442652106,-0.00936545245,0.0235369168,-0.0043348996,-0.0036438813,-0.023576187,-0.00936131179,-0.00981392153,0.00497362902,0.0134727443,0.00604026485,-0.0362907648,0.0350137465,-0.00461072009,0.00898110867,-0.0118834889,0.0290527809,0.0259552337,0.00598716969,-0.0209014621,0.0031603165,-0.0146872271,-0.0560697168,-0.0304636825,-0.0178710558,0.0133024426,-0.0211830344,-0.00443096226,-0.0218592454,0.0101923272,0.00928307418,0.00714465976,0.026808925,0.0219992306,-0.00860058703,0.00629837159,0.0145683428,0.0200538747,-0.0193061922,-0.000402689591,-0.0562456362,0.028501248,0.0232152902,-0.00054025295,-0.0275023188,-0.000973793911,-0.0101751322,-0.0259984769,0.00168161863,0.0394417793,-0.00722750928,0.0117726689,-0.0473959334,0.0113719506,-0.00340654538,0.0104431389,-0.00270023011,-0.0395440236,0.00397558277,-0.0135036418,0.0315665342,0.0061738831,-0.0451385528,-0.027868988,-0.0161802135,0.00465356465,0.0273934621,0.00921061449,-0.0106031895,-0.022281548,-0.023364123,0.00398863992,0.00489196694,0.00655422173,0.00278601632,0.0242673289,-0.00647123158,-0.0390773378,0.00741902692,-0.0138159012,0.0173119456,-0.0344043002,-0.0101876874,-0.0194040947,-0.00120967813,0.0218821373,-0.0224714726,-0.0107653644,0.00527762389,-0.015883131,0.035408996,0.00403156551,-0.0112966849,0.0176222008,-0.00548227876,-0.0333099663,0.0176780224,-0.0125109022,0.0153464377,-0.0144797843,0.00176590215,0.0365201496,-4.24782629e-05,-0.00495304028,-0.0336197093,0.0315662697,0.0333485156,0.0229932144,-0.00604440877,-0.0140173929,0.0340386592,0.00920730177,-0.00388377858,0.0469413735,-0.00113839144,-0.0267963614,-0.0139080724,-0.0013495381,0.0150542669,0.00675939582,-0.00209501851,-0.00229286915,0.00451631146,-0.034559086,0.00690960558,0.0112555549,0.0185362622,0.0219151396,-0.0105742794,-0.0041080839,-0.00148612005,-0.00717075076,0.00767170312,0.00544036413,-0.0140613401,0.00679542171,-0.00529402727,-0.000992806861,-0.0141639709,0.0155626601,0.000946222222,-0.00920757186,-0.00304477592,0.0333892256,-0.00527801551,-0.0266675688,-0.00435750373,0.0159686282,0.00480791088,0.0171826892,-0.0101098642,-0.00481402734,0.00852708425,0.0187046342,0.00586703746,-0.0309109315,0.00612295372,0.000552684418,-0.000577119761,0.00622816011,0.0404483825,-0.000987053965,0.0179992579,0.0281214286,0.0237673763,-0.014184339,0.00071395532,0.00383966742,0.000546004972,0.0104612531,0.0152588962,0.0375710912,0.0576614663,0.00551108271,-0.0225526597,0.00423492026,0.0331323743,-0.0118079958,-0.0305115357,-0.0315911211,0.0359989069,-0.0264694523,-0.0150343953,-0.00919172168,0.0068095969,0.00215543224,-0.00881147571,-0.0158030223,0.0137952734,0.00665333914,0.0471304022,0.00113776582,-0.00939704757,-0.00459615095,0.00272382051,-0.0208905861,0.0378976353,0.0148108369,-0.00800699554,-0.00592898671,-0.0101993978,-0.0257890448,-0.000345287321,-0.0241602175,-0.00503566442,-0.0282187685,-0.00149207993,0.0357869007,0.0176537037,0.0136327464,0.0287835021,0.0176286809,0.00194051722,0.00775764976,0.01845189,-0.0137268901,0.0128302546,-0.00735383201,-0.000166372891,-0.00435076235,-0.00252451678,-0.011305741,0.00159162877,0.0067841229,0.0268668011,-0.0329126269,-0.00202977052,0.00819249172,-0.00169822632,0.0580605827,-0.0237710122,-0.0121513102,0.0147148026,0.0222051777,-0.00916496664,-0.0147136599,-0.0153091634,0.00140281988,-0.0336186215,-0.016742928,-0.00486973673,0.00388527149,0.00780823827,-0.0179547202,0.023514539,0.0178769473,0.00415061368,0.00724652922,-0.00184943469,-0.016440196,-0.0224054065,0.0214373637,0.00398451928,0.0148524316,0.00518051954,0.00754199829,-0.0186320208,-0.0184312165,0.0164434016,0.0207444727,0.00418835133,0.00663504424,-0.030252289,0.02705485,0.0240258183,0.00833241828,-0.00102693355,-0.00626338227,0.0278385486,3.36274461e-05,-0.0415328555,-0.00643033115,0.000674009963,-0.00319860503,-0.00985709205,0.010444615,0.0322282203,-0.0146196978,0.0288518779,-0.0299979635,-0.00204853783,-0.006399645,-0.00992028881,0.00123543339,-0.00129131658,-0.0508117229,0.000352885691,0.00369914947,0.0116690742,0.012668075,-0.0023829951,-0.0174989197,0.00359488954,-0.0362467766,0.0273138452,-0.00692109764,0.0109969927,0.0190138724,-0.0233494602,-0.00311968056,-0.00378765934,-0.0372956917,-0.00598747795,0.00820543058,-0.0057762973,-0.0157036632,-0.0121699804,0.0171702765,0.00114531606,-0.0195917916,0.0206818264,0.0230207052,0.0050914241,-0.0322091505,-0.015905153,0.000619057682,-0.00308803562,0.00711520994,0.0130471103,0.0180092398,-0.0135021424,-0.0333594196,-0.0148175061,0.0136126932,-0.0175484829,-0.0178217348,-0.00648022443,-0.0261323825,-0.00281289686,0.0069854008,-0.0037769638,0.00109580043,-0.0031747981,0.0264012385,-0.0207747985,0.0120396297,-0.00613077264,-0.0290973745,-0.00137630315,0.00027361681,-0.00876753684,-0.00732816104,-0.00751933083,0.0142296944,2.17738816e-05,0.00409598276,0.00469084876,0.00120454247,-0.0416891091,0.02007192,-0.00799272861,0.0303536486,-0.00332441414,0.0360020697,0.00324981264,-0.0165750943,-0.0203470681,0.0197541621,-0.0143667804,-0.00460788887,-0.0160016399,0.0116514983,-0.029845003,-0.00745969499,-0.00949144736,-0.0185407083,0.00848378893,-0.0151200444,-0.0114691313,-0.000230790451,-0.0248308051,0.00767101115,0.0111857457,-0.000285833987,-0.0221717544,-0.0119772488,-0.00862139836,0.0181636587,0.042762246,-0.00460330071,0.0104325796,0.0107206674,-0.0218171328,0.00894208159,-0.0409193374,-0.0155061949,0.000561687688,0.0080985995,-0.0205676761,0.0450616106,0.00658147223,-0.00517747551,-0.00754060084,-0.0381162278,0.0075738295,0.0170100257,0.0126714716,-0.0134301521,-0.00523812091,0.00162539259,0.00486311596,0.034876395,-0.019002283,0.007767573,-0.0278232787,0.00518014142,-0.0303483028,-0.00347839948,-0.0033629837,0.0101830112,0.0530769527,0.00025813168,0.0153096896,0.0295591112,0.00987748802,-0.00709444098,0.0117387064,0.0297237262,0.00368807279,-0.0143167954,-0.008549219,-0.0125160646,-0.032559026,0.0249670446,0.0250636972,0.0258143283,0.00949302036,-0.00666051079,-0.0328264572,-0.03418421,0.0259067956,-0.011780249,-0.0224305224,0.00299058645,-0.014288784,0.0039287773,0.010941416,-0.035556417,0.0473906733,0.0087642381,0.0185388699,0.0234641358,0.0240041818,-0.0369934849,-0.0110883815,-0.0286740847,0.0290089939,-0.0375475213,0.00585454516,-0.0270974562,0.0264419876,0.0140319094,-0.0181853399,-0.0240346547,-0.0111316759,0.000171570733,-0.013426017,-0.0255272184,-0.00730691897,-0.0492066853,0.0127209909,0.0379503295,-0.00326782209,0.0259574689,-0.00160304504,-0.0227555633,-0.00107289967,-0.0367835127,-0.0128187239,-0.053977415,0.00083938305,-0.0049667675,-0.0121365786,-0.00525560509,0.0180077031,0.0093478635,0.00722523546,0.0336044654,0.020447569,-0.0167965703,0.0306756366,-0.0247215219,-0.0109235104,0.00601139246,0.00186477066,0.00819682237,0.0406131968,0.0310757849,0.0371153392,-0.00370609504,0.00487883855,0.0252047107,0.00762693258,-0.00440401537,-0.0285106152,-0.000118794291,-0.0229971502,0.0357936621,-0.00767894136,0.00963728875,0.00612577796,0.0182508007,-0.0313254632,-0.049811095,0.0619856529,0.00169996789,-0.00137783017,0.0388505906,-0.0241911411,0.0216551069,-0.0111888358,0.0231648032,0.014379018,0.0251589492,0.0154329808,-0.0224602669,0.0234043766,-0.021634778,-0.0006910839,-0.0272930283,0.00350677641,0.0223271549,-0.0350588337,0.017109666,0.00699185301,0.00702884188,0.00619330211,-0.0101855015,0.0242562499,0.0254001636,0.00787707884,0.0229984224,0.00232192082,0.0396220423,-0.0100719435,0.0474794582,-0.0357416049,0.0102383373,-0.0119232619,-0.0186114814,0.00438616518,0.00903505739,0.00775919948,0.00123277097,0.014092912,-0.000547526637,-0.025675647,-0.00624920754,0.0114926621,0.00402785838,-0.00480848178,-0.00289038313,-0.0589662716,0.00902942475,0.0251170583,0.0217457972,0.00373926177,0.0307088364,0.0222296119,0.00459191157,0.0139295077,-0.0190119278,0.00505813351,-0.00717350328,0.00456488738,0.0243201982,-0.0206868071,0.0267013144,-0.0341449194,-0.00840870664,-0.0154702514,0.0303859673,0.0288216174,-0.0157709457,-0.0298055429,-0.00620487658,-0.00206577615,0.0167906452,0.0405360125,0.00362309394,-0.00577258226,-0.0296774618,0.0151657658,-0.0135847935,0.0366473868,-0.0113118226,0.00485974597,0.00174511783,-0.0319869667,-0.0157487504,0.00731343497,-0.00122087682,-0.0206771623,0.00703875208,0.0155593008,0.0262303557,-0.000540133216,0.0104876664,0.021563923,0.010084562,-0.00740200747,0.0145601137,-0.0411219448,-0.0229792092,-0.0106856525,-0.000420385564,-0.0119536538,0.00363589614,-0.0184713416,0.0019771012,0.0396886393,0.0190488361,-0.00932711549,-0.0131755471,-0.0198984221,-0.00479931012,-0.0273900628,0.0323161632,-0.0367887132,0.0186928622,0.0114634763,0.00543142203,-0.0126516363,0.0111118751,-0.0258438531,0.020486204,0.017055884,0.0074528819,-0.0275668893,-0.0263200589,-0.0299323052,0.015005487,0.0162573177,-0.0347261205,-0.0089284284,0.0221288968,-0.00892463978,-0.0160720032,-0.0185974501,0.00910937134,0.00224565458,-0.015813373,-0.00327935861,0.00427233148,0.0123968124,0.01867342,-0.0230000373,-0.00920305215,-0.00251929183,-0.0348580033,0.0116791511,5.21933134e-06,-0.00799524318,0.00109847821,-0.00123129832,-0.0338958725,0.0449051857,0.0453116037,0.0447494388,0.0144930072,0.0100175506,-0.00823843852,0.0151268011,-0.0364697129,0.0355252624,-0.00165546604,-0.0262819957,-0.0239794422,-0.0159035381,0.0327058844,0.0158584192,0.00090554409,0.00297700497,0.000261345354,0.0343654118,0.00691565359,0.00660484517,0.0241624918,-0.0173321255,0.00591682736,0.0416456014,0.034340851,0.0184639692,-0.00221539382,0.0190555993,0.0399093702,0.0263571236,-0.013257212,-0.00771950325,-0.0176046826,0.00275038765,-0.026903145,-0.00364200934,0.0243538134,0.00596121605,-0.0175796505,0.0268462673,-0.00199570064,-0.00646577356,0.00630924525,-0.0159477293,0.0462576635,0.00339363795,-0.0384185053,-0.0252101608,-0.000575540937,0.0253525339,0.00253166957,-0.0412255935,0.0263858717,-0.0086851418,0.0196894705,0.0342061929,-0.0427455939,-0.0226952825,-0.018138269,-0.00959530007,0.00700194109,0.00909633096,-0.0028869682,0.00109488005,-0.0051608244,-0.0215333067,0.008164634,-0.00438008225,-0.0362175778,-0.0163533129,0.00671017729,-0.00857190508,-0.00924052205,0.0127536152,0.0269791391,-0.00630490342,-0.047989998,0.00686701108,-0.0205661505,0.0284334701,0.0175504889,0.0255626366,-0.000622429303,-0.0243751518,0.0222708322,-0.0280428119,-0.013561992,-0.00229595904,0.0105658919,0.000163804507,0.00857539196,0.00948301516,0.0132972607,0.0150920767,0.0243468396,-0.00012414802,-0.0115126111,-0.0264168642,-0.00148954301,-0.0155764353,-0.0538878702,-0.00207813038,-0.0147086335,0.0197214298,-0.0122105349,-0.00327667105,-0.0275474135,0.0259324759,0.0140590901,0.00567129487,0.00561119942,0.030814385,0.0142881954,-0.0135573493,0.00843018107,-0.0279888008,-0.0317153335,-0.00464614807,0.0233028885,-0.000463996956,0.00457509421,-0.0378485322,-0.00887523126,0.0124858674,0.0198759772,0.018198384,-0.0019832165,-0.0202067029,0.0292308368,0.00906330068,0.0185065437,-0.0257634036,0.00272446498,0.00170151063,-0.0148222698,-0.0356209427,0.0327795632,-0.00998360291,-0.016996732,0.0127018886,-0.00963904336,-0.00513167121,0.0184811447,0.0125671504,0.0166668482,0.00295780157,0.0108114025,-0.0466510057,0.00526886526,0.00627821963,0.0154924281,-0.00235891063,-0.00888886116,-0.0325193927,-0.0380154997,0.0281284656,0.00974582136,0.0184035208,-0.00103695574,0.00983631611,-0.0268421788,0.0259807557,-0.0218281318,-0.00411194889,0.0194913074,0.0188692827,-0.00413450459,0.00215406157,0.0256616324,-0.00564936316,-0.000344322209,0.0389817208,0.00494438922,-0.00539379474,-0.0254555047,0.00178937579,0.00931314472,-0.0288907811,-0.0103568342,0.0125949169,-0.0380909666,0.0328492001,0.0245940592,-0.0133206584,-0.00380640943,0.019690657,-0.0122343488,0.00155976147,0.0322255492,0.0310211573,-0.010156339,-0.0173079185,-0.00753941294,0.00143186643,-0.0148309721,-0.0307357907,-0.0228848662,-0.013935091,0.0130428439,0.00771660684,-0.00324247149,-0.0392266624,-0.0208799373,-0.0102705806,-0.000358726742,-0.0348653533,0.0101091918,0.00127689703,0.0384093411,-0.017182136,-0.00212442735,-0.0307587888,-0.00083930901,0.0376336351,-0.0156687759,-0.0270487536,-0.0142618967,-0.0332011133,0.00136867922,-0.0211474299,0.0500139557,0.00505317282,0.00652877847,0.0231006108,-0.0128367059,-0.00131569873,-0.0107250903,0.00772256823,0.0176956821,-0.0152057325,-0.031933777,-0.0268113874,0.01503345,-0.00763519621,0.00564083783,0.0134466952,-0.00107062468,0.0050638956,0.00362926861,-0.00461559743,0.0385925584,0.0117576895,0.0121109374,0.00771255698,0.0101645906,-0.0158722121,0.011916969,-0.0031605165,-0.028084645,0.00959441438,-0.00308840349,0.00985650253,-0.00227291649,-0.00307349046,-0.0193533562,0.041231364,0.0280343909,0.0296637602,0.0106813787,-0.0246867742,0.0242457092,0.00184279378,0.0123038096,0.00498312013,-0.00582997547,0.0132104242,-0.0146283219,-0.00396102853,-0.00178915844,0.00756232021,-0.0172141921,0.0309593901,0.00949721411,0.00403562747,0.0348503068,0.00286602695,-0.0497780778,0.00368333538,0.0257743262,-0.0389856547,0.0310320463,-0.00733211776,-0.01358891,-0.0243565198,0.00680991681,-0.025946755,0.033129476,0.0457140021,-0.014961401,-0.00959201995,-0.0248355232,-0.0131723778,0.0134555316,-0.0096054161,0.0244021937,-0.00447653234,-0.0104102977,-0.0480152704,-0.0182189085,0.0182130765,0.00833920669,-0.0307739228,0.0100004161,0.00616888562,-0.00269454136,0.0108289756,-0.0154435663,0.0120707406,0.00812367257,0.00458123349,-0.0327061675,0.0137759401,-0.0401681997,-0.0324497968,0.0189872794,0.0254749674,-0.00773319602,-0.00647318177,-0.0284199454,0.0257218275,0.00353949773,-0.0424443223,-0.0389046557,-0.0154152876,0.0118225319,-0.0118710082,-0.0281992909,-0.0234851874,0.00996804889,0.00440696953,0.0156266522,0.00957968365,-0.0290639251,0.012958711,-0.00622267928,-0.0462809876,-0.00907361042,-0.00710126897,0.00165572239,0.00690750126,0.00188883371,0.0118433712,0.0351774357,-0.0288179573,0.0383157916,-0.0185144674,-0.0189205874,-0.0241940375,-0.032992173,-0.0365825295,-0.0445367172,0.0103705525,-0.0253467187,-0.015151374,0.0397196002,-0.0151485559,0.0301726032,0.00382228428,0.00288518262,-0.000201078568,0.031073099,-0.00603939826,-0.039951887,-0.0073442501,0.0120173236,-0.0263803788,0.00724534271,0.00991426595,-0.0239994023,-0.0135922628,-0.0126758143,0.000341912848,-0.0139992461,0.0100330468,-0.0177706666,-0.00647575967,0.00467119133,0.00502428226,-0.00135208957,-0.0177963786,-0.008197424,0.0237753931,0.0290681887,4.45437108e-05,0.0296215024,-0.00265130983,0.0329989828,-0.00301511167,0.00282592443,-0.00654268451,0.0167442262,-0.00746546919,0.00186265609,-0.03050033,0.0016784881,0.0124533223,0.00923578814,-0.00250506098,-0.00838329364,-0.024427468,-0.0158960596,-0.0100412546,0.0148854265,0.0149677033,-0.0061615943,-0.0162762981,0.00577855622,0.00224446016,0.0105104651,-0.00165722461,0.00156903395,-0.0165830553,0.0177446473,-0.0100838775,0.00977082085,0.00899027102,0.00125885871,0.0264875572,0.0120490426,0.0217927787,0.0283208247,0.0204419233,-0.0102889128,-0.0129160555,0.0285705235,0.0125258015,0.00638820883,-0.0393024497,0.00832022447,-0.00273001147,-0.00756626483,0.0231109094,0.00357601908,-0.016675787,-0.0147056235,0.0102351513,0.0136133693,0.00373601518,-0.0163934622,0.0124704903,0.00720239012,-0.0170455985,0.00381854596,-0.011560509,0.000898999395,-0.0241525602,0.0197534207,0.00563058956,-0.0145323155,0.0331238918,0.00602983031,0.00537906215,0.0183460377,-0.0164750684,-0.0181415062,0.00939995423,0.0176737271,-0.0111661321,0.00282187248,-0.0046908306,-0.00609838217,-0.0395379253,0.000753114407,0.0272438359,0.0252544563,0.0128677525,-0.0164389778,0.00247688009,-0.00771255,-0.0182738565,0.0281353854,-0.0254389402,0.00604188023,-0.00903237239,-0.0101346215,-0.000168365907,-0.011297741,0.0212169401,0.0203865133,0.0127193369,0.0281606708,0.0384129696,0.00699902512,0.0345524624,-0.0167466309,-0.0141124176,0.0143758142,0.00259006186,-0.016408829,-0.0190310292,0.00994352344,0.0440136753,0.0234179851,0.00709022023,0.0221320186,0.0347415619,-0.0112921447,0.0142774032,-0.00615100795,-0.00323653477,-0.00857389253,0.0272648428,0.022295244,-0.00810332689,0.0206574108,-0.0138845081,0.0186939035,0.0280114766,-0.0342903621,0.0133985216,-0.0103765661,-0.0161236506,-0.00612027524,0.00765383989,-0.0236626398,-0.0138734169,0.0310259853,0.00891535822,0.00107866072,-0.0063227769,-0.00541976141,0.0345287286,-0.0295934267,0.0331527367,0.0237155203,0.0119373724,-0.000785082695,-0.0431403182,-0.00388468802,0.00321262679,0.0145820137,-0.0136602148,0.042269662,-0.0128531968,0.0114969406,0.0125500821,-0.0331318714,-0.0279874839,-0.0237959623,-0.0229388941,0.00174867606,-0.0276853405,0.0205104854,0.00107452006,0.0164478701,-0.0245238338,-0.0075456379,-0.0222384613,-0.0225273613,0.000317324069,0.0124752261,0.0131530762,-0.00707615726,-0.00283170305,-0.00510607334,0.0131215733,-0.0238633491,0.0185917579,0.0224868599,-0.0189270973,0.0284555592,-0.0223213192,-0.0106731178,-0.0248411391,-0.0283096116,-0.00503650168,-0.00285052857,0.0122378208,-0.0177836046,-0.0276942179,0.0197224654,-0.00672794273,-0.0318932496,0.0279018991,0.0240207147,-0.0503591187,0.000886671536,-0.0133910151,-0.0110782478,0.0271052625,0.0228938106,-0.0126420856,-0.00263391784,-0.00102870725,-0.0427220538,0.00376131432,-0.00727243396,0.000751959393,-0.000910477713,0.0161198787,-0.0178935602,-0.0170440432,-0.0106498087,0.00703712227,-3.95637144e-05,0.0475382023,-0.0202507973,0.000256909727,-0.0402639247,0.0117590195,0.0342284776,-0.00477459934,-0.0240019038,0.00168990111,0.0155852698,-0.000444510952,-0.0227155033,-0.00763182342,-0.00496508367,-0.00240221666,0.0107766856,-0.0155403679,0.00202523055,0.015838122,-0.00398389762,0.00987894088,0.0232838597,0.00368448254,0.016491212,0.0143300779,-0.0120448563,0.026085617,0.011923369,0.0339499004,0.00738813123,-0.025031887,0.00628570234,0.048105143,0.0060438728,-0.0436619706,0.00142191513,-0.0166977514,0.0328431949,0.00477492949,-0.000191546438,0.0312476438,-0.0163341295,0.0117103849,0.00936561916,-0.0161430966,-0.0187077615,0.0268619508,0.0030409724,-0.0236363765,-0.0306636542,0.0413673595,0.00189246552,-0.0269209854,0.00732314261,0.000345662935,0.00679564057,0.0711657032,0.0296128094,-0.00583336689,-0.0188013986,-0.0013550414,-0.000684193452,-0.0224387478,-0.0296888538,0.0313663892,0.0331032611,-0.00684557855,-0.0148820719,-0.00075474818,-0.0155042121,-0.016692657,0.0230537243,0.0155419521,0.0270949285,-0.023651354,-0.00946000218,0.0222998038,-0.015768541,0.000484176708,0.00509745581,-0.00756722596,-0.0225153845,-0.0131538995,0.0307573285,0.00194664043,-0.00841995142,0.00866399053,0.00255721621,-0.00338655012,-0.000773292559,0.00739255641,-0.0213252157,-0.0359938964,-0.0137149487,0.0294935033,-0.0623342581,0.0313593782,-0.058036752,-0.00944432616,-0.0162265506,-0.00292858318,0.0139048873,-0.00990975741,0.0161034968,-0.00351793156,0.00573429791,0.00319881248,-0.0254200269,0.00142374635,0.010606721,0.00230752188,0.00830240082,-0.00253141066,0.0242975038,0.0346742123,-0.0129099553,0.0339449905,0.045180168,-0.00146815495,0.0208287537,-0.00240756175,-0.0370427519,-0.00262177573,0.0253280681,-0.00395732606,-0.016984079,0.0187016483,0.00401628762,-0.0271744169,0.0392466336,-0.0387774743,-0.0189230815,-0.0142225586,-0.0172328353,0.0084883431,0.00867342111,-0.0198053271,-0.0236711763,0.0445060879,0.018128451,-0.00559382327,0.00376782706,0.0360593461,-0.0461640246,0.0209952127,-0.0256028138,0.0208638739,-0.0287186876,0.00530179078,-0.0161277335,0.0113056405,0.00887465011,-0.0175984893,0.0214772224,0.0248531867,-0.0184262749,0.0136346221,0.0138599761,-0.00490481732,0.0143422373,0.0355427526,-0.0233739186,-0.0258056056,0.0189029332,-0.00815266091,-0.0137993917,0.0250243172,0.00168186962,-0.0149846338,0.00200794218,-0.0236525703,-0.0249650925,0.00186164852,-0.0183229987,-0.0126932822,0.00366135221,-0.00337810093,0.0357831195,0.019141946,0.00706005655,-0.0111705326,-0.00914282817,0.0293738339,-0.0162158273,-0.0178026184,0.0133920321,-0.0330744237,-0.00205958611,-0.0109655755,0.0114698112,-0.00353846862,0.0400373749,-0.0282993615,-0.00956330728,0.00978682004,0.000547833741,0.0156554393,0.0339341573,-0.0479610302,-0.0023343456,0.00746277859,-0.028811926,-0.0314155556,-0.00585696567,-0.0229705591,0.0449626781,0.0233394336,0.0155427186,-0.0217249263,0.00570219569,-0.00140449079,0.02767957,0.0145111941,-0.00766150421,0.00351118227,-0.0316341743,-0.0178350974,-0.0211510845,-0.0161971711,-0.0352649316,0.00375507236,-0.00418550614,-0.00901158527,-0.0196047742,-0.0124545926,0.0139372088,0.00169451989,-0.0315745734,0.0211977791,-0.033502996,-0.0040358617,0.0149351796,-0.00524500245,-0.0175191853,0.00809653662,0.00178203115,-0.00402288977,-0.0304242931,-0.0185449813,-0.00641819043,-0.0180798844,0.0201562587,-0.021687543,0.0138287423,0.00271527888,0.0245762058,-0.0385750569,0.0214048438,-0.0118109975,-0.0168485306,0.00599197904,0.0235300027,-0.030117793,-0.0172214732,0.0410780236,-0.0223257039,0.000658494013,-0.00214752043,0.0243805572,-0.0225551035,0.0120744854,-0.00976040773,0.0178025402,-0.019696435,-0.00831583235,0.0217074081,0.00505731534,-0.0057365275,-0.0192457866,-0.0270647425,0.0155517003,0.0122500239,0.0241342708,0.00103737891,-0.00331225595,-0.00434424775,-0.0132370554,-0.0276657101,0.0249398779,0.0199081711,-0.00270659244,-0.0225965735,0.00945918355,-0.0268264692,-0.00283510122,0.048351679,0.0117158219,0.00676710578,-1.86001944e-05,-0.0140087279,0.0164869316,0.0494576246,-0.0222918093,-0.0259686876,-0.00177241804,-0.0101178344,-0.0154820895,-0.00906459242,0.00373823475,0.0063370578,-0.00395400031,0.0385990627,0.000564346497,-0.0276463032,-0.00265810569,-0.0239281841,-0.0104267979,0.0217249244,-0.0070301285,0.0180211347,-0.0156575125,-0.0283456501,-0.00461475551,0.057476189,-0.0424654856,-0.0339538902,0.041818168,0.0102398917,-0.00967448764,0.0540001914,0.011495675,-0.0176227,-0.0316158347,-0.0220588781,-0.00398894725,0.0157224778,-0.0124359848,0.0144499587,-0.00976184662,0.00735738687,0.030697288,-0.0143387541,-0.00416663243,0.0427366048,0.0555753186,-0.0305845011,0.0397913381,0.017934978,-0.0183788687,-0.0486735627,-0.00411142083,-0.00248798542,-0.0201746076,0.0227594506,-0.00254330924,0.00359848468,-0.0239478983,-0.00819154456,0.0298955478,-0.00917647593,0.000167033781,-0.0262908973,0.00857000891,-0.0481817126,-0.0196795315,-0.0322599038,0.00944831036,-0.00748815713,-0.000197374218,0.0159176439,0.0132023618,-0.0117869349,0.0111881709,0.0416211784,0.0212412681,0.0190574639,-0.017684631,-0.00429938594,-0.005539882,-0.0103816008,0.00334094372,0.0476971529,-0.0253316164,0.00486292318,-0.010835385,-0.0123862298,-0.015045628,0.00562340254,-0.00874397345,0.0299933665,0.00648230361,0.00284408825,0.00441332068,4.68251255e-06,-0.020311188,0.0173308123,0.0228555501,-0.000748644467,0.0331070125,0.0189530253,0.000573308615,0.00665865326,-0.00182519457,-0.0248729531,0.00786233041,0.0366882756,-0.0319170021,0.0459752977,0.0220701545,0.0125109889,-0.0200528167,-0.0221203566,0.00634272024,-0.000113716866,-0.0382917523,-0.000869342883,0.00978156645,-0.0386217311,-0.0154349515,0.0399438106,-0.0110496711,-0.0321557261,0.0255113579,-0.00968521647,0.000185022815,0.0114573026,-0.012515692,-0.0283453688,-0.0281925388,0.00345021021,-0.01326703,0.020924475,-0.0134362793,0.0212608576,-0.0339723043,-0.0014112785,-0.0212990344,-0.0157311093,0.0015022452,0.00952927209,-0.0181108098,-0.000288754556,-0.00508978078,-0.00158536946,0.0444250628,0.00763974153,-0.0230792463,-0.0238062814,0.0290049221,0.00402873009,-0.00526938122,0.0120757176,-0.0106859626,-0.0307612196,0.0330155641,-0.0291875508,-0.0422916226,0.0330456868,-0.00429215003,0.000835795305,0.00485717552,-0.0120960604,0.0165892113,-0.0129634067,-0.0403414145,-0.0347776301,0.01943326,-0.000952355564,-0.0248937011,0.00536173489,0.00369760417,-0.0334846415,0.0225998405,-0.0350499488,-0.0174566694,-0.014346282,0.0113408267,-0.00521273026,-0.0295062289,0.00339807593,-0.0222583357,-0.0343557931,-0.0246072151,-0.00864481926,0.0252438821,0.0193681009,-0.0104771592,0.0221217014,-0.0162027422,-0.00497458642,0.0250451155,-0.0120207407,-0.0073942286,-0.028639039,-0.00315580773,0.0179871023,-0.0324453488,-0.031437993,-0.00146822282,0.000977698946,-0.00639112201,0.0268837065,0.0306533165,0.0176392365,-0.00506102666,-0.00865126774,0.0146575421,0.00614267634,-0.00872376934,0.00233340776,-0.012535085,0.00782904588,-0.00795276929,-0.0163529292,-0.0320652276,-0.00332477083,-0.0366600715,0.0371229053,-0.00427293405,0.0065538385,0.0364267789,0.0213857461,0.00821417384,-0.0175345261,0.0078584319,-0.0247352906,-0.0334055759,0.0485332496,-0.0269281808,-0.00749649759,-0.0251659602,0.0252842922,-0.0165766086,0.0122678,0.0161233954,0.0035535905,-0.00835682079,-0.0313443169,0.00384862395,0.0118671311,-0.00460612029,0.0144960163,0.00172703667,-0.0271984879,0.0106513333,-0.00885656476,0.00606618635,0.00785834994,-0.00336451456,-0.00470935879,-0.0273261182,0.00579145178,0.0153104626,0.000282665598,-0.00544714835,-0.0161112715,0.00498659303,0.0170923397,0.0211107153,-0.000488797785,0.0345204845,0.00360233337,-0.0383205153,0.00764807267,0.0173323452,0.0121883256,0.0289797988,0.00721620582,0.029745264,-0.0372488573,-0.00341026974,-0.000834848266,0.0222150441,-0.00601728493,-0.0224253479,-0.007492946,-0.00120735611,0.00302930409,0.0116320262,-0.00662742974,0.00978322793,-0.0374401547,-0.0144495964,-0.0271937083,-0.0242967866,0.0305543113,0.0568980351,-0.00546058919,-0.0108965943,0.000979508739,0.0168990996,-0.00272978796,0.00440404704,0.0381455645,0.00438078493,0.0121544879,0.00751408096,-0.0192029513,-0.00120949256,0.0382342115,0.0389585271,0.0111825522,-0.0129291713,0.0045684455,-0.000523819705,0.0336954929,-0.00752022769,-0.0255816262,-0.0199469719,-0.0087025417,0.0237194058,-0.0199775808,-0.0140795009,-0.011199085,-0.00822302792,0.0112157557,-0.0203266405,-0.028049361,0.00999895949,0.0175858811,-0.0256327074,0.00320974784,-0.0338001922,-0.00228251354,-0.0418600924,0.0180904269,0.00794888474,-0.0106978295,-0.0181752611,-0.0300170127,-0.00134253385,-0.0245516226,-0.024622146,-0.0363158584,0.00833688676,0.0228076484,-0.0204574987,-0.0105246287,0.0158044305,0.0417166501,-0.0110447276,-0.00383898686,0.00797949452,-0.00548104616,-0.0135668432,0.0465926342,0.0234630909,-0.0157562513,0.00685988693,-0.0162641052,-0.00864746515,0.0137166269,0.0238952916,0.00038115296,-0.00166880211,0.0071322564,0.0182950329,-0.0513645299,0.0123971403,-0.0349936895,-0.0107932305,0.00788332615,-0.0351877101,0.0287967827,-0.0188521519,-0.00749432901,-0.0094218906,0.0284580924,-0.017556509,0.0448250771,-0.00743001141,0.0185575709,0.00424343487,0.0418596193,0.0242202394,0.0116759455,-0.0444854684,-0.0350664482,-0.00210262137,0.0199023653,0.00563375,-0.0360261165,0.0206237212,-0.0465052687,0.0241628028,-0.00787324365,-0.00342843612,-0.0104572065,0.0240639467,-0.0125604663,0.0197275504,-0.0174696725,-0.00357687799,-0.00608016318,0.00445564557,-0.0243006852,-0.0179846883,0.0313192867,0.0130901644,0.0138210412,0.0380123444,-0.0134927798,0.0264852587,-0.0348506197,0.011078814,-0.022342395,0.00133960741,-0.0146234762,-0.0184435248,-0.01443779,-0.0111281285,0.000604714616,0.0149168177,0.0280219354,0.025304921,-0.00115973467,0.00712408172,0.0283208713,0.0128175793,0.0289377831,0.00713426759,0.0187231638,0.00597835938,0.00411877735,-0.0182217993,-0.0181414019,0.0154243214,0.00884034485,0.00534353731,-0.0356642418,0.00181508099,0.0213360302,0.0203853026,-0.0205225982,0.0109117012,0.029621195,0.0350059718,0.0229806602,-0.00186980062,0.00564065995,-0.0104282591,-0.0116986334,-0.00589738647,-0.000371545175,-0.0112436581,-0.0310517978,0.0261864103,0.0169714093,-0.0103339441,0.0146769593,-0.019835867,0.0311564729,-0.024951091,-0.0131737338,0.0405716598,-0.029321136,-0.00581287779,0.0159173738,-0.036669787,0.00531213451,-0.0358544253,0.0243017692,0.0207248516,0.0108383931,0.0254937615,0.0377208218,0.0217114184,0.00181212917,0.0297255628,0.0084494045,0.0279495977,-0.00968862884,-0.010293507,-0.0169389062,0.0318703577,-0.00502798706,0.0204011928,-0.030182248,-0.0241841674,-0.0272754002,-0.00109529018,-0.0360502079,0.00348230451,-0.0362267643,0.0152280675,-0.0216553323,-0.00335109513,-0.0118077314,-0.0124364085,-0.0221334994,0.00512225833,0.00278240326,-0.00740953628,-0.0087087471,-0.0175158046,-0.00733881537,0.00330214784,-0.0176871158,0.00547806732,-0.00981678721,0.00528118061,-0.00386531395,-0.0239820424,-0.0115742581,-0.00206018612,-0.0253130961,0.0203383081,-0.035329923,-0.00146905344,-0.0214864202,0.015166441,0.0127211008,-0.0249091685,-0.0198396333,-0.0372571908,0.00292553566,-0.0111356685,0.012414543,0.0143650835,0.0195592232,-0.0205708705,0.0132970996,0.00794412382,-0.0048970473,0.00387202972,-0.0128740519,-0.0050962544,-0.0259278156,0.0213669073,0.0354814269,-0.0164378993,-0.0287441462,-0.00480803614,0.0119768484,0.0322808884,-0.0397684127,-0.0315150283,-0.0308405273,-0.00129711546,0.00316649908,0.0233778264,0.0195506234,-0.000768124068,-0.0271745622,0.00844495371,0.0177847147,0.0176286995,0.0202778243,-0.0373007208,0.00142609235,-0.0275606383,-0.000775085529,-0.000245149451,-0.0124304378,0.0203820728,0.0316628963,-0.00575521169,0.00934950728,0.0252782982,0.00734818308,-0.0125672948,-0.0229983032,0.00791478995,-0.00860427041,-0.0148637379,-0.000307781214,-0.0171561278,0.00978696998,0.0177853089,0.0117829442,-0.022606587,0.0148671027,-0.00495220069,-0.0172483493,-0.0201383196,-0.0156089962,-0.0108966073,0.0124175912,-0.0367163457,0.00828970782,0.0282505602,0.0136621054,-0.0181763284,-0.0241948459,-0.01448703,0.0384882726,0.0413670875,0.00724795554,0.00256490055,-0.0142259309,-0.0139561808,-0.00445164833,-0.0423331261,0.00304745277,0.0135685019,0.0251782462,0.0107808281,-0.00820671674,-0.0207534991,-0.0236561038,-0.018071387,-0.00930389669,-0.0230195224,0.0125576742,0.0281824227,-0.00541481376,0.0107523417,-0.00905221887,0.0508456677,-0.0269818529,-0.000320272462,-0.00499156257,-0.0039598695,-0.0103282398,0.0072363033,-0.0170639865,0.0118178651,0.0196735654,-0.0027323619,-0.0361555703,0.00391317392,-0.00832077581,0.0406637266,-0.0151864244,0.0161880068,0.0172429662,-0.0227176137,-0.0161435641,-0.0266112462,-0.0255080387,0.013935932,-0.00406604307,-0.00719203334,0.0102782855,0.0186093152,-0.0312979519,0.00601477176,0.0270384755,-8.77051498e-05,-0.0179348905,-0.0293427221,-0.016573308,-0.0060483655,0.0341973789,0.0140266456,0.00959500112,-0.0302150026,-0.025617931,0.0383803472,0.0360005423,0.00204410008,0.00795622729,0.00604569726,-0.00478989957,-0.021231588,-0.0212550107,-0.0035882988,-0.0180002991,-0.00738176983,-0.0180816725,0.0122857345,0.0284291711,-0.00942929927,0.0326001383,0.00778681319,0.0145104919,-0.0172517411,-0.0501873903,0.0351970717,-0.0511541031,-0.0306782499,0.0443481803,0.0181040764,-0.0316543914,0.0158934426,0.0394910946,0.0262697339,0.0156377684,0.00350281526,-0.0182303581,0.000112347952,-0.0207423978,0.0268648788,0.0319483355,-0.0151366889,-0.00465951208,0.0396784395,0.0263398923,-0.0170617402,0.00232055504,-0.0132897515,-0.0217297189,0.0339740887,0.0157893561,0.00469131302,-0.00198568497,-0.0407308675,-0.00827465672,-0.0119647523,-0.0278564952,-0.0435652323,-0.0255375076,0.0265513863,-0.0227036513,-0.00998511445,-0.0284529869,0.0275944676,-0.0511063263,-0.00853151083,0.010850044,0.00953088421,0.0260790177,-0.0212667286,-0.0283955,-0.00509517733,0.00519639999,0.00880899653,0.00517238444,0.0355177261,-0.0012405708,-0.0199764017,-0.0205886215,-0.051952634,0.0397840887,0.00900928676,0.0286571346,-0.00269836187,-0.0160673112,-0.00327762915,-0.0127982777,0.0118225617,0.024611339,0.0108164502,-0.0386714227,0.00860935915,-0.0332952067,-0.0131678591,-0.0488575958,-0.00200888421,-0.010472117,-0.0317984931,-0.0235957745,-0.00994382985,0.0248117559,-0.000898551487,0.00149646378,-0.0101800896,-0.0133924149,0.00546652405,-0.0152908266,-0.0133959753,-0.0314287432,-0.00637377566,0.0323175602,-0.00211168639,-0.00168572227,-0.0154959438,-0.0300004594,-0.0109533435,-0.0048133838,-0.0135574695,0.0168479923,0.00112831104,-0.0109478626,0.0308548268,-0.0218750257,0.0201064013,-0.0122997016,-0.000889396353,-0.0359229334,0.00179918599,0.0171670094,0.00874436926,-0.0232617985,-0.00270332303,0.0188860912,-0.00341344578,0.00119769119,0.0166172497,-0.0165916383,8.57680425e-05,-0.0364526324,0.0448109098,0.0164479427,0.00561242923,-0.0228714533,0.000873443147,0.0123939179,-0.00935850386,0.000230067628,-0.0185800903,-0.0174821056,-0.0174147002,0.0179316569,-0.00159742997,0.00939380005,0.0215488337,0.00682830065,-0.00718249846,0.0163803715,0.0149813574,0.019902667,-0.00965162646,0.0375670977,-0.0046756235,0.00971202273,-0.0317170322,0.00372949871,0.0129266521,-0.0111870933,0.0620106682,-0.0101943351,0.0139226615,0.00281729922,0.0114955995,-0.00972700398,0.0232650898,-0.0178613719,0.00278022932,-0.0115908096,0.014109958,-0.0140882302,0.0156398192,-0.00352199632,0.00861147791,-0.00722812209,0.0139785279,0.0365221389,-0.0141922981,0.00789214764,-0.0172014777,0.0198699571,0.0144092357,0.0119106341,-0.0126465615,-0.0291574653,-0.0257662963,-0.0215976778,0.00465353345,0.0162974484,0.00610018196,0.0115620894,-0.00983597338,0.0341687799,-0.0192991458,0.0240809117,0.0384207964,-0.0176841393,0.0391705446,-0.0101821767,0.0450637899,-0.00209723623,-0.0134877479,-0.0123023624,-0.0161833428,0.00705087092,-0.00252433168,-0.00708128093,0.0085028857,-0.0209723059,-0.0116338115,0.0115953321,0.0194336046,0.0213901363,-0.0239108671,-0.0115735158,-0.0109434221,-0.00921515189,0.0262300801,0.0113748414,-0.0335884802,0.0180298351,0.0326653123,-0.00925975014,-0.0231250264,0.00777294487,-0.00647655688,-0.00191874127,0.0232992508,-0.0171016287,0.0253073312,0.00894647092,0.019124534,-0.000425856968,0.00421031797,0.0337839983,0.00987127237,0.0107878195,0.00146605284,0.0380490981,0.0335125923,0.0137104988,0.0178761855,-0.00518398872,-0.0342380293,-0.00223764288,-0.0228519868,-0.0297081694,-0.017528601,0.00813782029,-0.0424838439,-0.018273877,0.0017103022,0.00184402091,0.000281830871,-0.0209804289,0.0330424383,-0.00191567163,0.0307179522,-0.0226940382,0.0106737334,0.0129548423,0.0117646502,0.014823813,0.0264746118,-0.0111561175,-0.0217042957,-0.0346318558,-0.00351933204,0.0329335891,0.0181256831,-0.0100708855,0.0458844379,-0.0116801625,-0.00343505107,0.035502363,0.00688072527,-0.0137495846,-0.000678841781,-0.00633326499,-0.00356105552,0.00574143883,-0.00658726553,-0.00510952203,-0.00982326269,-0.0195827391,-0.0028079797,0.0135267684,-0.0244382303,-0.0207822453,-0.0458872393,-0.0159718636,-0.0180429891,-0.0155476546,0.0240635667,-0.032661818,-0.0145301735,0.015672911,-0.0226681065,0.00907066744,0.00480722217,0.0121002933,-0.00159184425,-0.00730666611,-0.0218547378,-0.0391105041,-0.065073818,0.0123576662,0.0111077167,0.0200104229,-0.0202898551,-0.0188623704,-0.0178502779,-0.0366153792,0.0184556339,-0.0198034756,0.00652896985,0.0281369444,0.0239675753,-0.0278073028,0.0206537619,0.0296399053,-0.00879421923,0.047323335,-0.0139155639,0.0238334313,-0.0417971015,-0.00537704397,-0.0144274132,-0.0134492358,0.00576966582,0.0253673475,0.0163779557,0.0140879303,-0.00220654695,0.00770929549,-0.0210219454,0.0133111924,-0.0402664542,-0.0276988652,-0.0244658329,0.00812706631,-0.0124922795,-0.00989851914,0.014060311,0.000602113199,0.0515030324,0.011461677,0.0368157625,0.0119560705,0.00736104604,-0.0048721279,0.013878623,0.0153004145,0.00185927411,-0.00818705652,0.00360791502,-0.00781866536,0.0285102595,-0.0410231687,-0.0230857413,0.0356700495,-0.0144232092,-0.023965057,0.00384552195,0.00725764921,-0.00195221894,0.015959857,-0.0109818578,0.00939628016,0.0211232547,-0.00532903522,-0.021736376,-0.000794812804,-0.043821454,0.0205337498,0.0301638953,-0.00700005051,0.00872680079,-0.0108535429,-0.00965708587,-0.0117200837,-0.0109242545,-0.0272189807,-0.00394660095,0.0159935914,-0.0391335972,0.0085956594,0.00462959008,-0.00970731955,-0.00349074928,-0.00638075359,-0.0148506518,-0.0366171822,0.0281583406,-0.00993788056,0.0121774934,0.000416866184,-0.000564645801,0.0251641702,-0.0318318829,0.0150308628,-0.0231365301,-0.0186992865,0.0135200415,0.0035546741,-0.038840197,-0.00433599064,-0.0310344156,-0.00743539026,0.0262209717,0.0105281984,0.00699901255,-0.0165636037,-0.0127985645,0.0100873392,0.00705160666,-0.0121861445,0.000736922142,0.00633213157,0.00777205685,0.00627345406,0.0125051243,-0.0197093152,0.0314322226,-0.00503563648,-0.0141726006,0.00433488889,0.0331307426,0.00237380946,0.0203146096,-0.026849648,-0.0229496658,-0.0110145519,-0.0174033046,-0.021091992,-0.0239096805,0.0111486074,0.0206461307,0.000250870478,0.026231749,-0.00675619906,0.00063464191,-0.0178032424,