#include <stddef.h>
#include "aicc_runtime.h"

#include <cblas.h>
static void kernel_matmul(const float* A,const float* B,float* C,int M,int K,int N){
  long work = (long)M*(long)K*(long)N;          // ~ MACs
  if (work < 2000000L) {                        // tune threshold
    for(int i=0;i<M;++i){
      for(int j=0;j<N;++j) C[i*N+j] = 0.f;
      for(int k=0;k<K;++k){
        float a = A[i*K + k];
        for(int j=0;j<N;++j) C[i*N + j] += a * B[k*N + j];
      }
    }
    return;
  }
  cblas_sgemm(CblasRowMajor,CblasNoTrans,CblasNoTrans,
              M,N,K,1.0f,A,K,B,N,0.0f,C,N);
}



static void kernel_add(float* X, const float* B, int N){
  for(int i=0;i<N;++i) X[i] += B[i];
}


static void kernel_relu(float* X, int N){
  for(int i=0;i<N;++i) X[i] = X[i] > 0.f ? X[i] : 0.f;
}

static const float W0[] = {-0.00388655276,-0.0153287156,-0.0263169315,-0.010239535,0.0321167596,-0.0158913508,0.0289003197,0.0120594902,-0.0282434169,0.0220101718,-0.027086772,0.00984381977,0.0107461084,-0.0314145647,0.0190838091,-0.0137915788,0.00174064364,-0.0200386327,0.00897267368,0.00545432512,0.00740848342,0.00127843872,-0.00296470849,-0.02644323,0.00462916028,-0.00627452135,0.00442898739,-0.0122634536,-0.0041838265,-0.0219811462,-0.0142972087,0.0130392592,0.00060052186,-0.00951296464,0.004946623,-0.0192065779,-0.0091513535,0.00835779961,0.0233706664,0.000265226699,0.000980087905,0.030488845,-0.00271066721,0.0254371371,0.0419575684,0.0202953685,0.00356531166,0.00343161705,-0.0230235849,-0.00258424017,-0.0373114906,-0.0339630656,-0.0636731014,-0.0203427356,-0.0419820473,0.0037054792,0.0175797287,-0.0104595562,-0.0109960828,-0.00206710002,-0.00117036211,-0.0242525134,0.0224391595,0.0158020109,0.0406406857,-0.0183731951,0.0140354848,-0.0157732107,-0.00819072779,-0.0436808951,-0.0136537068,0.00318238838,-0.0153682213,0.00264501479,0.00388793112,-0.00031717919,-0.0171456467,0.00488425512,0.002935556,0.0127711566,0.0296832491,0.0412274487,-0.0148522286,0.00430763839,-0.0435315594,-0.0414668545,-0.0284991786,-0.0358199775,0.0232938379,0.00420557661,0.0314424895,-0.000475277397,-0.0104934257,-0.0353361107,-0.0122730946,-0.0134251518,-0.0120834988,0.0274251364,-0.00335565978,-0.0175591875,-0.0280969162,-0.00774100516,-0.00294957031,0.0111237038,-0.0390255526,-0.0290110055,0.0115333218,-0.000916367222,0.0112561733,0.0307452623,0.00769345555,-0.0094017731,-0.0175789595,0.00532706408,0.0349522755,0.00441483362,0.00398728577,0.025615925,-0.023764696,0.00772525463,0.0176795591,5.45389739e-05,-0.0224326253,-0.0347032435,-0.0139970621,0.0287355445,0.00391868548,0.00656418502,-0.00974458363,-0.00562828407,-0.0166431777,0.00364692882,-0.00330370874,-0.0290507544,-0.0264153685,0.0186800603,-0.0269841887,0.0108494423,0.00588564482,-0.0234406032,0.0324505419,-0.00381413335,0.017609356,-0.0134516079,-0.0204736926,-0.0341633968,-0.00831137132,-0.00385662401,0.00809914432,0.000493826985,-0.0378801897,0.0350612998,-0.00649225526,-0.0245865677,0.00696365954,-0.0288958978,-0.0172210354,0.021403281,0.00959184393,0.0198420994,-0.0204973426,-0.00958019495,0.0187021308,-0.0157103874,0.0259775463,0.00450899219,-0.0131256124,0.0147118298,0.0146492636,-0.00919089932,0.0246350244,0.0265171062,0.0230734795,-0.00691855792,-0.0170802753,0.00350510119,-0.00650144322,-0.0316033587,0.0167726073,0.00330908713,0.0177221633,0.00868517719,-0.0161387045,0.00976432301,-0.0316019431,0.0357855074,0.0243756548,0.0355430357,-0.0287683718,0.00351005746,-0.00835074857,-0.00731173391,0.028239958,-0.0221406072,0.00615885528,0.00752810203,-0.0361390747,0.0238753818,0.0183284711,0.0120619629,0.0105214389,-0.00212776777,0.0271297898,-0.0354133509,-0.0048252428,0.00812143926,-0.000423455756,-0.0153709333,0.0458823852,-0.0100442488,-0.010905087,0.00509336684,-0.0251828264,-0.0212050322,0.00712776417,0.0246751141,-0.012764249,0.0112557495,0.0126430094,0.0164506398,-0.0105128083,-0.00233175489,0.0399479158,0.023339374,0.00269147567,0.0203029532,-0.00909152813,0.0166315418,0.0173339862,0.0344505049,-0.00777596096,0.00851887651,0.0310443267,0.0277256928,-0.0355963632,0.00234594522,0.0152210789,0.0476344153,0.0213468075,-0.0137114013,-0.0294858515,-0.00535549922,-0.0140871843,-0.0358253941,-0.0282035414,0.0267173238,0.0162424278,0.00125724578,0.00196375744,-0.0346670635,-0.0145012569,-0.0131202787,0.0241759196,0.03405324,0.00972552598,-0.0235876124,-0.0111251138,-0.0230316911,-0.00817677565,0.0138038378,-0.0145590771,-0.00945572089,0.0213490333,0.00816377532,0.0016678333,-0.015641965,0.0133521445,0.00602872018,0.0271357074,-0.00172255246,-0.0100080715,-0.00575983012,0.0176794473,-0.0160340667,0.00835722405,-0.015650915,0.0131956385,-0.00877253711,0.0447132587,-0.00443372875,-0.0242808145,0.000555443752,-0.00955789443,0.0336340778,-0.0380493253,0.00182697526,-0.00364495395,0.0140231382,-0.00402264344,0.0266871843,0.00432505133,-0.0193369631,-0.00638297712,-0.0118851168,0.00487506995,-0.0293102879,0.00393340457,-0.0168493222,-0.0103011699,-0.00305711967,-0.00559771992,-0.00877375901,0.0238790642,-0.0324013941,-0.016758088,0.028454205,0.025953168,0.00929891784,-0.00607537199,-0.020765584,0.00416996097,-0.0020353978,0.0146095008,-0.00715808664,-0.0151069984,-0.00322633609,0.0358513482,-0.0131943496,0.0148197412,0.000152531706,-0.0106577957,0.04055994,0.0257038139,-0.00289358129,0.00229704473,0.0132954521,0.0149431443,0.0153078437,-0.00603311276,0.00304960925,-0.00966439955,0.0250340048,-0.0322325826,0.000612608972,0.013539481,-0.00387136149,0.0172775965,0.00807874277,-0.0163579043,0.0150928497,-0.040383935,-0.0202344134,0.00561505603,0.040128693,0.00381042203,0.0053266692,-0.0144506693,-0.032588724,-0.011698273,0.0273107402,-0.00504646543,0.00192074,0.0137421722,0.0358629711,0.0052720448,-0.0042367531,0.00402177218,-0.00916170422,0.0280219391,0.00933284406,-0.00738362176,-0.0101424726,-0.0278878827,-0.00168733671,-0.0182254445,0.021417629,-0.0112007819,-0.0135564301,-0.00784143154,-0.0182485413,0.0451139137,0.00616386114,-0.00229964033,-0.00396544067,0.00358419935,-0.0204854961,0.0119658038,-0.0141535951,-0.00948430877,-0.00663308287,0.0301876701,-0.0239594951,-0.0583939739,-0.0263174791,-0.0244557392,-0.0033087479,0.0136172902,-0.0505063869,-0.00350890658,-0.0052670124,0.00838939101,-0.0469061807,0.0206573904,-0.00129991455,-0.0158086102,-0.00966640841,-0.00637419708,0.0221620388,-0.000763522752,-0.011562909,-0.0117128575,-0.0211265702,0.0258292332,0.0137615884,0.00288407831,0.000600443978,0.0323375016,0.0153246038,-0.00663173012,-0.0188683942,-0.0250377841,0.00812652707,-0.0385982022,-0.0279503427,-0.00210531428,0.0224175807,-0.0263606664,0.0185770895,-0.0135815032,-0.0194237884,0.00729094725,0.0130216824,0.013020115,-0.00499983225,0.00379107101,0.0038594252,-0.0103964061,-0.0183510166,0.0026716711,0.00120013196,-0.0132981464,0.0295124166,0.00277916784,0.0363725349,0.00846123043,0.00791098177,0.0374888368,-0.0351072177,0.0166291129,0.0222737137,-0.0290370509,-0.0150678819,0.00618636794,0.0146209402,-0.0204569548,-0.00230474118,-0.0475629233,0.0208184123,0.0190525297,0.00603551092,0.000724076701,-0.00114824506,0.00736173987,-0.0201099962,-0.0126619693,-0.0391882882,-0.00553674623,0.00525820162,0.0275681131,0.0292822421,-0.0374041684,0.0145423142,-0.0198233463,-0.0298885833,0.0236713327,-0.0110957623,0.0345597006,-0.0111530432,-0.0292645302,-0.0280697532,-0.00424239086,-0.0192912258,0.00937611703,-0.00251279725,-0.0226439442,-0.00510492688,-0.00938949082,-0.0351759791,-0.0426088795,-0.00305914064,-0.0214650165,0.00204956252,0.0269672815,-0.0104085142,-0.00339324563,-0.0369481407,-0.00620425213,-0.0183351375,0.0152154053,-0.0269010607,0.00497505488,-0.0158374682,0.00581183517,0.01925979,0.000981678837,-0.0153487409,-0.0192310791,0.0298883859,-0.0210825335,-0.0209582653,0.0189161561,-0.0123485886,0.0147097409,-0.00370635954,0.0374020264,0.0128697809,-0.0141643779,-0.00863128994,0.0111713763,0.00946491491,0.00441897009,-0.032366395,0.0180935021,0.0386269838,7.45733723e-06,-0.0214283671,0.00164932036,-0.0185375921,-0.00790291466,0.0032383888,0.0229528192,-0.00342549011,0.0380662195,-0.027291283,-0.000778982823,0.0226934347,-0.024162747,0.0162478145,-0.00858325139,-0.00297169923,-0.0141056729,-0.00560117094,-0.00269706687,-0.00293147564,-0.00976190995,0.02037156,5.99232735e-05,0.0171059836,0.0185006503,-0.00559999514,-0.0196825322,-0.00161408691,0.0123727126,-0.0412134193,-0.0293922778,0.0350916833,-0.00699230283,-0.00115638808,-0.01721997,-0.0102177495,-0.00210548122,0.00753090763,-0.00410841918,0.0242055263,0.0189840365,0.0171112828,-0.0190156735,0.00306520611,0.0232223067,-0.000883276341,-0.0309051182,-0.0241333786,0.00332732289,0.0249627344,-0.0098177623,-0.0229851697,0.0237887111,0.0105416607,0.0130183147,0.0205463804,-0.0187233668,0.0256979596,0.00439544627,0.0106184054,-0.00785523374,0.0196228027,-0.010861381,0.0277644414,-0.0268559735,-0.00870975107,0.0381188691,0.0184769463,0.00749039091,-0.0146302367,0.00854720362,-0.00371561339,0.0244821422,0.0221887268,0.012219158,-0.0219120048,-0.0555218719,-0.00172136514,-0.00885314029,0.0435052998,0.0385867953,0.00944489241,-0.0108300252,0.0111316917,0.0321740657,-0.00624766992,-0.034635067,-0.0280348752,0.0148559604,-0.00663215248,0.0336849466,-0.016581649,0.00524536194,-0.0305400249,0.0170468204,-0.0106178243,-0.012991677,-0.00118808763,0.00114968582,-0.00314816413,-0.0195867717,-0.00684416154,-0.0348299928,-0.0096979728,-0.00698694773,0.0299658179,0.00221281452,0.000173351596,0.0056949053,-0.00907334592,-0.0273924135,-0.0161839239,0.00591369718,0.0241460763,-0.0308399107,0.0169339254,-0.00409018667,-0.0206173602,0.00809312239,0.0124709234,0.00852273777,0.00671647256,-0.0188966226,0.00850871578,0.032738924,-0.00347334053,-0.0186333768,-0.0393792056,-0.00636259699,-0.00921211299,0.0184728391,-0.013488899,0.00472419104,0.031574484,0.0253322143,0.00826656539,-0.00657537812,-0.026642492,0.0417673849,-0.00412015896,-0.024562465,-0.00508120982,0.0102363192,0.00965658575,0.00161540962,0.0127478372,-0.0146828862,0.0149942096,-0.0238156058,-0.0206839219,0.00508232834,-0.0210744571,-0.00891124737,0.00465571694,0.0250393599,0.00658107456,-0.00976174884,-0.0221238937,0.00335181924,0.0319366977,0.00302873249,0.00468322076,-0.0198643506,0.0108186211,-0.0479805842,0.0313338488,0.000797893968,-0.0200674497,-0.0143234646,0.0124533437,-0.042362798,-0.0193526093,0.00873020478,0.0238634385,-0.000987396808,0.014249403,0.00126194477,-0.0204064492,-0.0178778097,-0.0369918086,-0.00942759216,0.0133134397,0.0199684147,-0.0209742021,-0.0116759222,-0.0340625681,0.00453882385,0.0108326217,-0.0177945625,0.0206637662,-0.0343243591,-0.02535736,-0.00328371464,0.00058818527,0.0162715651,0.0107124764,-0.0133347437,0.000115594237,0.0212224815,0.0050854967,-0.0350845903,-0.0191574227,0.00854580943,0.00488152402,-0.0170785636,0.00363699254,-0.012519368,-0.00417656871,0.0158109888,0.0273515843,0.00055115018,-5.94126504e-05,-0.0124553181,-0.0136568593,0.011358846,-0.031126963,0.027160354,-0.0132470615,0.0399491042,-0.0234253313,-0.0162555221,0.0154318698,-0.0127060749,-0.00494255731,-0.00244878326,-0.0121962326,-0.0137286875,-0.0126324361,-0.0230743568,0.0579524301,-0.0244685505,0.0337988473,-0.0300495308,0.0213590078,-0.0228599906,-0.00231576851,-0.00444447109,-0.0167076271,-0.0240438785,0.0247074533,-0.00846932922,-0.00406702701,0.0254067406,0.00539758336,0.0134257413,-0.00524341175,-0.00397639163,-0.0404098742,-0.023282541,-0.021119263,0.0114613278,0.000909413677,0.0194109306,0.0320903435,-0.0201412532,-0.0079127131,0.0444782041,-0.0370737575,-0.011100118,0.0155280214,-0.0606854372,0.00559832761,-0.0169645362,0.000637251302,0.0293587837,0.00108177855,0.0359269008,0.0164364297,-0.0143297845,-0.00697481632,0.00716437632,-0.0112630865,0.0202567074,0.0570410676,-0.0273366533,0.0129678678,-0.00498337392,-0.0061599887,0.0284357369,-0.00403095363,0.020131629,0.0218006205,0.00743312947,-0.0185245648,-0.0152354026,-0.00658495585,-0.00320525724,0.00414148811,-0.00750876032,0.041166313,0.0306743905,-0.00118707307,-0.00512163574,0.00366662233,-0.0226624459,0.00993712246,-0.0336577371,-0.0392308868,-0.00373857957,-0.0116171818,0.0299858395,-0.0452809669,0.0277884696,-0.0105792591,-0.00598309608,-0.00838429574,-0.0277944505,-0.00202046428,0.00726407813,0.00671329908,0.00544166425,0.0277745407,0.0258281566,0.0196858123,0.00506892381,-0.00516272103,-0.0250507277,-0.00219352497,0.0100758197,-0.000646326283,0.00357847475,0.0100873597,0.0161239952,0.0202816539,0.022924142,-0.0173127856,0.0154506359,-0.0279271733,0.0210121013,0.0183557943,-0.00767057203,0.0101686474,0.0206241477,0.0138771031,0.000710261462,0.0229211785,0.0270456411,0.00216419762,0.0380926989,0.00399858737,-0.0276459381,0.0310700219,0.0374996886,0.0193624329,0.0133821433,0.0211451016,-0.0249427985,0.0226201657,-0.0029341504,0.00382668688,-0.0128651066,-0.0285090916,0.0019407646,-0.0278929546,0.011355794,0.00618406897,-0.0124992235,-0.0276313629,0.0176686458,-0.00697108358,-0.0262904074,0.0315982364,-0.0127296764,0.00336780865,0.030217601,-0.025450971,0.0173400585,0.0129504222,0.0348685607,-0.00155282393,-0.00453574862,-0.0164831579,0.0095774103,-0.0149704227,0.0181958117,-0.0183379482,0.00230438891,-0.0055002002,-0.00462603802,-0.0176603366,-0.0131840967,-0.0133027649,0.00714804465,-0.0306027401,-0.0226100534,-0.0577567145,0.00494904257,0.0326789171,-0.0144086396,0.0160973966,0.00253782235,0.00595373521,0.0101086069,-0.00390425394,-0.00745128375,-0.0319118537,-3.41815576e-05,-0.00234935083,-0.008595502,-0.00235546473,-0.0417484269,-0.0438620895,0.0199782662,-0.0430820473,-0.0362393744,0.0278103985,0.00830161478,-0.0238973331,-0.00720010372,0.0347008817,-0.010361352,0.0103220688,-0.00249921251,-0.00321988063,0.0439044088,0.0137336105,-0.00602911739,0.000665529224,0.0195004083,0.0137358997,0.00813344028,-0.0177664291,-0.000956080214,0.0298583377,0.00476693781,-0.0250950065,-0.0222828686,-0.0276399609,-0.0114595545,-0.0259443,-0.0112817604,0.0207347572,-0.0119894072,-0.00028268504,-0.0131545244,-0.00297098351,0.0136866504,-0.0151283955,-0.0315197334,-0.00171827292,0.014799159,0.013273037,-0.0210097972,0.0341430306,0.000195782108,0.0195009392,-0.0220047142,0.0128508694,-0.0200044103,-0.0301046129,0.00728079677,-0.00821352378,-0.00231260038,-0.0240078233,-0.0102666523,0.00684003439,-0.00659416523,0.00717691099,0.0170211531,-0.00724844728,-0.00373012805,0.0142623624,-0.015456534,-0.00324437511,0.0104039656,-0.00793223735,-0.00230796612,0.0222317427,-0.0200082753,-0.0482219346,0.0175252594,0.0016790923,-0.000960856152,-0.00811205246,0.0377575904,-0.0380387083,-0.0172970258,0.0150986565,0.017452443,-0.0209981129,-0.00150968181,-0.00278443098,-0.00416302588,-0.0209668893,0.018756846,0.00310804485,0.0167766493,0.00808455143,0.0216529779,0.0107130315,-0.00542858662,0.0131923575,0.00541088032,0.0069012926,-0.000547079486,-0.00193439052,-0.0177857988,0.0030901276,-0.0104754996,0.0244333334,0.0117794191,-0.0139122624,0.0170547571,0.0051425132,-0.0404102206,-0.015437481,-0.00668845326,0.00699434802,-0.020964982,0.00309139956,0.021646034,0.0165940206,0.0102379974,-0.0249321386,0.0453246012,-0.00584200118,0.0170323495,-0.0202800725,0.00360523979,-0.00095090433,0.0053861998,-0.0215774607,0.0104176039,-0.000654675649,0.0133658685,0.00682701217,-0.0199688636,-0.0102037583,0.0185324717,-0.00716429343,0.0120879458,0.0176390354,-0.0187670123,-0.0199834611,-0.0117987264,0.000489791331,-0.023100907,-0.0101816291,0.0193402432,0.0107899914,0.00994419493,0.0265868753,-0.0442647673,-0.00948535558,0.0327931382,0.0250924826,0.017628571,-0.0172258653,-0.0265294705,-0.00189722772,0.00882410072,0.0303726159,-0.000170685278,-0.005780512,0.0227441639,-0.0210877508,0.00434684753,-0.030323796,-0.0216519106,-0.0381261967,0.007471452,0.00761564728,0.0102529181,0.015002423,0.0087118661,0.00168793125,0.0271253791,0.0122180153,0.0171420146,-0.00103501778,-0.000922882929,0.00969137903,-0.0407497287,-0.0099108601,0.00645255018,-0.00683987606,-0.0207299609,-0.0120543707,-0.00477935234,0.0245700646,-0.0268233865,-0.00971955899,-0.000178056696,0.0298872385,0.0149376877,-0.00286675896,-0.0300964937,0.0033305597,-0.0202319697,-0.00985182635,-0.0168917347,0.00943431072,-0.00333102047,-0.024218237,0.0431894772,-0.0206422321,-0.00993509497,-0.0329329856,0.00807736348,-0.0148048541,0.0275345836,0.020231802,0.0128718726,-0.023248231,0.00759502826,0.0127316583,0.0169667229,-0.0224137772,0.0251441598,0.0073044044,-0.0378152281,0.016606424,0.0329350121,-0.000201033559,0.0254468434,0.0362881087,0.00445721159,0.0261768457,-0.00600918755,-0.00249041594,-0.0222835653,-0.00840733666,0.0236022826,-0.00790106691,0.00364881544,-0.00486265216,-0.0114029199,-0.000310794188,-0.00140931364,-0.00434192969,0.0224367082,0.0299322624,-0.0268604532,-0.0129338307,0.0172008984,0.00797804352,0.0135836788,0.0126879495,0.0233330298,-0.00985068921,-0.00697773788,0.0143956803,-0.00771694956,-0.016953703,-0.00742871268,0.0120106908,-0.00156167173,-0.00181905623,-0.0138205867,-0.00295380829,-0.0011270016,-0.00745365163,0.0257800911,0.0083861528,-0.0183579959,0.0183729697,-0.000273079582,-0.010238966,0.0279267896,0.00499402126,0.00380961481,0.00103858591,0.015158101,-0.00852743071,-0.00436301716,-0.00940070115,0.0250970908,-0.0230759028,0.00733040133,-0.00275227265,-0.0331298001,0.00605018437,0.0113835074,0.00965284649,0.00765804108,0.00217333017,0.0163912177,-0.00230448041,-0.000661246711,0.0194320418,0.0202780236,-0.00484454911,-0.0157019626,-0.0248630662,0.0131581957,0.0001123646,-0.0168015137,0.0400964282,-0.0266520288,-0.0107541252,-0.00021767932,0.0271946974,-0.00744466623,-0.0128762098,-0.00514583103,0.00952232257,0.00505651068,0.0069271652,-0.00498156669,0.0108436747,-0.0320942961,0.00814268086,-0.00766875548,0.00276858266,0.00525781838,-0.01438912,0.00180898106,0.046383094,0.0100840712,-0.00857752375,0.00573877338,0.0063885604,-0.0162894055,0.00292794709,0.0128138019,-0.00999667309,-0.000198535578,-0.0181521326,-0.0251098126,0.0123103531,0.0256362334,0.0218579676,0.0165283959,-0.0379020274,-0.0391982123,-0.00722704409,-0.00787947234,-0.0206006337,-0.00650211936,-0.0193452481,0.000570409931,0.00952013023,-0.0121564884,-0.00416837214,-0.0141578075,-0.0202561468,0.0182200987,0.0139163742,0.00100329204,-0.018276019,0.012212635,-0.0210098047,-0.014519657,0.00500789564,-0.00199433602,-0.0176306646,0.0371747166,0.00141565665,-0.0167502128,-0.0159574263,-0.0406940207,0.0100584924,0.00294631603,-0.0129904365,0.0112250084,0.0132146161,0.0204570498,0.00208469969,0.0064757131,0.0146448789,-0.0275227632,0.0126597518,-0.00490406249,-0.0365813822,-0.0045389994,0.0265402142,-0.018260397,-0.00481906952,0.0185904037,-0.00202692556,-0.0160507169,0.00736242812,-0.0176325496,-0.0253158286,0.0201718472,0.00264875824,-0.0375030302,-0.0190742556,0.00807217322,0.0101665398,0.0176028199,0.00777265849,-0.00566638587,0.0101152072,0.00821174122,0.0391475186,0.0342542753,0.00669746939,-0.0205178764,-0.0220376793,-0.0132954475,-0.0168005209,0.0132128568,-0.00356177357,0.0102400091,0.00497410959,-0.0167205185,-0.0371227115,0.0214193463,-0.0414733253,0.0205932632,-0.00110969634,-0.000944575004,-0.0156413093,-0.0370460488,-0.0257130042,-0.0283508562,-0.0465644449,0.00871556718,0.022465935,0.0137894237,-0.0211164188,0.0230350848,-0.043853078,0.00725289248,0.0103516076,0.0329391584,-0.0332625993,0.0237731673,0.00228633173,-0.000700831995,0.00780835515,-0.0356368832,0.0079649128,0.0146303372,0.0333827138,-0.00246333121,0.00406444259,0.0362659991,0.0203165058,0.00301824091,0.00687514711,-0.0136114974,0.0143681122,-0.014535143,0.0264750998,0.011470438,-0.0206171181,-0.00279365503,-0.00132451428,0.00335799064,-0.00949644111,0.00908307824,-0.00729249325,0.0113018919,0.0459261537,-0.0467770956,-0.00619552052,0.0193869583,-0.0218142439,-0.00076736632,0.00870291702,-0.00724984333,-0.000854253827,-0.0311978906,0.00570066925,0.00879530795,-0.0223927889,0.0197111834,0.00686954893,-0.00277750567,0.0168236271,-0.0196824558,-0.0233635772,-0.0222795531,0.0180623941,-0.00880037528,0.02144254,0.00122209743,0.0171152391,0.00501231942,-0.0161382463,-0.0178578142,-0.00786042865,0.00288280472,-0.00592512079,0.0195933618,0.00189881586,0.0138651775,0.000979858567,0.007536327,-0.0071010082,0.0144239962,0.0215344615,-0.0169578362,-0.00523782056,0.0080642784,0.0100151608,-0.0101077408,-0.00131108868,-0.0243885107,0.0150133083,-0.00488495827,0.0102594811,0.0459946729,-0.0328673683,0.00844952278,0.00645395741,-0.0166747272,-0.0198016874,0.016593378,-0.0014748096,0.00351893506,0.00983471982,0.0290559568,-0.00704967137,0.0149901006,0.0103497515,-0.00877553597,0.0186493639,-0.0398455784,-0.00682274392,0.0329986066,0.0211704504,0.0286093112,0.0202811211,-0.0237675253,-0.000121043799,-0.0290769506,-0.0120031238,0.00942089222,0.0126727223,0.0115876319,-0.00391472504,-0.00588342734,-0.00393015565,0.0263560582,0.0243485477,0.0265694279,0.00483760703,-0.00358398375,-0.0110808592,0.000215426626,0.0330062062,0.03045398,0.0145240407,-0.0183074232,-0.0123246359,-0.0206288286,0.00851419661,0.0288793314,-0.0125856753,-0.0193104353,0.00041539548,0.0161166396,0.00446133269,-0.00211007288,0.00998058915,0.00622080779,0.0150429057,-0.0188150089,0.0134054832,-0.0140377991,-0.032640785,-0.0261480231,0.0295582451,-0.0290856734,0.00721246423,0.034086898,0.00266907807,-0.00625733612,-0.00980417989,-0.0254718289,-0.00347967073,0.00933954306,-0.00746548641,-0.0266987905,0.016720213,-0.00166643434,0.001269717,0.0077859736,0.00636863988,0.00636969274,-0.00814926811,0.0301853623,0.00398325128,-0.0136462878,-0.0297577232,0.013253402,-0.00391510688,-0.0239849649,-0.03498156,0.00332843047,-0.0225916263,-0.00266348408,0.0239271913,-0.011709624,-0.0271169059,0.0247596689,0.0291343331,-0.00804875884,0.0308889057,0.0152701149,0.0260352511,-0.0250627231,-0.0137388287,-0.00512709888,0.0142066116,0.00210049865,-0.00852617621,0.00651538372,0.0402115248,-0.00972886942,0.0175899938,-0.00281706452,0.0283542126,-0.038168326,0.034867879,-0.00550967362,-0.0222107023,0.0332874879,0.0241083745,0.00282034441,-0.0127061717,0.0340833627,0.01741012,0.043461021,0.0123258727,0.0335431956,0.0384093001,-0.0223072562,0.0395582728,-0.0369011611,0.0208928287,0.00299013034,0.0149661498,0.00563370017,0.0268890467,-0.00984889828,-0.00354862376,0.0072417031,-0.0185775701,0.00560490415,-0.0456885882,0.0116821527,-0.00206270884,-0.0350841358,-0.00270253792,0.0324289575,-0.00703540118,-0.0165632851,0.00738951797,-0.0141566359,0.00657207891,-0.000738425821,0.0162856244,-0.0246669613,0.0050282008,-0.00765407132,0.0388771929,0.0154141746,0.00304200849,0.0262703393,-0.0231087804,-0.0211928859,-0.0118391486,-0.0263498556,0.0104804635,-0.00398561312,-0.0130138528,0.0204395819,0.000212681902,-0.0191457253,-0.0169564467,-0.00260427012,0.0248455666,-0.00492983498,0.0133586265,0.00064842304,-0.0469302274,-0.0069714617,-0.0038311535,0.0275977682,-0.0395350195,0.00246595917,-0.00658565341,0.00488239015,0.0029942554,0.0429614298,0.00486869784,-0.00613338593,0.0277464483,-0.0263005886,0.0223452374,-0.0139200743,-0.0116346879,-0.0205045436,-0.00162424101,-0.0144170793,-0.0247440618,-0.0211000443,0.013166287,0.00940472912,-0.00544748409,-0.00543482462,-0.0306695793,0.012677459,0.00221176143,0.026824031,0.0266230963,-0.0031837814,0.0136650968,-0.00368872238,-0.0205417443,0.00161950663,0.00329272938,-0.0110005401,-0.0532268025,-0.019991789,-0.00743306149,-0.00161177805,-0.0358900018,0.00953359343,0.0232396517,-0.0374387316,0.0395180807,-0.00276646926,0.0147805791,0.0135162985,0.030637376,-0.0142745953,-0.0216637272,-0.0318915844,-0.0146587342,-0.0236904025,0.00939736329,-0.0214493144,-0.0132982926,-0.0312637761,-0.0210752431,0.000974018825,0.027847996,0.0451973751,-0.0374536477,-0.026006192,0.016051285,-0.00395380799,0.00807802193,-0.0128696728,0.0110407611,-0.0139633678,-0.0398191363,0.0172837153,-0.00297754095,0.0246239584,0.000243751754,0.00209513167,0.0232060086,0.00806989428,0.0759889558,-0.021015035,-0.00353108929,0.00248964527,0.00833829399,-0.0383260958,0.0281479917,-0.0103812451,0.0105404258,0.0468089804,0.000355022174,-0.000840771711,-0.0120569225,0.014753025,-0.0183227602,-0.0227170773,0.00246530585,0.0316412374,-0.0106722917,0.0171762854,0.00635441765,0.00533174071,0.0482437611,-0.029913146,0.00019939334,-0.0107376156,0.0275949277,-0.0121757574,0.0109810969,0.0069873333,-0.056060493,-0.0188601185,0.00346882758,-0.0315976627,-0.00676472345,-0.02798157,-0.00316035165,-0.00689886743,-0.0151300756,-0.0248210952,0.0046955822,0.0184681043,0.010644896,0.0128702065,-0.00283321203,-0.0110838423,-0.00530203432,0.0137605546,0.0121905105,0.0253557507,0.0046942723,0.0158193745,-0.00461604772,0.00325756031,-0.00860443618,-0.00742361369,0.00010691677,0.0242973845,-0.0104166986,0.0186917465,0.0110009992,-0.00847604871,0.0316363536,0.0369639583,-0.0128484461,0.0139224967,-0.0111266868,0.0217704214,0.0318592042,0.0256598778,-0.00181978464,-0.0252293739,0.0287307706,0.0184118692,0.00791843235,0.00942967553,0.0132030891,-0.0119352639,0.00329122809,0.0104431547,0.00112438772,0.00307750376,0.0326137468,0.0147492858,0.0118011069,0.0085467305,-5.53222235e-05,-0.0159236882,-0.00332169794,0.0234717801,0.0165184978,-0.0170799922,0.00535675324,-0.0168585088,-0.00714738108,-0.0208555646,-0.0223179925,0.0130294487,-0.0296155233,-0.013420471,0.0345705636,-0.00769609492,0.018368898,0.0183663275,-0.015561711,0.0332695134,-0.0370841771,0.0155411428,-0.0063524982,-0.00544191338,0.000876406615,0.0133025162,-0.0167173222,0.0175886471,-0.0143487705,0.0333640464,0.00424628891,-0.00662919506,-0.0298554655,-0.0305847451,-0.0180154331,0.019029947,-0.00682521937,0.0175692234,-0.00795215555,0.0154714044,0.011117829,-0.0111996653,-0.0166934598,0.0121866101,0.0169034377,0.0389904417,-0.0517162457,-0.0102148121,-0.0102135092,-0.0252606645,-0.00786773395,-0.00429406576,-0.0296822097,0.00941311661,-0.00290641957,-0.00093738368,0.0139122177,0.024719622,-0.0111702299,0.00307094865,-0.00962891337,-0.00851378962,-0.00152626808,-0.0208642501,0.0224967375,0.0281571839,0.0271473303,-0.00586731127,0.0321798548,0.0158213377,0.0188440625,0.0157866944,0.0258943066,-0.00441706274,-0.0218934864,-0.0185252242,-0.029578954,0.0171123259,-0.00602555694,-0.00511943083,0.0289979167,0.00924719032,0.0316153541,0.0168045182,-0.0296407696,-0.0204366557,-0.0165400486,-0.0198899209,0.0288672969,-0.00561298477,0.0181716755,0.036314711,0.0196118318,0.0141374171,0.00902410317,0.0174737647,0.00122544088,-0.0152886938,-0.0229145028,0.00773717696,0.00854051765,0.012417377,-0.0304494631,0.0154247945,0.00515082385,-0.0202117004,-0.00841649529,0.0175996423,-0.0039995024,-0.00981079601,-0.00782124233,-0.0375933014,-0.0196304135,0.000896758342,0.0102628255,-0.0151357828,-0.0157619305,0.00349333789,-0.0192688648,-0.0306304488,0.0276316348,0.0173277538,0.000714624359,-0.0158871859,0.062039841,0.0102623701,0.00261420337,-0.0107038449,0.0177537929,0.0204043426,0.0066095381,0.0159316752,0.0200890135,0.00604470121,0.0341930948,-0.0163878221,-0.0107898666,0.039981313,0.000912236574,0.0165177397,-0.021344427,-0.0147605725,0.0411180519,0.0119636804,0.0417289026,0.0162046943,-0.0179415029,-0.00786849018,-0.0188008975,0.00476738997,-0.00930753909,-0.0357471444,0.00989277009,-0.000318199134,-0.033073023,-0.0079643596,-0.0216436647,0.0172474664,-0.0137657458,-0.022756245,-0.0402619839,0.0261591617,0.0121535854,-0.0123393191,-0.0181928724,0.00695796357,-0.00759818777,-0.0257935822,0.00683215773,0.0357549787,0.00642939471,-0.0189701058,0.000636795885,-0.0185752586,-0.00369466003,-0.0120075094,0.00333869667,0.00513021927,-0.0197910909,0.012340283,0.0103208106,0.0253469516,-0.0348832272,0.00978647266,-0.0207893513,0.00259661092,0.0228781402,-0.00326424115,-0.00973867625,0.029006619,-0.0269850288,0.00367212831,0.0108202435,0.00488152774,-0.0255228542,0.012388587,-0.000276272855,0.00247767079,-0.0048783673,0.00715247728,-0.0237131044,0.0128795942,0.0162851736,0.00252750958,0.0160419345,-0.0194360483,-0.0168148056,-0.0221661162,0.00135849055,0.0190513991,-0.0140957497,-0.0167402048,-0.0406683907,-0.0217485018,0.011102532,0.00250842213,0.037917275,0.000380754645,0.00137792912,-0.00703411736,0.0138596762,-0.00648422865,-0.0111073432,0.015460318,0.0240600556,-0.0316854678,-0.0177585017,-0.004652353,0.00192476308,-0.00297171134,0.01603394,-0.000869299809,-0.017229706,0.00925743952,0.0023919316,-0.000813802413,-0.00831917487,0.0200740099,0.000639396545,0.022617301,-0.0114255007,0.0185550973,0.00071572361,-0.00566990068,0.0201239418,0.0306036472,0.0208445657,0.0190382544,0.0277028438,0.0171696357,0.0144497501,-0.0218056217,0.0138117727,-0.0352497213,0.0214191973,-0.0159260854,0.0124084484,-0.0119054792,-0.0188420359,0.00833937153,0.0250959303,-0.0116281044,0.00724799838,-0.0197520703,0.0306137074,-0.00441930071,0.0435892902,-0.0124899568,-0.0107249143,-0.00123537169,0.0350127518,0.0186309293,0.00932040997,-0.0290039051,0.0194700044,0.00778737897,0.019531142,-0.0102506038,0.00373533787,-0.0100258905,0.0365137346,0.0222194586,0.000250271696,-0.00612468226,-0.0516596958,-0.0313795023,0.0015842577,0.0164269544,-0.0488270111,-0.00283473218,0.00340403733,0.000391118403,0.0228933021,-0.0470642596,-0.016225338,-0.0353773795,0.00460767141,0.00165489374,0.0212516095};
static const float W1[] = {0.0158632509,0.00480122399,-0.0230252258,0.00504789362,-0.0131933857,0.000167376391,0.00513667474,-0.0187435113,-0.0298536606,-0.000632634677,0.0381602719,0.00550012384,-0.00541958911,-0.0175869074,0.0160398148,0.0132265426,-0.00270954473,-0.0166812483,0.00944340415,0.021224482,0.000104974752,-0.0178397615,0.016716389,0.022335982,0.001725437,0.00619855151,0.0311987866,0.0113233076,0.00473906891,-0.0190708842,-0.00180231722,-0.0104265418,-0.0517622456,-0.00377603201,-0.0200937297,-0.0255676378,-0.0102945846,0.00716090901,0.00872908439,0.00476659648,-0.0357294083,0.00131041685,0.00886275247,0.0282681193,0.0317601748,0.0280870218,-0.0255028103,0.0307007693,0.0160931088,-0.0026409789,-0.0167171434,0.0153746009,-0.00516510289,-0.0228896178,0.00733099552,-0.00957069267,0.0237534493,0.00951806922,-0.00521803787,-0.0334010683,0.010401642,-0.00486454228,0.0020072544,0.00968655851,-0.00658212462,0.00659468444,-0.0413350724,0.01248232,0.000400624267,-0.012250348,-0.031193601,-0.0210230034,0.0049681305,-0.0365764759,-0.040027909,-0.0218779016,-0.0188318118,0.00826154836,-0.0171145201,0.00682950951,-0.0415887162,-0.000709356798,-0.00934681669,0.0191346221,0.00146558613,0.00388797047,0.0242867004,-0.0358988494,0.0270460919,-0.0234791487,0.00498625683,0.0240195338,0.0168676972,-0.024493495,0.0354162902,-0.0462621115,0.00474230666,-0.0192859676,-0.0191425551,0.0160910189,0.00861032307,-0.0217838529,0.00463709095,0.00526077719,-0.0200560056,0.0116420751,0.0174632333,-0.0186489411,0.0148150967,0.0110631622,-0.0310253371,-0.017755786,-0.00912867859,-0.00920231361,-0.0184420217,0.0078948047,-0.0326599777,0.00818086881,0.0148189459,0.00929693133,0.00732719339,-0.0021511903,0.0196307488,-0.0418233164,-0.0396710224,0.0201726928,-0.0207363777,-0.0219235439,-0.0144125177,-0.00877639744,0.0397966392,0.0157574899,-0.00424630241,0.0272974055,0.0141290016,-0.00647240318,0.0223256648,0.0249817539,0.0109328199,0.0326399282,-0.00850852206,0.0190130733,-0.0307633635,-0.00899349712,-0.0160340481,-0.00870222878,0.00717634102,-0.00020404,0.00103972456,-0.00178944541,0.00339961378,-0.0234109554,-0.0194714405,-0.019248724,0.0138430903,-0.0121810613,0.0335293822,-0.00264540897,-0.0040070368,-0.0326481089,-0.0210465901,0.0245651696,-0.0287423562,0.0124203116,-0.0129147917,-0.0428416654,-0.0100157699,-0.00814552605,0.0105162151,-0.00644632848,0.0290279724,-0.0160279982,0.0153804682,0.0126884542,-0.0304942224,-0.0369088463,-0.00452774391,-0.000964254257,-0.00536502758,-0.0192682222,0.0179761462,0.00653188815,-0.00658556633,-0.0205987636,0.0128582213,0.00244158716,-0.0123099703,0.0127222287,0.00495619746,-0.0237731524,0.00334449764,-0.00802223012,-0.0085174907,0.0067701051,0.0109432423,-0.00651622703,-0.00337103289,-0.0121036693,-0.0277400836,-0.0210286025,-0.0141621698,-0.0300724935,0.0120123029,-0.0144173102,0.00150997506,0.0126134688,0.0257032793,0.02429986,0.0258646086,-0.0297036767,-0.0306809228,-0.03271598,-0.0432920866,-0.0258112848,0.00471331505,-0.0301430058,-0.00857672933,0.0292708334,0.0251593068,0.00820524152,0.00727638416,-0.0116418106,0.0182965137,-0.0314396434,-0.0153305577,0.0241645817,-0.0141179673,-0.00883633737,0.000390369067,0.0382096991,-0.00909540243,-0.00635791104,0.0120660979,0.0158184879,-0.0025514632,0.0103960913,0.0206877068,0.0226598382,0.00453306595,0.00330926734,-0.000592249096,0.0114513906,0.0375087485,0.00369261578,-0.024126878,-0.0348989777,0.00866386387,0.0161701515,0.00447051367,-0.0109198559,0.0160497464,0.00342419045,0.00187116943,-0.00961416587,-0.0178930238,-0.0358821936,0.0213399231,0.00778804766,0.0158917904,0.0245618355,0.0377544388,-0.0233386178,-0.00154640304,0.00150805828,0.0229278896,0.011985044,-0.0200451892,0.0196001921,-0.000613770739,0.0264177322,0.0372860804,0.0229962338,0.028769983,0.0311126467,0.00779768918,0.0117040798,-0.0174673945,-0.0146227917,0.0141531546,0.0400120616,0.00774338515,0.0335687771,0.00680303853,-0.000105350977,-0.0442450084,-0.0239264555,0.000154627181,-0.0190253258,0.0191228501,-0.0161145348,0.0127601195,-0.0146042937,0.050654009,-0.0280631352,-0.0336850844,-0.00839766022,0.0236160401,0.0341321826,0.0259179268,-0.00600191439,-0.0190403648,-0.0240777172,-0.00995999575,0.0310808029,0.0135328583,0.000726355356,-0.00586302346,-0.00609528273,-0.0108032366,0.00593333831,-0.0210781284,0.0351197757,-0.0241919067,0.00506659364,0.018123107,-0.0255992021,-0.0404752344,0.0157800727,0.0189574696,0.0256101992,-0.00394221582,0.0290783606,-0.0298129488,0.00459806994,0.00129201682,-0.0346307606,0.0297883544,0.0102404794,0.0277116466,0.026779525,-0.0142520508,-0.024992967,-0.0052249562,-0.0327951796,-0.00111342745,-0.00772725185,-0.0176316313,0.00277344091,0.0188622884,-0.00469207019,-0.0147782182,0.00871352572,-0.00513766147,0.00969753973,-0.0211527348,0.0182384849,0.00735284947,0.00370062399,0.00345213432,0.0284104031,-0.00756885577,-0.0248707607,0.0312430281,-0.0262905881,-0.00236312905,0.00860641059,-0.0049314322,-0.0173067339,0.00762197888,-0.0217667185,-0.000315145997,0.023524642,0.00480334973,-0.00478669815,0.0231755078,-0.00761882029,0.00239569787,-0.0219517536,-0.0181333311,-0.00744836684,-0.018312959,-0.00723716058,0.0514908023,-0.00668850308,-0.0118263671,0.0459028818,0.0098026162,-0.0448435619,0.00615414418,0.00734467665,-0.0130277323,0.00917277113,0.0383106135,-0.0290568043,0.0201291945,-0.00926968921,0.0231347084,-0.00510567334,-0.02234919,0.00522956531,0.000322585198,-0.0244213585,-0.000655619137,-0.00825695135,-0.015962746,0.0212792121,0.0234229416,0.0213563312,-0.00877445843,0.0110224253,-0.0300458688,-0.00438895263,0.00290897279,0.00576231815,0.00860637426,-0.0311988387,0.0235929862,-0.00803082809,-0.00305495248,-0.000873933022,0.00565937255,-0.00118064182,0.0151399374,-0.0189600643,-0.0244768132,0.0124671357,0.03860645,0.00210860791,-0.000118269098,0.0225647297,-0.0150116393,0.0180514567,0.00873813685,-0.0214734264,0.0135905119,0.0181162227,0.00406834669,-0.0109544201,0.0132390279,0.0191764273,-0.00894113909,-0.0136473328,-0.0144174276,0.0033905101,-0.00213838229,-0.0042869891,7.64531869e-05,-0.00687047327,-0.0168121569,0.00376771507,-0.0210284535,-0.00680196518,-0.0162002016,0.0319826268,0.0103342189,-0.0133743286,-0.00789214019,0.011346804,0.0240187943,0.00525322231,0.0022659956,0.0158938244,0.0240449924,0.00135014846,0.0238624513,-0.0152535234,-0.00659479015,0.0178404264,-0.0196911488,-0.0336408131,0.00145970134,0.00151503668,0.0118389651,-0.0164488498,0.00761742052,-0.0402849913,0.0346694738,-0.00092025561,-0.0141488947,0.00918797031,-0.0308417846,-0.0345342606,0.0448029786,0.0173461307,-0.00843721535,-0.0417199805,0.0115284296,0.0285953116,-0.00823285338,-0.000613236567,-0.00444610277,0.00683767023,-0.00614308799,-0.00144946249,-0.0240678824,0.0208893977,-0.00104941905,0.00841644779,-0.0176302977,0.0104813445,0.0190831516,-0.00272887456,-0.0123292999,-0.0197063554,-0.0353613272,-0.00816136971,-0.0065295659,0.0012639896,-0.00943661295,0.00553730875,-0.0105502224,0.00339798676,0.0141359186,0.0363905393,-0.00249537453,-0.0218923893,0.0137477368,-0.0245702509,-0.0197437238,-0.021323232,-0.0244875215,0.0151188513,-0.0200425759,0.0101909386,-0.00689508114,-0.00563756283,0.0130158421,0.00145923591,-0.00923597813,-0.00710407551,-0.00375275942,0.0160490423,-0.0260055792,-0.0231862795,0.00276203291,-0.01127668,0.0145169524,0.0144226337,0.00259340391,-0.0124461139,-0.0133759696,-0.0265693069,0.00063405215,0.00221120473,0.0364857055,0.00747385062,0.0146268774,-0.0304308869,-0.00750239613,0.0187942833,-0.0299514867,-0.0123399422,-0.0139626516,-0.00250631524,-0.0109773176,0.00200306508,-0.00537751522,-0.0355130248,0.00750518497,-0.0199654438,-0.0349120162,0.042263709,0.00696164696,0.00661433674,-0.0259358026,0.0129629383,-0.00421213824,-0.0310664177,-0.0071022925,-0.0224152599,0.00860227179,0.035214413,-0.0383704379,0.021701945,-0.0290840864,-0.0325002857,0.0184824094,-0.00869087316,0.0179827698,0.00656967983,0.0004627569,0.0192247108,0.00336972438,-0.0351376496,-0.0305748098,-0.0253728572,0.0430905446,-0.00947589986,0.012802125,-0.000893987832,-0.00624244893,-0.014388673,-0.0358377174,-0.0162013806,-0.0232466497,-0.00599656347,0.0144745205,-0.00939048547,-0.0273269713,-0.0125468327,0.0206334088,0.0226395596,-0.00134622783,0.0279684849,0.00815312285,-0.00599276135,0.00316358311,0.00105621212,0.01160412,-0.0211215355,-0.0207916442,0.00786218606,0.0140086198,-0.00770446286,-0.0111365952,-0.000636088371,-0.00426531769,0.051263392,-0.0225807615,-0.0145355845,-0.00917996559,-0.00524696475,0.0199530534,0.00176539924,-0.020376496,-0.0163088683,-0.0196172409,0.000529510377,0.00236857194,0.00192931993,0.023444457,0.00335719436,0.00554676214,-0.0222978462,-0.039977394,0.0422814935,1.17681611e-05,0.0104511799,0.0238259286,-0.0155971786,-0.0099746054,-0.00977403298,-0.00101936387,0.0168483164,0.00597906392,-0.0285839383,0.00280811987,-0.0114652021,-0.0194222312,-0.0264779497,-0.00142357335,-0.020627901,0.00584670249,-0.00707879756,-0.0117920218,0.0198890939,0.017500082,0.00570639828,-0.025268089,-0.024929354,-0.00190002762,0.0114749754,0.0215047263,0.0126745459,-0.00221513328,-0.0128601855,-0.00228315522,-0.0218214057,0.00251192017,0.000401200668,-0.0129017429,0.0383675359,0.0314556621,0.00379371038,-0.00192074967,-0.00459571602,0.0175469089,-0.0256921817,-0.0232518278,-0.0362569913,-0.0290298164,-0.00123760547,0.0223809686,-0.013952787,0.0388723314,0.0303924549,0.00173677155,-0.0266889688,-0.0174728204,0.0307779536,-0.000936284487,-0.0146240303,0.0202828236,-0.0211942326,-0.00557953585,-0.0190625507,-0.0393389538,-0.00364553812,-0.00655627763,-0.0181811918,0.0100049078,0.00698449649,0.0343541875,-0.0117280586,0.024475174,-0.00245040911,-0.0200655479,-0.0268439259,-0.00487243058,0.0177570209,0.000205042379,0.0221529286,0.000707372848,-0.0135622853,-0.0132984053,-0.0398161747,-0.00228926633,0.00240792288,0.0129681155,0.0186583381,0.0199576523,0.0170989837,-0.0376166366,0.0102155246,-0.00633637374,-0.0208117664,-0.0274238531,-0.0106649837,-0.00109422649,-0.00175762572,0.00843946543,0.00251500448,0.0375102758,-0.0350435786,-0.00908361282,-0.00741292629,0.0188114587,-6.81029778e-05,-0.0122178476,0.0050582909,-0.00937169138,0.00620960165,0.013389661,0.0139736841,-0.00369974459,-0.00305164745,-0.0034937798,0.010962748,0.0166575667,0.00862693135,-0.00649581896,0.0205057375,-0.031398695,0.014034383,0.0236462969,-0.00563506549,0.012678301,-0.0224238113,0.00587907061,-0.00017971771,0.000215920547,0.00969909225,-0.0523714684,0.0543328896,0.0221737362,0.0200186614,0.00186334958,-0.00463407766,0.00181405991,0.00900132023,-0.0105963666,-0.000330258074,-0.0151938098,-0.0254990812,0.0228968114,0.0252273548,-0.0076503465,0.00591695914,-0.0107238572,0.000998906675,-0.00232971995,0.0281109437,0.00585800456,0.0242602509,0.00923573785,-0.00220305496,0.00226711365,0.0235009119,-0.0109222578,0.0250755474,-0.0431347303,-0.0152984727,0.0189131349,-0.0333663635,0.00296956208,0.0037781049,-0.00375640183,-0.0261505954,-0.00592269609,-0.023590846,0.00783232693,-0.0487370826,-0.00536058657,0.00373590621,0.0013342842,-0.026529504,0.00445928751,0.00524599943,0.011136136,-0.0068702572,0.00613351865,0.014439432,0.00907111075,-0.00883995835,-0.0344773866,0.0100595914,-0.0091415206,-0.0263523906,-0.0163048804,0.0140225468,0.0111267446,-0.0165645126,-0.035734266,0.00577757042,-0.0302139651,-0.0100585688,0.0231734216,0.000547654752,0.0210432746,0.00322145922,0.0191087611,0.0141894408,-0.0231759232,-0.00685803266,0.0287197288,0.0257736612,-0.00467769802,-0.0277858842,-0.0128004467,-0.0135087427,0.0250562262,0.0223867428,-9.49676032e-05,-0.0153205069,0.00806519203,-0.0856390744,-0.0113143874,-0.0179374069,-0.00332205975,-0.018700663,0.0226261541,0.00751466444,-0.0173070189,-0.00379970693,-0.000808105222,0.0115376152,-0.0303683542,0.040656548,-0.00134541746,0.00763045251,0.0139396684,0.00149597065,0.0296918079,-0.0385955349,0.0134355426,-0.0115319379,0.0142028183,-0.0283171032,0.020813575,-0.00288435235,-0.0209863018,0.033883553,-0.0356815904,-0.00340311322,0.0447096378,0.0270565487,0.0141542135,-0.0365780927,-0.00961333513,-0.00210980233,-0.0196254794,-0.0142087108,-0.00618541334,0.0136519028,-0.00356450351,-0.0227524899,0.0226320978,0.0131083615,-0.0413849242,-0.0186175853,-0.00133631227,-0.0268972293,0.0119418986,0.00227889093,0.0357334204,-0.00999947917,0.00708959904,-0.00938836113,-0.0138645684,-0.00739231706,0.00879041757,-0.00282845763,0.0171436127,-0.00488284091,0.0173000749,-0.0180942137,0.0136443079,0.0352856964,-0.00685917726,-0.00837257598,-0.0181759093,-0.0232150033,-0.00133446394,-0.0157188121,-0.0087622609,-0.00267456635,0.00743425125,0.00112213078,-0.0153433383,-0.0112022115,0.00639199419,0.00818367954,0.041975718,-0.0144152008,0.0040316279,-0.00945294928,-0.0219471492,-0.0363428183,0.00193476491,0.00819624122,0.0063987188,-0.00789829437,0.00823905785,-0.0110627692,-0.00975386519,-0.00498405285,-0.0236033536,-0.00405964348,-0.00578664057,-0.0234042071,0.000944506959,-0.00296398695,0.00487431418,-0.0167898517,0.0301750898,-0.0185669959,-0.0355165824,0.0281058624,0.0367063098,-0.00246294145,-0.0328065045,-0.0116070434,-0.0204647314,-0.0118692704,-0.0185782146,0.000928174995,-0.00475302478,0.0154677089,-0.0418230519,-0.00188217231,-0.0152248759,0.00983336288,0.0433931537,-0.0258624461,0.00550160045,0.0101957414,-0.0572796427,-0.00992353912,0.0103434771,-0.0275709257,-0.0129209571,-0.0153340418,0.0234550927,0.00656432658,-0.0153796738,-0.00957847014,-0.00070091174,0.0251491331,-0.00307101803,0.00142434484,0.0128533766,0.0142740114,0.0107846837,0.00260391668,0.00419740146,0.00178896717,0.0047333166,0.0146373045,0.0391649343,-0.0159604792,0.00341700902,-0.0209586136,-8.24767412e-05,0.0194853023,-0.021015022,0.00629121345,0.02897113,0.00518061407,0.0184213948,0.0172817074,-0.0187186375,-0.00881773606,-0.0227949787,-0.0120981978,0.0598600358,0.0174761955,0.0139871165,0.00111770211,0.0119765317,-0.0284292623,-0.02694235,-0.0118835205,0.0276553109,-0.0395440608,-0.0180093478,-0.00174841553,0.00536632212,0.0294756219,-0.0060269963,-0.0250476263,-0.00361093483,-0.0142868413,-0.0244345423,0.0180046987,-0.00909640454,0.0410844907,0.00824293867,-0.00825911574,-0.0175292864,-0.00155971176,-0.0319867842,-0.00623901421,0.0357975699,-0.00738771539,-0.00728793535,-0.00901209004,0.0245518256,-0.027113365,0.0107177962,0.0324005708,0.0101295533,0.00855699461,-0.0480066612,-0.0401677415,-0.000676005846,0.0477446727,-0.017696768,0.0142592369,0.0109753134,0.00507001113,-0.0295779817,-0.0364079438,-0.008415455,-0.0259637013,-0.000317823986,-0.00440331781,0.00602429127,0.00191457232,0.00907979347,0.0102525027,0.00987487286,-0.000889438379,-0.0266438294,0.0218041707,0.0190010127,0.0206651464,-0.00857057702,-0.00780877145,0.00211711531,0.00390662253,-0.0337895565,-0.0108477948,-0.000818589469,0.00573252467,0.0219519939,-0.0369159505,-0.0195277892,-0.0243267696,-0.0251471493,-0.00777738448,-0.00686394749,-0.00154525856,0.00642615883,-0.011047557,-0.00982035417,-0.0107038934,0.0254146904,0.0102208555,0.0060573006,-0.00784849096,0.00858076382,-0.000260879257,-0.00109767553,-0.00159885408,-0.026924435,0.00612751395,-0.0398753695,0.0167761222,-0.035436675,-0.00484831911,-0.00588950282,-0.00847514812,0.0118239624,-0.00476379134,0.0152360927,0.0351400524,-0.00113590772,0.00896877423,-0.0177862346,-0.0181864239,-0.0114514837,0.0273336563,0.000331455958,-0.0176917557,-0.0187337045,-0.0141792325,0.0320128724,-0.00304525183,0.00375630497,0.0191738047,-0.0151817761,0.0142395971,-0.00599332154,-0.0104584927,0.0376076773,-0.00588038191,0.00316370232,0.011933961,-0.000432721543,6.70168083e-05,0.0267336722,0.0208497737,0.0035602483,-0.00634034071,0.016023919,-0.0142152235,-0.0327698812,0.00990759395,0.00860560033,0.0545243733,0.0121637033,-0.0222317223,0.0224570055,-0.00308699533,-0.000867993745,-0.00825425331,-0.00757149141,0.0104481187,0.0210063979,0.00978922378,-0.00951409806,0.0112130838,0.0320677795,0.00633923523,-0.0410450175,-0.00240913616,0.011123172,0.0160384905,-0.0076911822,0.0299758147,-0.00512123294,-0.0165772736,-0.00495845592,-0.013172484,0.0141216908,0.0135609601,0.0312600881,0.00683320221,-0.0019884666,-0.0122670447,0.00821948424,0.0287623964,-0.0106472801,0.00506995479,-0.00880482607,-0.0102873612,0.0107669085,0.00504071545,0.0106111597,-0.0138268787,-0.0188200604,-0.00446077948,0.0274834707,0.0418837145,-0.0158799291,-0.030598931,0.0386325791,0.0134874778,-0.0192869324,-0.022958044,-0.00595662836,-0.00752793951,0.00979689416,0.00196085055,0.0196831077,-0.0116293561,0.0086997766,0.0156780817,0.0116381068,0.000946233631,-0.0126089724,-0.0137194395,0.03734155,-0.0268462803,0.0130477184,0.00788461231,-0.0117403036,-0.0133697828,-0.0062292926,0.00345981657,-0.0358219631,-0.025722729,0.00876896735,0.0151023911,-0.0141008841,0.00895571616,0.0462633967,-0.00319884764,-0.0233131386,-0.00825091824,0.00822651573,0.0195909124,-0.0129772238,-0.0172194652,-0.00882712379,-0.034658011,-0.0188046042,-0.00266781892,-0.00876482576,-0.000903820095,0.0012966576,-0.0197407082,0.018185867,0.00256957626,-0.0158859324,-0.0195105076,0.0121866632,0.000369019428,-0.0127669796,-0.00881639775,0.0287027899,-0.00356031675,0.0129751237,0.0202206243,0.0222346261,-0.0126794791,0.0141960774,0.0261063315,0.00740291318,-0.0232282393,0.00995109882,0.0353020169,0.035921488,0.027567327,0.0124225384,-0.0305891074,-0.000784125237,0.0187041126,-0.000608107599,0.00442316663,0.00986891706,-0.0181496646,0.0176908504,-0.0312218666,-0.031743262,-0.0267326515,-0.0192475766,0.00425559888,-0.020305831,0.00276320963,0.0138799343,0.00638081413,-0.0314002708,-0.0248214006,0.0268742722,0.00454091746,-0.0144493673,0.0330334492,-0.0197242666,-0.00368804717,0.0206205752,0.0166177209,-0.0364884995,0.00614553737,-0.00725876866,0.00420603994,-0.0165144708,0.00681937905,0.00723381666,-0.0133628286,-0.00919615664,-0.0224293899,-0.0200586505,-0.0292022154,0.0103208767,0.0188142136,0.0206950344,-0.00915916823,-0.00148124597,-0.0519047193,-0.00824186392,-0.0278309602,0.0141891269,0.00635472219,-0.0213627778,-0.0217907559,-0.0155675421,0.00519718323,-0.0282129571,-0.0078861434,-0.0169489514,0.0385354161,-0.0104053821,0.00300808274,-0.00112775853,0.0303436182,-0.000525215,-0.000958050019,-0.00601449376,0.0287759528,-0.0277225804,-0.00477845874,-0.000513896463,0.013417297,0.00287570013,0.00673042797,-0.000175543202,-0.012446139,0.00682513183,0.0106584942,-0.0257433001,0.0112426588,-0.000457566144,0.0110022426,0.0406872742,0.00820326433,0.0296119582,0.0249361992,-0.0034885034,0.00922588818,0.000297647697,-0.0181718152,-0.000402694452,-0.014353618,0.0113357576,0.0105671855,0.0192463566,-0.0182796307,-0.0227478221,-0.0152051514,-0.009467531,-0.00909705181,-0.0323692895,-0.0212471411,0.0187780894,-0.00234702858,-0.00209624786,-0.021348739,-0.0175320767,-0.0141105568,0.0456771143,0.0143505288,-0.0106694791,-0.0242945421,0.00412765052,-0.0405265652,-0.00197209022,-0.0042606215,0.00664769998,-0.0186665449,-0.0133004878,0.0348332003,-0.0152213927,-0.00288586551,0.0214099549,0.0033798893,0.036420837,-0.00817380007,-0.0225111973,-0.0140644787,-0.00483475998,-0.015523741,0.00677271048,-0.0202043839,-0.0237448178,0.00725521613,0.00998182222,-0.00776574947,0.0176243298,0.0028307389,0.0486515462,-0.0392314866,-0.0453300327,0.00416465616,0.0297878496,0.0187926702,-0.00558731798,-0.0516641885,0.00620870199,-0.0345562473,0.00195680605,-0.000672905182,0.0266249254,-0.0218588822,0.0242883079,-0.020328803,0.0155379688,0.004946806,-0.011527664,0.015357581,0.0314725824,-0.0257221162,0.00178188365,0.00556621607,-0.00719652558,-0.0293353032,-0.0030435957,-0.021285126,-0.0232443567,-0.0182978194,-0.00674195914,0.0382263698,0.0283048712,-0.0358496197,-0.0202228632,0.00314508658,0.0035847621,0.0190302655,-0.00268847262,0.00616062758,-0.0094280988,-0.00462244917,0.00724253198,0.0265475251,-0.012968814,0.00985229015,-0.00354387611,0.00474785082,-0.000963548489,0.0155529035,-0.0183653906,-0.0220571999,-0.00668863393,0.0300134756,0.0238357149,-0.0188043229,0.0272342265,0.0276484117,0.00717322808,0.00246835919,0.0141095053,0.0314255431,-0.00819683261,-0.0112596732,0.00370592438,0.0206685308,0.0453618839,-0.0237499718,0.00547981076,-0.0258799195,-0.0083156582,0.0317446813,0.0125439037,-0.0109911431,-0.00948436279,-0.0280061197,-0.0102761658,-0.0146128424,0.0174361914,0.0212240629,0.0136595629,-0.0278653298,0.0299214087,-0.0263017379,-0.0023871772,0.00708910031,0.0166767985,0.0204718672,0.00792449713,0.0265537165,-0.0060217469,0.0116319368,0.00221770606,-0.0361652076,0.00711512193,0.0212878995,-0.0272288229,-0.0176686291,0.0372384004,0.00428562704,0.00490162661,-0.0145691615,-0.028304819,0.0162126906,0.0140252085,0.00939972512,-0.0133771729,-0.0349673964,0.0128406975,0.0109721217,0.0060547255,-0.00831435807,0.028781509,-0.00453916192,0.00066278904,-0.00729253655,-0.00582914287,0.0180605892,-0.0146992058,0.000677831878,0.00265206303,0.0146433963,0.00825265888,-0.0141351866,0.0420197099,0.0117417173,0.00493116258,-0.00921413209,0.0185200237,-0.0287026595,-0.00407040212,-0.0361693762,-0.0159718189,-0.0247862842,-0.0275723208,-0.010593418,-0.000803267583,-0.0111987004,0.00150329701,-0.011760815,-0.0349864922,0.0462477952,-0.013562113,0.0179657713,-0.00732707325,-0.0256929174,-0.0110005196,0.0042975368,0.0107496744,-0.0145021295,0.0155136185,-0.00159675628,0.0425548628,-0.0159334876,-0.00555227697,-0.0393697359,-0.00848372839,-0.0105890669,0.026671242,0.0120518459,-0.0265910551,0.00385252503,0.00932514202,-0.0120525276,-0.00366916135,0.0195945483,-0.000839175947,0.0194697529,-0.0153389797,0.00200699433,-0.0157860629,0.00756896241,-0.0216156244,0.0155127216,-0.00977644324,-0.0133370971,0.00447294442,-0.0351431035,-0.0112306178,-0.000578879204,0.0197937731,-0.0032501386,-0.0215152744,-0.023368828,-0.00336841843,-0.00265611918,-0.0162083432,-0.0134235555,-0.00132894737,-0.0127897272,-0.0213122293,-0.00171341246,-0.000795267639,0.00707826437,-0.0314034522,-0.00968907494,-0.0247590337,0.0265451111,-0.00386348716,-0.0257939771,-0.00773983682,0.00848154631,-0.0147546511,0.00930727366,-0.00875242613,-0.0435525924,0.0396215059,0.0175850112,0.0215285756,-0.0248523019,0.0408043787,0.00145465857,0.00113714742,0.0102259098,-0.00131728104,0.000523988274,-0.0183072221,-0.0204972625,-0.0125487885,0.00719017489,-0.0041232626,-0.0493123196,-0.0278128609,-0.0214745104,-0.0122984881,0.0144188423,0.00773873553,0.043962121,-0.0346176177,0.0185435135,0.0127809132,-0.0086966278,-0.0144396573,0.0231573079,-0.0189334713,-0.000801175018,-0.00821915362,0.00633616792,-0.0415099524,0.024119122,-0.00491305208,0.00945160352,0.0256323591,-0.0105384383,0.00497975387,-0.00766476616,-0.00367650669,-0.0113947857,-0.0026859527,0.0115478262,0.00308948872,0.0193593632,-0.0310884491,-0.0173346642,-0.010168761,0.0279710069,0.0171307866,-0.0538576916,0.0119687151,0.0101358397,0.00612555724,0.00423136121,0.0172198918,-0.0333257839,0.0189405754,-0.0193958282,0.000553299615,-0.0266441721,-0.0278356019,-0.018581586,-0.0109931212,-0.00684711384,-0.018612802,0.00630083913,-0.0172094088,-0.0196114611,-0.0227510761,-0.00996496808,0.0126889776,-0.0321357287,0.0130333742,-0.0251638666,0.0330707543,-0.0209257696,-0.0109970272,-0.0222751442,0.00676252926,0.000386777247,0.022750387,-0.00574100949,-0.00478008576,0.00635829847,-0.0163421612,-0.00398245035,0.00333779189,-0.0366797559,0.0230311062,0.00383413816,0.0178326741,-0.0288846698,0.00161337177,-0.00935611129,-0.0208258331,-0.00603783224,-0.00773345632,-0.012744599,-0.0284141507,0.0132002272,0.0104641141,-0.0221985448,0.0181626417,0.00523196487,-0.0263560098,0.00523232995,0.0169790424,0.0102319,-0.0363560058,0.0342243426,0.0338196754,-0.00905105844,0.014398424,0.0150005436,-0.00109798869,-0.000906653178,0.019281324,0.0282028336,-0.000488692604,0.0185089242,0.0178636592,-0.000156330774,-0.0123317288,0.0157137886,-0.0181954484,0.0247485247,0.00370808505,-0.00561248185,-0.0039075641,0.0338316299,-0.0202674009,-0.023875257,0.0115601309,0.0116700409,0.0125821894,0.0305067729,-0.018276995,0.000892409356,0.0285668727,-0.0108843455,0.0288269985,-0.000793692365,-0.0172252283,0.000115405033,0.0258357562,-0.00449980702,0.0105488095,-0.0331407264,0.00174265995,-0.0241911951,-0.0220835395,-0.037209563,-0.010564873,-0.00185395789,-0.00778253935,0.0224406235,0.0160149299,-0.0201382246,-0.0383406989,-0.00848880596,-0.00366827799,-0.0118113179,-0.00818586256,-0.00875799917,0.0111261941,-0.0326764211,0.0130059738,0.0348886661,-0.0111107333,-0.0148205217,0.000666066306,-0.00991792046,-0.0184577033,0.0170765426,0.0114437612,-0.0216999482,-0.0284513086,0.00542020984,0.0224664062,0.0272061266,0.0251011942,-0.00917321909,-0.00198162789,0.0518132299,0.0232278891,-0.0289096143,0.00152257411,-0.00763387838,-0.00122206972,-0.0104333134,0.00632637739,-0.0176405646,0.0303444657,0.0123356776,-0.0100196507,-0.0254644267,0.000175009714,0.0017169104,0.00853858329,-0.00579519989,0.00418707356,-0.00543533312,0.0228179265,-0.00378348189,0.0168419108,0.0311408583,0.0318745039,0.0113393385,0.00732591236,0.0284572095,-0.0502093881,-0.00683070766,0.0271185264,0.0328698084,-0.0135575533,-0.0310777724,-0.027810514,-0.0353606418,-0.0089276135,0.00818097685,-0.0267502591,-0.00439524651,0.00374949747,-0.0377203561,-0.0109943366,0.0563992076,-0.00238490617,0.00131832354,-0.00780359795,-0.00225435174,-0.018406935,0.00341010466,0.0221436713,-0.0071973782,-0.0135854539,-0.014720859,-0.0176768452,-0.0156702083,0.00191943033,-0.0229195803,0.00323697925,0.0188122615,0.0637856647,0.0114226509,-0.0245958436,-0.0162920058,0.0284335706,-0.00492428755,0.0159068611,0.011963306,0.00874327682,-0.011585908,0.0241699219,0.00234861393,-0.0129505321,-0.029580323,-0.00145800889,0.00499670533,-0.041915033,-0.0113674141,-0.0137937758,-0.0105998088,-0.0125194974,-0.0378500372,-0.0160965063,-0.000674195122,-0.0110776974,-0.0236066151,-0.0190669037,-0.0274847932,0.00151796651,0.0138638122,-0.0167194307,0.00291630253,-0.0293624774,0.0280939117,-0.010351208,-0.000555981009,0.0334494524,-0.0018841445,0.0145825529,0.0032666903,0.0447187945,0.0260298532,0.0239265896,-0.0146150095,0.0148823941,-0.0551816896,-0.0326652899,0.0127651524,0.00501204841,0.00107741321,-0.0285226535,-0.0172863007,-0.013015138,-0.0254249517,-0.0197907537,0.015984701,0.00989379361,-0.0139794024,0.00684580859,-0.0155521883,-0.00216661114,0.00372176524,0.00361784711,1.68030328e-05,-0.0351525098,0.0181562342,-0.00441515772,0.000868064002,-0.00687268656,0.00814921688,0.00282148202,-0.00624064216,0.0300297532,-0.0013039714,0.0171514023,0.0313449465,0.00910007022,0.00991412345,-0.0227676202,0.0396058783,-0.0130183017,-0.000673630391,-0.0189224705,-0.0273266546,0.0151772629,-0.0492650755,-0.000436331495,0.00429405551,-0.00680583715,-0.0245866273,0.00510519976,0.0131158028,-0.0160451904,-0.00639287289,0.00679861894,-0.00448530586,0.0196705237,0.0313431285,-0.000190677267,0.0214322563,0.0127583118,-0.00971356314,0.0139532434,-0.0112729128,0.00149801816,0.00676434999,-0.0250281822,0.0358128846,0.036664214,-0.0230739228,0.00392732304,0.00878298935,-0.01828463,0.0215173196,-0.0261371229,0.0284461118,-0.0342660509,0.0102663096,-0.00644685794,-0.0168280173,-0.0148169324,-0.0173502266,0.000786088116,-0.0124510676,-0.0330078267,0.0175067689,-0.00791658368,0.0327963643,-0.00164579344,-0.00182767503,-0.0324616656,-0.00460221572,0.0170070715,0.0109114153,-0.0278434772,-0.00396601576,-0.00930686668,0.00936860964,-0.00145280862,-0.0129920011,0.0191820599,0.0116611104,0.0204121824,0.00743327243,0.0392463729,0.0190952979,0.00193675258,-0.010399607,0.0154265175,0.0214326382,-0.0281977076,-0.0070994189,-0.0335172378,0.00190205663,0.00607871264,0.0153229199,0.0202880688,0.0242386907,0.00821989682,0.00797040947,0.00256715063,-0.0127640963,-0.000230053396,-0.013137619,-0.0108476505,-0.00723268744,0.0336772278,0.0196013525,-0.0295106266,-0.0445719436,0.00539366528,-0.0265114643,-0.00695382943,-0.0186745729,0.0301590133,0.0116309961,-0.00940089673,0.0182719268,-0.0373872742,0.0145424409,-0.0102773216,0.00509238336,-0.014345929,2.55332052e-05,0.0144404229,0.00609422568,0.00936484896,0.0217322037,-0.0248401593,-0.00564527605,-0.0167269763,0.0380374193,-0.00642009638,-0.00587501144,-0.0179873034,0.00296796975,-0.00214790856,-0.0406621061,0.0309140366,-0.00795559026,-0.0204795562,0.0189195685,0.0041817259,0.00122354529,0.0208557434,0.0153711364,-0.00601187116,-0.0179133695,-0.0217184499,-0.0285797939,0.0292416736,0.0255050156,-0.0271825865,-0.00879542902,0.00754224416,0.0143272048,-0.0289858747,0.0144639909,-0.00945744105,0.00720323017,0.0112937745,-0.0261280034,0.0175411962,0.0546924807,-0.00975155365,0.0262647402,-0.0166986026,-0.0026244414,0.0123386187,0.0325594544,0.0413644686,-0.00377813424,-0.00808036234,-0.0174042396,0.0343427807,-0.00961973891,-8.25761672e-05,0.0183109324,-0.00620999373,-0.00558600528,-0.0083580995,-0.000459655799,-0.00805678032,0.0168198571,-0.00136977516,0.00708511332,0.0070875166,0.00222764467,0.019300865,0.00337840547,-0.02594948,0.0208059642,-0.0365881734,-0.00912874937,-0.00396744581,-0.0146346306,0.00637078751,-0.016037507,-0.00295397872,0.00570208067,-0.0107219433,0.0016497717,0.0166413952,-0.00087927503,-0.0221492443,0.0184249748,0.0321843363,0.0350577012,-0.0162993204,0.0230074059,-0.00884704944,-0.018532047,0.00303176488,-0.00981403608,-0.013751789,0.0404222943,0.00898038037,-0.0414943174,-0.020280255,0.0103009958,-0.000908018497,-0.00251668901,0.00419768132,0.00415175362,-0.00718569849,-0.0429279879,0.000995235518,0.00481772935,0.0213986337,-0.00854627974,0.0026267576,-0.00359409675,-0.00341977831,0.0102102589,0.0118452134,-0.00430493802,-0.0162569452,0.0227252748,0.030307889,-0.0207743719,0.0086482577,-0.00690222532,0.0227608383,-0.0293818396,0.00571044534,0.000218284011,-0.00373843894,-0.00838856306,-0.0170472916,-0.00917577557,0.0166317131,0.0123033952,-0.0382513329,0.00382708455,-0.0161757711,-0.000745949219,-0.00746830367,-0.0169686247,-0.0216206145,-0.0376659855,0.00326832291,0.00482458621,0.0019511882,0.0106956242,-0.0329956003,3.57202407e-05,0.0355072506,-0.0502554066,0.016614588,0.000412039779,-0.0114938961,0.0335682258,-0.0336436108,-0.0239830036,-0.0297394078,0.0461006351,0.018483134,-0.012241587,0.0065287617,0.00214785431,-0.00696711801,0.0287627522,-0.0071222093,0.00454318943,-0.029753739,-0.0222442709,-0.0362247899,0.0102896448,-0.0246689878,0.000732724438,-0.0289301127,0.00500448281,0.0209473874,0.0074306312,0.010515661,0.00649938639,0.032295052,0.00997951161,0.0357358865,-0.0404244028,-0.0243967082,0.02265458,0.0102622397,0.00264538312,-0.013954334,0.029046623,-0.0187906045,0.00759052811,0.0125208637,0.0200925339,-0.00182647863,-0.00825437531,0.0117707308,-0.0116408477,0.00632837974,0.0247429218,0.0133243753,0.0178480148,-0.0171278436,-0.00874509104,0.0047395546,0.00444735866,-0.000515161199,0.0339539237,0.00930240192,-0.0181895141,-0.0109533127,0.0198753234,0.0142566115,0.00293486449,-0.00213011657,-0.0566232577,0.00286707981,0.0180250891,-5.06156721e-05,-0.00103702198,0.0372570902,0.0196593571,0.0169431642,0.0191503912,0.0018410976,-0.00793849491,-0.0163246859,-0.00682922266,-0.0162829347,0.0237711612,0.0320984498,0.0256311335,-0.00281754392,0.0294936504,0.00277432962,-0.00483953813,0.0162298605,-0.0247615911,0.0315106548,0.0211720224,-0.0313811116,-0.00419314811,0.00925085507,-0.0125008263,-0.00990022626,0.0376010761,-0.00499269878,0.0171206165,-0.000696069386,0.00229479675,0.0239211433,-0.00461107539,0.0313005298,0.0119998204,0.00946586765,-0.00310281338,0.0309263822,-0.0354252793,0.010734424,0.00788213871,0.0268654749,-0.00205919449,-0.0152722914,-0.00905731693,-0.00915124174,-0.0276780594,-0.0173389129,0.0307606328,-0.0237777401,0.0403172895,0.00133849762,-0.0194085278,0.00808790326,-0.0183739662,-0.00242363429,0.00765870977,0.0133672105,0.00216623535,-0.0628026053,-0.00728900498,0.000259241962,-0.014440909,-0.0298149101,-0.016890116,-0.0116955349,-0.000221552895,-0.0200210772,0.0149497055,0.00352643873,-0.00730500696,-0.00236763107,-0.0198480263,-0.0128758559,0.0221595559,0.00223983335,-0.0136483889,0.0553355478,-0.0382840447,-0.00652082916,0.00352125033,0.00319795473,-0.0293362439,-0.00465488294,-0.0278590526,-0.059461832,0.0352979973,0.0346810631,-0.0289260596,-0.0052455687,0.0279501267,-0.0101683401,-0.00877307542,-0.00379412412,0.0368148983,0.010923625,-0.015128864,0.0154610211,-0.00135270355,-0.00640545134,-0.0286128987,0.0168559961,0.0041197869,0.00428483123,-0.0113692107,0.00463196402,-0.0159725808,-0.0323955491,-0.0165372472,0.0143620549,0.0201392453,0.0253330097,-0.0027143301,0.00742894039,-0.0223582722,-0.0592948608,0.00522833038,0.00630280655,-0.0185593497,-0.00525166281,-0.00698631024,0.0122032426,-0.00300194486,-0.00180112896,0.00119426253,0.0156305972,-0.00946969632,0.00243598269,0.00842198171,-0.00486813486,-0.0203799196,-0.00186522643,-0.0118792802,0.00217154459,-0.0510186329,-0.0155121731,0.0413590595,0.0303511303,-0.00237387838,0.0325960368,-0.0216294006,0.0156407896,0.00427560648,-0.0119265635,-0.00737925805,0.00303924456,-0.0354265012,-0.00786989555,-0.0171535928,-0.0115539702,-0.0056382874,0.0111587262,0.0259170532,0.0172227267,0.0132030742,-0.00641465094,0.0121018542,0.00738622481,0.00936932676,0.0426202193,-0.00587236043,0.0392961241,-0.0077176406,-0.000468267448,-0.00159915211,0.031750869,0.001185445,0.0160812084,0.0264382046,-0.0485394225,-0.0528221652,-0.0018638788,-0.022867607,0.0226228498,0.0282481108,-0.00641200133,0.0146749644,-0.0274958052,0.0171603113,0.0126262531,-0.00954797398,0.0154340481,-0.0461997725,0.0112436991,-0.0361907929,0.00930432603,-0.00222495128,-0.014989634,0.00167355582,0.0148532419,0.00547103351,0.00116641645,-0.010897208,0.022387892,0.0161718037,-0.00577356387,0.00112640637,0.00363598671,0.00400102884,-0.0278966557,0.00201694481,-0.0410416164,0.0255464856,0.0432321765,-0.00134880142,0.0262645688,0.00430277502,0.0185596235,-0.0277608801,0.0190336816,0.00282879709,-0.0257520974,-0.00815620087,0.0296058953,-0.0215242077,-0.0122502828,-0.00913367886,0.0321193263,0.0394712463,0.0035006851,-0.0229318142,-0.00817750301,0.0385022387,0.00746969366,0.0138361882,-0.00957084075,-0.0242368672,0.0171991196,-0.0111692976,-0.000119556476,0.00634978386,-0.00109728926,0.0416776761,-0.0237570275,-0.0216758158,-0.010951384,0.00615737587,-0.0142112477,-0.00211938634,0.0273583625,0.00647151656,0.0112063596,0.00484615238,-0.0138020143,-0.0105944714,-0.00271766656,0.0303747933,-0.0127741667,0.00999537669,0.0248912778,0.0232484192,-0.0254545994,-0.000296449463,-0.0102246953,0.00179794442,-0.0142942509,0.0109264553,0.0146780694,-0.00279203383,-0.0195459425,-0.00470455782,-0.0379258022,0.042094782,-0.0059675537,0.00586130377,0.0315071866,-0.0341652818,-0.00934206508,0.00107674557,-0.017673973,0.0172246434,-0.00558473682,-0.00851516332,-0.00558210257,-0.0225785617,0.00621042354,-0.0131329168,0.0019165508,0.0274639241,-0.0223923177,0.026581578,-0.0350824744,-0.0145511199,-0.0161949378,-0.0184817743,0.0170794204,0.0234422777,0.0346396603,0.00724342046,-0.0203835294,-0.0117484992,0.00561274868,-0.00047519838,0.012479119,-0.0446857251,0.00167690834,0.00114926102,-0.0082997391,-0.0135343289,0.0255044829,-0.00474194018,-0.00523487432,-0.000476101704,-0.00613040663,0.0292435344,0.00896423962,-0.0322328508,-0.0062867431,0.0337274075,-0.0149959931,0.000195560177,-0.0226819851,0.0055467491,8.48487907e-05,0.0282599349,0.0137217138,0.0244632792,-0.00682648877,-0.00578929577,0.00458969083,-0.00178334827,0.0183840804,0.0174887236,-0.0102829589,0.00970303733,0.0141842933,0.0252543259,-0.0157637242,0.0148062119,0.0196447559,-0.0291426089,0.0133907329,0.00941806473,-0.0112791201,-0.013522964,-0.0141043263,0.0236110277,0.011599347,0.0489245467,-0.0135282082,-0.00444351649,0.0126378434,0.00573266158,0.0208298042,-0.0045195776,-0.0403488278,-0.0104347887,-0.000483084092,0.036057096,-0.0236152709,0.00334891886,-0.00267420965,0.0178661626,0.0240649916,0.0329546332,0.00883157738,0.00367826154,-0.015299323,-0.0271749776,0.0137861948,-0.0166248456,0.00673966855,0.0119488286,0.00283678342,0.0204970352,0.00113235775,-0.0309899952,0.00705285836,-0.00601603929,0.00676705875,-0.00124169746,-0.0257127993,-0.0127494251,0.0144671965,0.0111537073,-0.028295951,-0.0301026795,0.00654193666,0.00045061257,0.0168148447,-0.0177324712,-0.0126813352,0.0015074464,0.0220518541,-0.00921255723,-0.0154674118,0.0216627419,-0.0103293117,0.0402192883,-0.0099745132,-0.0474588014,0.0256611332,-0.00452662772,0.0283392686,0.00848663226,-0.0109879924,0.00454891985,-0.00111286109,0.0244153179,-0.0151331443,-0.00258250046,-0.00872966647,-0.0264743418,-0.0273792762,-0.0032652393,-0.0338478349,-0.0248506572,-0.00674361875,-0.00392027479,-0.0159080084,-0.00523599656,-0.0253576655,0.00296159042,0.0017542789,0.0277511552,-0.00666752923,0.0130904885,-0.00430239178,0.0213217493,-0.0298617333,-0.010354273,0.0124318963,0.00949585531,0.0068443846,0.00943399221,-0.016828347,-0.0394811518,-0.00502117211,0.0137524279,0.0100662708,0.0116334949,0.0213385597,-0.000120680845,0.00563695002,0.00144186895,0.0186059251,-0.0137230922,-0.00445948495,-0.00271264906,-0.0052179168,-0.00847082026,-0.00429387903,0.00170398573,0.0136470478,-0.0379175954,0.0177846476,-0.0368173905,-0.0372700952,-0.00547654741,-0.0117942365,-0.00158305105,0.00827977154,0.0155667942,-0.00990020111,0.0223353114,-0.00573436031,-0.00762535864,-0.00224584481,-0.000460452313,0.00039172385,-0.00189323211,0.0126440572,0.00686086062,0.0253069513,-0.0110916672,0.021414971,-0.00271659438,0.0487904251,0.00613158522,-0.0026920652,-0.0128807742,0.000768245663,0.0262026321,0.0109519577,-0.0102778384,-0.0256975759,0.00406903727,-0.0154462587,0.0090344483,0.0188591983,-0.0342838541,-0.0133734494,-0.0104425,-0.0203206819,0.0128064547,0.0180713013,0.0218603536,0.000522578077,0.00911439024,-0.01760648,-0.0103470953,-0.00523399655,0.00732594961,0.0216216911,-0.0186148044,5.25446521e-05,0.0200301837,-0.00584044494,0.0220297351,0.0529573336,0.0174812507,0.0168835726,0.0155913578,0.0093880482,0.00816874858,-0.0160927121,-0.018933475,0.00532154553,-0.00164734642,-0.00338339317,0.0108192069,0.0302196778,0.0170757007,0.00137661363,0.00856186729,-4.82969226e-05,0.0211346354,0.0128816003,0.0182906855,0.025941398,0.0126035213,-0.0181403235,0.00352309737,-0.00191701471,0.00636347709,0.021542199,0.00843848009,0.0187191311,0.0305102672,-0.0352023058,0.0121449539,-0.00715820584,-0.0212160889,-0.00247023627,0.0181976669,0.00592942629,0.00856251083,0.00324605638,0.0475325063,0.0139288828,-0.00418087794,-0.0341272019,0.0117344894,0.00663256692,0.0131195281,-0.00341295265,0.00462864293,-0.0356054306,0.0301871132,0.0142082544,-0.0252449792,0.00448993454,0.0162000749,0.0185548589,-0.0278890766,0.000301520515,-0.00538339838,-0.0218450278,-0.0191815812,-0.0070398543,-0.0229686666,-0.000847311574,0.00723642251,0.00495091686,-0.00503395125,0.000234065112,-0.0207297765,-0.0162679367,-0.00152504724,0.00207941397,0.0188445654,-0.02425755,-0.0043164622,-0.0257195029,-0.0316386595,-0.0116004562,-0.0200487673,-0.0102020409,0.0249093864,-0.0096380543,0.00202977052,-0.00294567691,-0.0112431524,0.0303747021,0.0205129161,-0.016013993,-0.00942521263,-0.0285190679,-0.0198554136,-0.00577890361,-0.0189877134,-0.0135659082,0.0491046794,-0.00871328078,-0.0293066613,0.00597740477,-0.0215387978,-0.00144335325,-0.00496824738,-0.0161878001,0.00747321174,0.0280163325,0.0277218316,-0.0208217856,0.0266363062,-0.00905972347,-0.040036805,0.00282097561,-0.0272491202,0.00988666806,0.00425684638,-0.0206674263,0.0109158251,0.010919176,0.0203796793,0.0175979864,-0.00736404629,-0.00962210167,-0.040349558,-0.02981898,-0.0117879258,0.0113185095,0.00478165178,0.041231636,-0.0116589423,-0.0156091414,0.0125774099,0.0194837153,0.0118573448,-0.0224055666,-0.0165387075,0.0443270393,-0.0369064361,-0.0290548727,-0.0130076045,-0.0052883327,0.0177236628,-0.0126649877,0.0188848544,0.00184135803,-0.00691448618,0.00168997422,-0.00255366648,0.0273009837,0.00234787003,0.00113151304,0.00253068004,-0.00500821183,0.0191105157,0.000410286826,-0.00404126197,0.00306969974,0.00170077989,0.0140713928,-0.0150772268,0.0325399786,0.0365597084,-0.0124421846,0.0168022048,0.0169998482,-0.0176878255,0.0023996192,-0.0128117613,-0.0144119523,-0.00713653537,-0.0175083186,-0.00285349065,-0.00812322553,-0.0283803176,-0.00408542482,-0.00806387514,0.0148856891,-0.0101699959,-0.00364257605,0.018570032,0.00636720099,0.00525636366,-0.0380868651,0.00446219137,-0.0345836282,-0.00343335955,-0.00897808559,0.00832728017,-0.0366960838,0.0256753862,0.00544215646,0.0280968584,-0.0169544742,-0.0338690318,-0.00364287687,-0.0129160769,-0.00880240928,-0.00549325394,-0.0128443008,-0.00169594004,0.0520785525,-0.00580029609,-0.00371056586,0.00675262837,-0.0322330594,0.0125103137,-0.0337187909,-0.0164554399,0.0170707349,-0.0163596161,0.00556385145,-0.00884651858,0.0264237542,-0.0270591509,0.00756696565,-0.00200119591,-0.0208322238,-0.00768385595,-0.00534497807,-0.0218652561,0.0186855793,0.0099817086,-0.0101251518,0.0344098844,0.00303008431,0.0347428806,-0.0204409622,-0.00839778967,-0.0132527249,0.0154420948,0.0210012663,-0.00900228601,0.0173272714,-0.0152584668,-0.0260842126,0.0016047681,-0.00423573935,0.0239976589,-0.0193724558,-0.0148929423,0.00981934741,-0.0112929009,-0.00204462255,0.0249418318,0.0264089201,-0.0145750018,0.0142498044,0.0308809672,-0.0219377968,-0.0341999009,-0.0123149119,-0.0182746165,-0.00804497488,0.017890105,-0.0155178448,0.0259749573,0.00754215755,-0.0182565469,0.0146244196,0.0110579953,0.0119818151,-0.00209030649,0.0197397955,-0.0136593329,0.00868794974,-0.0153743112,0.0184645765,0.0302611291,0.0161654782,-0.000998838688,-0.0057498035,0.00328827999,-0.0110456189,0.0217588209,-0.00919403974,0.00631237356,-0.0150139257,-0.0110838376,0.0146744177,-0.00330873509,0.0168969873,-0.0178689472,-0.011231889,0.00240064482,0.0218493957,0.0200741496,0.0413257256,0.0232487153,0.0165190287,0.000229326019,-0.00753274234,-0.0270438027,-0.00191399781,-0.00333110243,-0.0213623643,0.0114142913,-0.0171071086,0.0265170895,0.00126129622,0.00438802643,-0.0412377007,0.0190080944,-0.0021626032,0.00447860034,0.00801528152,-0.00866576191,0.0165465772,0.00218443968,0.0117568392,-0.0133702597,-0.00106993678,0.0397795215,0.00740284566,0.0465588272,-0.019092422,-0.00368975545,-0.0391840413,0.0063689081,0.0445324071,-0.0155073889,-0.0122197606,-0.0389121436,-0.0254880544,-0.00792771112,-0.0138764195,-0.0180633664,-0.0183464326,0.0140629942,0.0238098595,-0.0145331109,0.0189214107,-0.0226525851,0.00528830988,0.0114602493,-0.00843360368,0.00120856846,-0.0100148581,-0.00928716362,0.00318353553,-0.0146740172,-0.0125123961,-0.0310219564,-0.0231657717,-0.00293326518,-0.0175244547,-0.00122318289,0.0256328806,-0.0233637001,-0.0155117437,0.00342304306,-0.0118427826,-0.00212687929,0.0303716846,-0.00215339381,-0.0328681543,-0.0491346791,-0.0289062466,0.0182788149,-0.0193302818,0.000775670167,-0.0641757399,0.0202811789,0.013461303,0.0279642344,0.0516328402,0.00357930292,0.00867014471,0.00669224793,-0.00769155379,0.04797934,-0.00878944434,0.00351561769,-0.0180662256,0.000700960867,0.0222278275,-0.0353607945,0.0241815802,0.001631625,-0.0188345667,0.0145542044,0.00368275703,-0.0140160406,0.0267794989,0.0493332036,-0.0478012301,-0.0384814143,0.00614295388,0.00846640952,0.02035366,-0.0110075902,-0.0241108984,0.00380051811,-0.000887445174,0.0240375139,0.0171266627,0.0199534129,0.0404946953,0.0324742906,0.00672049914,0.0099399155,-0.0168540217,0.015363602,-0.0279994179,0.0128651876,0.00736033916,-0.0106650731,-0.00039256888,0.00289316685,0.0293082874,0.00388142932,0.00840740185,0.026157314,-0.0158004835,0.0207145177,0.00721660722,0.015004497,-0.0232193805,-0.0168324485,0.0330381729,0.0136786019,0.0128815444,-0.00182442239,0.00126750884,-0.0216080304,-0.00920270383,0.0150013054,0.00250974763,0.00516586471,-0.0268403981,0.00444225967,0.00130584987,0.0207247306,-0.016558446,0.0243232921,-0.0149072632,-0.0145648448,-0.0136445509,0.0399585664,-0.0126930671,-0.00457658805,-0.0449611023,-0.0061956076,0.0239190832,0.00497263949,-0.000186838501,0.00937143527,0.0358578078,0.00859098695,-0.0264554694,0.00603366084,0.0174157489,0.0355053805,0.0205689669,0.011035745,0.0087740384,-0.0153296683,-0.0334658325,0.0237433221,0.0351669937,-0.0114774127,0.00627779821,-0.0231247321,0.0262637939,0.0184731223,0.0303143319,-0.00892148446,0.00911329407,0.0540367551,0.0049104169,0.00523732277,0.0236082841,0.0208879113,-0.0307358131,-0.0435712747,-0.0324412398,0.0012661583,-0.0364603549,-0.0101960683,-0.038402807,0.0178912021,0.00494454894,-0.0210225768,-0.0013779538,0.0158247892,0.00751587888,0.0143205207,0.0299547538,-0.00051134103,-0.0277283639,0.0111735184,-0.016947357,0.0101570766,-0.0154288253,0.0394430086,-0.0133928694,-0.0201950204,0.00981186144,0.020264931,-0.0327783003,0.00837376434,0.0456061102,0.0304947626,0.0276872907,0.0255940128,0.0359723531,0.0125735952,0.0474256687,0.00262561208,0.00722673675,-0.0147347627,0.040746998,-0.00129591697,-0.0261474866,0.0186918043,-0.0163719933,0.00459495559,-0.00774028664,-0.013228097,-0.0159673523,0.0103726937,-0.0121385073,-0.0490343459,-0.0192425214,0.0175976846,0.00512220245,-0.0232295394,-0.0108011924,-0.00524914265,0.026560504,-0.0106458319,-0.00924887415,0.00149026513,-0.000783631403,-0.0383518636,0.00508376583,-0.00990865473,0.0188053958,0.0420723632,0.0174992569,0.0139187127,-0.0226455256,0.0419381335,0.0217055008,-0.00384924444,-0.0278140493,-0.0424953625,0.0274373405,-0.0112408055,-0.00937817805,0.0315924548,-0.0114447027,0.00660016155,-0.0110108312,-0.00350645138,-0.00495627522,0.00062748004,0.00711124483,0.0329878703,0.00807075016,-0.0333142616,-0.00272590714,-0.0228398684,-0.000718212104,0.0274838209,0.0199043956,-0.0170391276,0.0188567806,0.0183795858,-0.00473646726,0.0110327471,0.0129865874,0.000769556209,-0.0374786332,0.0242210664,0.00805814471,0.0468381904,-0.0408728868,0.00521574542,0.0313015692,-0.0216746163,0.00668914616,0.00378388399,-0.00475185504,-0.00289592589,-0.00212704809,-0.0263567492,0.00196441659,-0.0085590519,-0.0202859156,-0.0194938257,-0.0434595384,-0.0251697917,0.0141579425,-0.00773033174,0.0236729067,-0.0190812089,0.015051757,-0.0286702085,-0.00912958104,0.0076183551,0.0217651315,-0.006715931,-0.0112334909,0.0100895092,0.02289089,-0.00130592822,-0.00936426781,0.0286368523,0.0217675213,-0.00934081152,0.00566142611,0.0432767086,0.00468080584,-0.00290552876,0.0178921651,0.0133985095,-0.00082001742,-0.0305506922,-0.043805521,0.0055824942,-0.0124288127,-0.00689056749,-0.0141033195,-0.00783564709,0.00952986069,-0.00947316829,0.0139461942,-0.017461082,0.0358081982,-0.0169606842,0.00256813876,-0.000144711928,-0.0120383855,0.0226403233,0.00267174002,0.0144578218,0.011272152,-0.00527375098,-0.0268196836,0.0317362621,0.0276454557,0.0179798882,-0.00376644963,-0.0169783402,0.00370924734,0.0239876118,0.0339571573,-0.040492963,-0.038948413,0.00598329119,-0.00778329372,-0.0156377591,0.0134289162,0.00755506149,0.00225516129,-0.005661448,-0.0114778457,0.0016986368,-0.0214725342,0.0281221624,-0.0115726786,0.00664263032,0.0175242405,-0.0099896593,-0.00786069967,-0.01175333,-0.00746877771,0.00247106678,-0.0329671726,0.00744385505,0.00770037342,0.00889632292,-0.0343581922,0.029635435,0.015668774,-0.0124359224,0.0265430845,0.0366036966,0.000711284869,0.02662744,-0.00271473499,0.0219296236,0.0349972472,-0.0123814614,0.0153503465,0.00901476666,-0.00165158696,-0.00398952048,-0.0124930227,0.0101324227,0.00329144648,0.0356539711,-0.00794588495,0.014444991,-0.0201614313,-0.0146080572,-0.0373486988,0.0369170345,0.00635444885,-0.0078583397,-0.0197757781,-0.00139005075,0.0328137875,0.0603364818,0.0147389984,0.00979414955,0.0197716765,0.00567305507,0.00175608392,-0.0112486137,-0.0306496527,0.0201143585,-0.0215103142,0.0139916055,0.0318199471,0.0151507147,-0.000817933877,-0.0115373665,-0.0236120671,-0.0105951773,-0.0189726949,-0.0153401811,0.0173928477,0.0298215598,0.0372186601,-0.0209860615,0.0183559004,-0.0131218219,0.00903350953,0.0186464954,-0.0201887581,-0.0265074708,0.0487907305,0.039205078,0.00504860049,-0.0412957221,-0.00706337811,-0.00617270265,0.0110946652,-0.0166175906,-0.00804798584,-0.0144805564,-0.00368905114,0.0317189582,0.0294940677,0.0017179799,0.0147492904,-0.0230728816,0.0240196865,-0.00550897606,-0.0085716052,0.0225774311,0.00394252362,0.00290482165,-0.0284876022,-0.0276196096,0.0163967293,0.0147845969,0.0368411466,0.0230297484,-0.00486890413,-0.0235170294,0.0300103296,-0.00311292126,-0.0045400071,-0.00422863197,-0.00186758023,-0.0133651411,-0.0101595316,0.0172661897,0.0247876495,0.00129028561,0.0249111019,-0.0209360253,0.0110272346,0.0154380016,0.033021722,-0.0193871614,-0.0340950824,-0.0328867361,0.00281717558,0.017162025,0.00550244236,-0.00927738659,0.0199798178,-0.00534590101,0.0210635141,-0.0195942689,0.0272610821,-0.0238322746,-0.0111862505,0.00574627379,0.0317684188,-0.00921605155,-0.00153308094,-0.0125275208,-0.0353946686,0.0303343739,0.0225115065,-0.00328892516,-0.0149359424,0.00725549879,0.00768159796,-8.05645395e-05,0.00379819213,0.0231746621,0.0080229789,-0.0119640231,0.0167693235,-0.00641089911,-0.00791287422,-0.0283318032,-0.00916239899,-0.0193759166,0.0159181524,0.0018245494,-0.0183965005,0.0136687383,-0.0270757545,-0.00315201026,0.0069483039,-0.0235256348,-0.00222198246,-0.0096925199,0.0204247329,0.030728247,-0.00725578889,-0.00433396222,0.00799253862,-0.0363558158,0.015220332,-0.0172601771,0.0164545197,-0.0422330648,-0.0183681734,0.0148643777,0.00202924688,-0.0369200706,0.0242311824,-0.00768368505,-0.0192814581,0.0178083684,-0.0212639607,0.0202828851,-0.0335407071,0.00949870609,-0.0158273987,0.00341316266,-0.00122775894,-0.0314633958,-0.00998788513,-0.0355833545,-0.0257185288,0.0286722723,-0.0114936214,0.0264337845,0.0516435653,-0.0367492847,-0.00409672409,-0.020382151,0.00275522401,-0.00138319121,-0.0197983645,-0.00287973089,0.0178596005,0.00165359816,0.0315968804,0.021488769,-0.00410414999,0.0402323566,0.0220298525,0.0117695285,0.0153278029,0.00985141005,-0.0172729194,-0.0194830261,-0.0238787569,-0.0168575868,0.0138480626,0.00378087373,0.0221657269,0.00966184866,0.0225109532,0.00587038882,0.0380209237,-0.0178717189,0.0137675367,0.0246267281,0.00612101471,0.000680078112,0.0116944928,0.00557438005,-0.021192126,0.013002269,-0.0276349131,0.0078219166,0.00933340099,0.0381236076,-0.0186440665,0.0160693731,-0.0100928685,-0.021302497,-0.0290176012,0.0592998303,-0.0078082066,0.0140731568,0.0241849534,-0.0126173636,-0.041211918,-0.00455218228,-0.0390118323,-0.0528734066,-0.0333156921,0.0146308821,0.015093606,0.0412022434,0.00980357081,0.00629173964,-0.0158740412,0.0178120658,0.0121671017,-0.00505373301,0.0181659125,0.0134173902,0.0239467192,-0.0478033759,-0.0107968254,0.00454484625,-0.00435152184,0.0040812958,-0.0194325484,0.0246770419,-0.00232333527,0.012822221,0.0119999414,0.0126999468,0.0128216883,-0.0178508852,-0.0182544719,-0.0333571918,0.0105938353,-0.0346113779,0.0165725891,-0.0224828199,-0.0112523092,-0.00540518807,0.0314996503,0.0388670713,0.0440385155,-0.0039649005,0.0197174996,0.00685033295,-0.0174074173,-0.0125181722,0.00920122024,-0.0419426523,0.00724856416,0.0266025756,-0.0151598603,-0.000199636372,0.00525721675,-0.00955569558,-0.0429623015,0.0496361442,0.0202920176,0.0266390182,0.00680190651,0.00308397901,-0.0290176142,-0.00555299129,0.0234014839,0.011581976,-0.0115799373,0.0160931349,-0.0179061238,-0.0184783079,0.0295067374,-0.00724742981,-0.0289347284,0.0172179211,0.0047414708,0.00641211215,-0.0144838523,-0.0134860557,0.02297635,-0.0374275073,-0.0218553748,-0.0174249038,0.0123427277,-0.000501323841,0.0180881098,0.000250804471,-0.000228006189,-0.00517753512,-0.00339973997,-0.0209367629,0.0299244449,-0.000492834777,-0.0078878114,0.0228551459,0.0310130343,-0.0237101316,0.0021728843,-0.0294483919,-0.00555319199,-2.28265217e-05,-0.00228738924,0.0259797741,0.0090547353,-0.00524299918,-0.0157876555,-0.0289510991,-0.0151369721,0.0348721109,0.0294055361,0.0037497452,0.00931439083,-0.0102165779,-0.00426506996,-0.0225494839,0.0101046348,-0.00782485586,0.00199548132,-0.0180898607,-0.00831220113,-0.0274691284,-0.0184865836,-0.0161795281,0.00317640416,-0.0195223056,0.039170213,-0.0129471384,0.0259226635,0.00719008828,0.0144719742,0.0165686123,-0.000402161502,0.0097143501,-0.00735581666,0.00730322534,-0.00100791303,0.0123968208,-0.00885828678,0.017786365,-0.0270404015,-0.0115309935,0.00769950729,-0.0183399748,-0.014369241,-0.0153925205,0.0055422131,-0.0149510354,0.0311643444,0.0129980156,0.00760479178,-0.00859794579,-0.0293436274,0.0214304086,0.0181035567,-0.0241991729,-0.00749892928,-0.00614973996,-0.0117680561,-0.0133173484,-0.00373954326,-0.0187727027,0.0116327824,-0.0140463384,-0.00790777896,-0.0327076577,0.00312507572,-0.0291599035,-0.0164871924,-0.0217381921,-0.00798556767,-0.0280932747,-0.00500163483,0.0401865914,0.0023151543,-0.0163372103,0.000183314478,-0.0093324054,-0.036665339,0.00834309775,-0.00369504723,-0.0311412904,-0.0210216157,-0.00219464372,-0.0110762678,0.0290738009,-0.00864541531,0.00688134693,0.0154084237,-0.0350084789,-0.0090137925,0.0213128738,0.0265649725,-0.000540338689,-0.00611568149,-0.0127226422,-0.000560241053,0.00151509524,0.0479537733,0.0576962791,-0.0208126232,-0.0237731766,0.016687613,-0.0126921115,-0.00938865542,-0.0130134197,0.0310902856,-0.00296323979,0.00726752123,-0.00111650326,0.00259437086,0.0251497235,-0.0211017411,-0.020142464,-0.0325466655,0.0105358018,0.00145527453,-0.00532406196,0.00652494235,-0.031314563,0.0202478301,0.0314093046,0.0067715249,0.00589727703,0.00117169181,0.00831788685,0.00328762038,0.0245367121,0.00289117917,0.0039223819,-0.017838601,-0.0284407139,-0.00526131969,-0.0211702678,-0.0108722961,-0.0125840772,0.0131053049,0.00636914838,0.00412059901,0.0213229395,0.00017479081,0.0125764795,0.01344145,-0.00460543064,0.00809025019,-0.0148363793,0.00608059857,-0.0173778832,-0.0038905011,0.00566100562,0.0133827776,0.00457728142,-0.0415728278,0.00579606974,-0.00679935375,0.0672431141,-0.0309285037,-0.008717102,-0.025197085,-0.0128034698,-0.0128827104,0.01892763,-0.00606600055,-0.00330301397,-0.0190313738,-0.00662669213,-0.00933036581,0.0178106241,0.0200352073,0.0246498529,-0.0281206388,0.0279671215,-0.0176764801,0.00486544427,0.0270520486,-0.0159505978,0.0249916613,-0.00934719667,-0.0422630794,0.00735115586,-0.0185641125,-0.00944088213,-0.0139363082,0.0260218177,0.0121262595,-0.0017899028,-0.00727360882,-0.00123274454,0.0291569252,0.00474263076,0.00256453478,-0.00986184645,0.0206702016,0.0108338092,0.015105742,0.00964048598,0.0145055316,-0.0325054415,0.00695226574,-0.00489808945,0.00557025103,0.000764401455,0.020610882,0.00771451648,0.000251336431,0.0165723339,-0.0373189114,-0.00987446029,-0.00295948354,-0.0348463394,0.00595752243,0.0246856604,0.00143318065,0.009515143,0.00501757627,-0.00430614036,0.0149547635,-0.0261464212,0.00713854423,0.00574831711,0.00330102025,-0.0306296088,0.0361351036,-0.00941654574,-0.0211133324,0.0347391255,-0.0509706587,-0.0140922414,0.0323157161,-0.014639305,0.00312657328,-0.00502681173,0.00626159646,-0.00807975139,0.0126472712,0.0149623584,0.0305775497,-0.00710196374,0.0175463129,-0.025708558,0.00175312592,0.0249798968,-0.0196070075,-0.00882041547,-0.0103134196,0.000310341216,-0.00165163842,-0.00350391329,-0.00649659755,0.00388179719,0.00330002699,-0.0107921185,0.0130896838,0.00895914529,0.00265037618,0.0124063687,-0.0360522121,0.0392404683,0.0080883326,-0.0126500009,-0.0365183838,0.00550613925,0.0182723757,0.0148929618,0.0231842343,0.0123743983,-0.00170449272,-0.0362111479,0.00457267044,0.0106004691,0.00888064131,-0.00264203688,0.00181753375,-0.0135099674,-0.018552836,-0.00535096833,-0.0119959777,-0.0404993109,-0.0112991091,0.00240113959,0.0285484288,0.00594294816,-0.00289639039,-0.00783864409,-0.0133000119,0.00763502205,-0.00559029076,-0.00117722712,0.0212456491,-0.0126544544,0.0145003051,-0.0171570294,-0.0175769497,0.0488668829,0.0386118591,-0.024667656,0.0140779624,0.0132012405,0.0112424558,0.0164680909,0.00969185587,-0.00800453685,0.00942874793,-0.0129572321,0.0178270563,0.0223837607,0.0105476798,-0.0123464167,-0.0347680002,0.00963765755,-0.00594269345,-0.0136767719,0.0123615954,-0.00631275447,0.00345683331,0.0089875441,0.0102724191,-0.00715429056,-0.0111348843,0.00573971262,-0.000277543149,0.0306691062,-0.0317894369,-0.0144287869,-0.0104057034,-0.0174760949,0.00228028418,-0.0246002041,-0.0153540093,-0.0078460034,0.0161112361,-0.0169125963,-0.0120947417,0.02458198,-0.00116268999,0.0288074631,0.0108274184,0.00222498272,-0.0292206593,0.00215977896,0.0140876239,0.00420656102,0.031431403,0.032662876,0.00515599456,0.0159444381,-0.0102468021,0.0152871935,-0.00928558223,0.00632498134,0.0395956635,0.0291075464,-0.0124415439,-0.0047780755,-0.0348993167,-0.00751591846,-0.0249789897,-0.0304230843,-0.0224224702,-0.0139762117,0.0117863817,-0.00101548689,0.00536109181,-0.0249619056,-0.00935010146,-0.00957428291,-0.0279788803,-0.0327426195,0.0199192259,-0.0146591887,-0.0378837548,-0.0132366177,-0.0416785143,0.0315980315,-0.00243572774,-0.0262885764,-0.0029326384,-0.0642687827,-0.00930317491,0.0231698584,-0.0222389884,-3.88408116e-05,-0.0163943712,-0.00487829326,-0.000956359494,0.0394144282,-0.00757462345,-0.0287496541,-0.0200712439,0.0210412778,0.0101571642,0.0551332235,-0.0342329405,-0.0250700191,-0.00132283173,-0.0316035524,0.0261671301,0.0166869313,-0.0228496734,0.0203992538,-0.0236976985,-0.0803181902,0.0158681646,0.0236520842,-0.0198360421,-0.00694461493,0.0195201281,0.0455961749,0.0376030803,-0.00546879321,-0.00417549256,-0.006723464,0.021319529,-0.00403940864,-0.0192783941,0.00013009859,0.00993950292,-0.00224756054,0.0194983482,0.0283871479,0.0476184823,-0.00131589349,0.018193502,-0.00252986071,0.0238258094,0.0350272432,-0.0141417794,0.0310037415,-0.0308585782,-0.00384612288,-0.0153879961,0.00180023885,0.00427335128,0.0277864952,-0.00524038309,-0.0232340135,0.0268334541,-0.0342089199,-0.0283943713,-0.0443866439,0.0173562281,-0.000490810373,0.0325081088,0.0171878114,0.00905572902,0.0237315744,-0.0176877119,-0.0103952903,0.00323556061,0.0184521582,-0.0299975872,0.0231431983,-0.0010057562,0.00677212235,-0.00878580194,-0.0246060938,-0.0315189771,-0.0143424142,-0.0287738293,0.0140594058,0.00770820072,-0.0138364825,0.0254724398,-0.000619273458,-0.0297885556,0.00543686608,-0.00869334582,-0.0180649534,-0.0129799442,-0.0471520685,0.000216064946,-0.0139776235,0.0148037383,0.00475710537,-0.0198079012,0.00880289264,0.0175614338,-0.0175720826,-0.0172657706,0.0311204102,-0.00658679195,0.0230697524,0.01716947,-0.00311035663,-0.0316076092,0.00854501035,0.0339786522,-0.0226922408,-0.0230593961,0.0107629532,0.02777775,0.00211236253,-0.00686748233,0.0408148952,-0.0187338796,-0.0117922435,0.0276473854,-0.0207412057,0.0215680245,-0.0124305151,-0.00975019112,0.0454549454,-0.00150331692,0.0381896123,-0.0297548007,-0.0372352935,-0.017011378,0.011763026,-0.00401418703,-0.00732213771,-0.0160813928,0.00235519838,-0.0189797189,-0.00152502256,0.0160303656,-0.0203456394,-0.022270428,0.0125823412,0.0228486899,0.0204395074,0.0043267943,-0.0140573019,0.00238320231,-0.0429705866,0.00653151982,0.0254776981,0.016679354,-0.0212834571,0.000731333857,0.0113101732,-0.0054318076,0.0180095863,-0.00156438025,0.0258943122,0.0286892485,0.0093314657,-0.0167904235,0.0195228234,-0.00179037347,0.00424219016,0.032210011,0.00350559177,0.0142906159,-0.02886815,-0.0133398687,-0.00696482183,-0.00210636505,0.00816075504,0.00358425709,-0.00516680209,-0.00286064832,0.00303216372,0.0183706619,-0.0111520384,-0.0283146687,-0.00765027571,-0.0190160312,-0.0293787811,0.0164800286,0.0253936686,0.0147782266,0.000501669361,0.0115450853,-0.0155779803,0.0158055052,0.0179858934,-0.00733123813,0.00561083714,0.00518369675,-0.0110613061,0.0221441519,0.0202808119,-0.0037626382,-0.0331569947,0.00428642286,0.00816580188,0.0215790644,-0.0212461017,0.0136809582,-0.00134354236,0.0230091736,0.01178593,-0.0300748944,0.00578483753,-0.0169803649,0.00637709675,-0.0228107926,-0.00626905123,-0.00400537439,-3.19627834e-05,-0.00215255399,-0.00738982996,0.0144529175,-0.038971629,-0.00295784697,-0.0562750287,0.00432000495,0.00804023631,0.0110362815,-0.0305931177,-0.0338312127,0.0041274759,0.027530605,0.00194566604,-0.0150989676,0.0301502477,-0.0231508352,0.0409056768,-0.00704045827,0.0188661199,0.0220019184,-0.00211371272,-0.00336638256,-0.0158621147,-0.0159207303,0.0280737504,-0.00752474833,0.0227236617,0.0396059491,-0.00708948076,0.00502408808,-0.00307917735,-0.00274101342,-0.00698971562,-0.019800242,-0.00587827945,0.00678683724,0.0101114484,-0.0437228382,0.00593417045,0.00631969655,-0.0127282962,-0.00614219578,-0.00847763568,-0.0206496716,-8.2767554e-05,-0.0162102655,-0.0229720976,-0.0028671145,-0.0347323455,0.045973666,0.0272918344,0.0110147446,-0.050051894,-0.00309178256,-0.033664532,0.0209507514,-0.0265864003,-0.00298758177,-0.0143430028,-0.00815373566,0.0134889549,-0.00701331953,-0.00369509845,-0.00700530224,-0.0224801153,-0.0292353686,-0.0143798264,-0.0250035692,-0.011726575,-0.000172049884,0.000823495211,0.0105737299,-0.0273160115,0.0461551622,0.00615108619,-0.00890160631,-0.00848525949,0.0280892048,-0.0174842421,0.00703610387,-0.0234312601,0.0152636096,-0.0248076767,-0.0157108568,-0.000875920581,-0.0203942917,-0.00851910189,0.0255361386,0.00131390849,0.0288704801,-0.00864814408,-0.0418335199,0.00616313936,0.0308868997,0.00310682249,0.00412076665,0.00678821234,0.0033662701,0.0215155482,0.00958316401,0.0198361166,-0.0228068233,0.000268722302,-0.0136031099,0.0129441367,-0.00258040545,0.00274823164,-0.0149053615,-0.00125916256,0.0271569714,0.00244969362,-0.0262355767,-0.00275334739,-0.0343484282,-0.00607483694,-0.00738350628,0.00366320089,-0.00360069145,0.013420267,-0.0191496667,0.037901599,0.0162218474,0.00141612277,-0.014754585,0.0280264989,-0.0134141482,0.016322894,0.0133219287,0.0304541159,0.0315713547,-0.0263779629,0.00742138922,0.0269120205,-0.03060399,0.00427327165,-0.00231798016,0.00662236568,-0.0020474738,-0.0244461969,0.0035907873,-0.0252831951,0.0229347032,0.0174631346,-0.00665143644,-0.00260242634,0.00101411925,-0.000682821381,0.0086343959,0.00136221282,-0.0104878368,0.0233210959,-0.000856564846,0.0350250117,0.0262845606,-0.00485086674,-0.00408876687,0.0194127075,0.0177391786,0.00645324821,0.00754728261,-0.0138344914,-0.0237755124,0.0544312261,-0.00491166906,0.0208577439,-0.0464789048,0.00126076082,0.0239582006,0.0110186702,-0.0290808808,0.0065504401,0.0260789301,-0.0345280208,-0.0348908976,0.0159911979,0.00573878875,-0.00948275626,0.0227280278,-0.0199216474,0.00290507125,0.0157608762,-0.0181618668,-0.000412801601,0.0234153047,-0.00502285967,0.0193707161,-0.0375624783,0.0149082197,0.0098707946,0.0137304598,-0.0158539247,-0.0421850383,0.00235236669,-0.0365129709,0.0247532465,0.0120196082,0.00549609587,0.0257817898,-0.00178193848,0.00498492178,0.0143464133,-0.00420585042,0.0175572466,0.0142878098,0.00421283953,0.00571390893,0.00267234445,0.00658869138,0.0432638414,0.0175070856,0.00643099425,0.00546498364,-0.00444542617,0.0159181133,-0.0218201019,-0.00817958917,-0.0100899935,0.00190446503,0.039172601,0.0147226835,0.0117095048,0.0236111209,-0.0299089011,0.0185478888,0.0394013189,0.0156283621,0.0294923913,-0.00346021052,-0.000347497902,-0.020789627,0.0171570908,-0.00154921284,0.0191275701,-0.0104045421,0.0215402152,-0.0178187788,-0.0153359435,-0.0200553369,-0.0205755327,0.00105782354,0.00760974642,0.0282505602,0.00115337537,-0.0100101279,-0.0103247426,0.0384292677,0.00697688852,-0.0112779066,-0.00351364817,-0.00502770534,0.0344310291,-0.0118342731,-0.0484924577,-0.0123480959,0.0111341784,0.0140296817,-0.0452229828,-0.0169732142,0.0198603198,0.00320830848,0.00906376261,0.0386468992,0.000801570073,-0.0206977539,0.0224701632,-0.00292878505,0.0185567532,-0.0290482044,0.0350127369,0.00359762576,0.0210954193,-0.000169234438,0.000825931435,0.0146791432,-0.0185110178,0.0146169476,-0.00330030639,0.000299950829,0.0249122996,-0.0219455045,0.0317846499,-0.000279622705,0.00445725909,-0.0177395735,-0.00988683756,0.0166374519,0.0293463822,0.00360451569,-0.00270658545,0.00270144688,-0.0236154739,-0.0177249312,-0.00599310081,0.0496201552,0.0186634529,0.0159260873,-0.00545292208,-0.031985011,0.0558999851,0.0287379064,-0.0267269537,0.0108139263,0.00883859303,0.0026238882,-0.00559865404,0.0225895885,0.00658630254,0.0158359278,-0.00173873792,0.0125775812,0.0233981851,0.0161851868,-0.0116710803,-0.0184351653,-0.00493481569,-0.028056059,-0.0271431282,-0.0133995842,0.0244572703,0.00821809005,0.0371519886,-0.0459123775,0.0339594334,-0.0022452483,0.0288308058,0.0279167462,-0.0214612912,-0.00284601492,-0.00642096577,0.00491231587,-0.0101688923,0.0418510996,-0.00231639598,-0.00350619666,-0.000296497456,-0.0167035423,0.0188376699,0.00489102397,0.0274867974,0.0280995872,0.0235026311,-0.0160041098,-0.0337403081,-0.00289313705,-0.0128741357,0.0271953978,-0.0516612567,-0.0276564825,-0.0189227462,-0.0204057712,0.000881273649,0.0368123576,-0.0071065384,0.0301221348,0.0215460397,-0.0108613465,-0.0270998478,-0.0220285505,0.0107562309,-0.0169655588,-0.00915429182,0.0085281292,-0.00527939294,0.00549639203,-0.012047342,0.0221909322,-0.0465000905,0.0216315575,-0.025738351,-0.0168281645,-0.0329419859,0.00322388369,0.00423385669,-0.0197618622,0.00142815197,-0.0151565503,-0.0255003851,0.00899280142,-0.00291615026,0.00592762465,-0.010682446,-0.0340884216,-0.000619753147,-0.00172266865,-0.00625832612,-0.0152036436,0.0037266803,-0.0248381738,0.0177793577,-0.0323132351,0.0300689787,-0.000909512222,0.00327219279,0.0313662067,0.0139405774,0.00875879917,-0.00993407983,-0.00842681061,-0.0179969277,0.00459698681,0.0197308231,-0.000446747377,-0.0348095484,0.0221156124,-0.0301292837,-0.0302905999,-0.0567004085,0.0202755779,-0.0052439617,0.0204295851,0.00306181842,-0.0292338096,0.00514426176,-0.0109183574,0.0410361513,0.0283582117,-0.0116156833,0.0384951867,-0.00326666725,0.0319521166,0.0254286733,0.00167182006,-0.0174670555,0.014078211,-0.0104756197,0.00142100314,-0.000663460698,-0.0135165118,0.00388290617,-0.0267890058,0.0198238008,-0.00625224644,-0.00703486428,0.00572619494,-0.0193855986,0.0114280554,-0.0243312046,0.0233872104,-0.0164860152,0.000320827588,0.00757675292,-0.0154097304,0.00892289355,0.0232932493,-0.0145007754,-0.0232900754,0.0101962825,-0.0208799876,-0.0458895974,0.0072389096,0.0118247364,0.012676823,-0.0208716206,0.0084674377,0.00267118122,-0.00585508207,0.00289907749,-0.0138121555,-0.0019457934,0.0169024635,0.0138836475,-0.00513862586,-0.00671758875,-0.0233131684,-0.0294911973,-0.0017001204,-0.00326911057,-0.0127903279,-0.0279752053,-0.0183549859,0.0405523665,-0.0113432836,-0.0132225072,0.00251097162,0.0177904293,-0.00692234375,0.00558940554,-0.0348034352,0.00919562206,0.0290744808,0.00694028614,-0.00021928869,-0.018563373,0.0139817744,-0.00153821311,0.0177191067,0.0123843206,-0.0117800748,0.0513353422,0.0388496853,-0.0204140618,0.0108416183,-0.000233987856,-0.0241451971,-0.000658132776,0.00647624722,-0.040204104,0.0224017426,-0.0310435742,-0.021342285,0.0256743692,0.00690118968,-0.00524275191,-0.00226124143,-0.044991415,0.013445558,-0.00571885146,-0.0233381819,-0.0316643864,0.0262809899,0.00687722629,0.017577501,0.0234355349,-0.0213616956,0.0131855281,-0.0047804364,-0.0228082892,0.00313110673,-0.0145912664,-0.0112058613,0.0220678579,0.0178251341,0.0180509333,-0.0110533331,-0.00331250275,0.00997920614,0.00863784924,-0.0549929067,-0.0212084688,0.035931997,-0.015233295,-0.00755312387,-0.00888096355,0.0151788685,0.0260015577,-0.00906945765,0.00934609957,0.0159874763,-0.0303617921,0.0471136272,-0.017260585,-0.00814738311,0.000327289512,-0.012941773,0.0347142816,-0.00590552203,-0.019205166,-0.0149145555,-0.00415536202,-0.0143126501,0.00266334531,-0.00328722317,0.0163080357,0.0159716178,0.0116503164,-0.000731351203,-0.0358680114,-0.0254504904,0.0164034925,0.0351132043,-0.00108360976,-0.00904044881,0.0343124866,0.0169636179,-0.034909673,-0.00815885793,0.0225711539,0.00733952643,0.00444279471,-0.022939533,-0.027920153,-0.0288315844,0.0185336974,-0.00279208762,-0.0166260712,0.00282015791,-0.001192422,0.0234766379,-0.0391506888,-0.00464919908,-0.0139401406,-0.0258987285,-0.0190913212,-0.0360190868,0.0114092715,-0.0322298668,0.031697318,-0.00355707691,0.0060112942,0.0500852279,-0.0113864029,0.0166739374,-0.0246320032,0.0116351526,-0.00255997432,0.0187256541,0.0039049515,0.0251343939,-0.0111203883,0.0110148089,-0.0341651067,0.0321386531,0.0271647424,0.0270106215,-0.000320557912,-0.0276679844,-0.0548786707,-0.0279392507,0.0352649055,-0.00319294771,-0.0200787615,0.00753760152,0.0423111804,-0.0136233708,0.0212513059,-0.0199028812,-0.0112852501,-0.00194265007,0.00519030727,-0.00388437044,0.0201636832,-0.000540577981,-0.0229829215,-0.00459447503,-0.0215953551,-0.00239350274,-0.0197933149,-0.0121657057,0.0233466737,0.0295426119,-0.0132805202,-0.0251850691,-0.000209856909,-0.00510957884,0.00114558637,-9.94290676e-05,0.0217956547,-0.00712873507,0.000142449979,0.00536919758,-0.0306898821,-0.031428691,0.00273279566,-0.0297866259,0.0216625426,0.0350428969,-0.0102597745,-0.0276499093,0.00232248846,0.00311066955,0.0271693859,0.0239686221,-0.00660983007,0.00399305578,-0.00356093398,-0.0293827709,0.0207065586,-0.00744763901,-0.00749007007,0.0211137701,-0.0245197248,-0.00317803235,-0.0221755672,-0.00377718988,0.0218043793,0.0125413276,-0.0084535582,0.0284505747,-0.0194447879,0.0236708019,-0.0219658855,0.00291269156,0.00814653654,0.00421901979,0.0187824443,-0.0312787667,-0.00653826259,0.0089211762,0.00412068097,0.000972673937,-0.00222743209,-0.0168263987,-0.00357004255,-0.0135674784,0.00855198689,-0.00605413364,0.00370663824,-0.00823801104,0.0283108298,-0.00193307665,-0.0172599331,0.0244040694,-0.0302673075,-0.019854255,0.000962578109,0.0167100411,0.0163951237,0.0320703276,0.00309789088,0.0376602784,0.00315643987,0.0228987169,0.0228009932,-0.0374784395,-0.0281677693,0.00867202412,-0.00651151035,0.0380588397,0.00432997849,-0.030907562,0.033868283,-0.00939503498,0.00263808295,-0.0322809368,-0.0211000387,-0.00407771766,0.0299230181,-0.0416363999,0.0177933015,0.0031775895,-0.0157783069,0.00908054505,-0.0140427882,-0.00427805306,0.0216271617,-0.0100312708,-0.0169749819,0.016875267,-0.00304586533,0.00842196587,-0.0214395002,0.0427646264,0.0301908478,-0.0275645219,0.000768988684,-0.00757269235,0.0208017789,-0.00405289046,-0.0117713017,-0.00271233381,0.00883856881,0.0112190433,-0.0101621794,-0.0225630365,0.0173834972,-0.0204530917,0.00398802338,-0.00544039905,-0.0163708571,0.0139702391,0.0224896353,-0.00398422126,-0.0152298193,0.0166771337,-0.0196930096,0.0203758292,0.0417109989,-0.0151021974,-0.00248521916,0.00507332152,-0.00722447969,0.00890441239,-0.0184554551,0.0318328142,0.0125379618,0.00197274797,-0.0170008019,0.0167909767,-0.0219109822,0.0158003625,0.0163552333,0.00975615159,0.000388976099,-0.00726268813,-0.0109550804,-0.000296019803,-0.00557135744,0.00224539312,-0.0269231722,0.0186664369,0.0155120837,-0.00132543407,-0.000886964262,-0.00411006622,-0.0294744205,-0.0274961386,0.015891768,-0.00298029627,-0.0137400208,0.0268099513,-0.0122983428,0.00390341575,-0.0107784392,-0.0530651286,0.0385107771,-0.0429666564,-0.0126224253,0.053187795,0.00555341179,-0.0221518278,-0.00890299212,-0.0144279404,0.00068264216,-0.011622889,0.019156348,0.0137081556,0.00424317038,-0.00154109648,-0.0109960474,